{"learner":{"attributes":{},"feature_names":[],"feature_types":[],"gradient_booster":{"model":{"cats":{"enc":[],"feature_segments":[],"sorted_idx":[]},"gbtree_model_param":{"num_parallel_tree":"1","num_trees":"25"},"iteration_indptr":[0,1,2,3,4,5,6,7,8,9,10,11,12,13,14,15,16,17,18,19,20,21,22,23,24,25],"tree_info":[0,0,0,0,0,0,0,0,0,0,0,0,0,0,0,0,0,0,0,0,0,0,0,0,0],"trees":[{"base_weights":[-5.210822E-9,1.8480282E0,-8.544937E-1,2.3495395E0,-2.7182308E-1,-3.1592122E-1,-2.4156072E0,1.914805E-1,3.8505006E-1,-6.800746E-2,1.2617236E-1,3.6754582E-2,-1.4470908E-1,-1.7507927E-1,-3.8372716E-1],"categories":[],"categories_nodes":[],"categories_segments":[],"categories_sizes":[],"default_left":[0,1,1,1,1,1,1,0,0,0,0,0,0,0,0],"id":0,"left_children":[1,3,5,7,9,11,13,-1,-1,-1,-1,-1,-1,-1,-1],"loss_changes":[3.1614153E3,6.7359985E2,1.1502549E3,3.2671704E2,7.723894E1,7.883382E2,3.250271E2,0E0,0E0,0E0,0E0,0E0,0E0,0E0,0E0],"parents":[2147483647,0,0,1,1,2,2,3,3,4,4,5,5,6,6],"right_children":[2,4,6,8,10,12,14,-1,-1,-1,-1,-1,-1,-1,-1],"split_conditions":[-3.7206468E-1,6.9093436E-1,7.8301775E-1,8.057451E-1,6.538217E-1,1.1523097E-1,2.533139E-1,1.914805E-1,3.8505006E-1,-6.800746E-2,1.2617236E-1,3.6754582E-2,-1.4470908E-1,-1.7507927E-1,-3.8372716E-1],"split_indices":[6,1,6,5,5,1,1,0,0,0,0,0,0,0,0],"split_type":[0,0,0,0,0,0,0,0,0,0,0,0,0,0,0],"sum_hessian":[2E3,6.32E2,1.368E3,5.11E2,1.21E2,1.018E3,3.5E2,3.98E2,1.13E2,9.6E1,2.5E1,6.35E2,3.83E2,2.4E2,1.1E2],"tree_param":{"num_deleted":"0","num_feature":"8","num_nodes":"15","size_leaf_vector":"1"}},{"base_weights":[-1.6019918E-5,1.4313282E0,-8.964956E-1,2.8231506E0,8.2701284E-1,3.0064368E-1,-1.4646007E0,4.411179E-1,2.4195738E-1,1.8515553E-1,2.0740127E-2,1.5869695E-1,-3.9086185E-2,-6.316071E-2,-2.4603389E-1],"categories":[],"categories_nodes":[],"categories_segments":[],"categories_sizes":[],"default_left":[0,0,0,0,0,0,1,0,0,0,0,0,0,0,0],"id":1,"left_children":[1,3,5,7,9,11,13,-1,-1,-1,-1,-1,-1,-1,-1],"loss_changes":[2.568908E3,6.4615295E2,8.376446E2,1.3865454E2,3.4178305E2,3.5375235E2,6.910315E2,0E0,0E0,0E0,0E0,0E0,0E0,0E0,0E0],"parents":[2147483647,0,0,1,1,2,2,3,3,4,4,5,5,6,6],"right_children":[2,4,6,8,10,12,14,-1,-1,-1,-1,-1,-1,-1,-1],"split_conditions":[-1.1588265E-1,-3.7195995E-1,-2.5250122E-1,-1.2520065E0,-9.1871774E-1,-1.4740553E-1,4.1423386E-1,4.411179E-1,2.4195738E-1,1.8515553E-1,2.0740127E-2,1.5869695E-1,-3.9086185E-2,-6.316071E-2,-2.4603389E-1],"split_indices":[6,1,1,6,6,0,6,0,0,0,0,0,0,0,0],"split_type":[0,0,0,0,0,0,0,0,0,0,0,0,0,0,0],"sum_hessian":[2E3,7.7E2,1.23E3,2.32E2,5.38E2,3.96E2,8.34E2,4.5E1,1.87E2,2.02E2,3.36E2,1.38E2,2.58E2,4.55E2,3.79E2],"tree_param":{"num_deleted":"0","num_feature":"8","num_nodes":"15","size_leaf_vector":"1"}},{"base_weights":[3.3509635E-4,8.3892894E-1,-1.2649121E0,2.0560288E0,3.397197E-1,4.6039507E-2,-1.8322109E0,2.4889056E-1,4.452734E-3,1.2540637E-1,-1.9866025E-2,1.6310869E-1,-5.5762082E-2,-2.93041E-1,-1.2511003E-1],"categories":[],"categories_nodes":[],"categories_segments":[],"categories_sizes":[],"default_left":[1,0,0,1,0,0,0,0,0,0,0,0,0,0,0],"id":2,"left_children":[1,3,5,7,9,11,13,-1,-1,-1,-1,-1,-1,-1,-1],"loss_changes":[2.1241792E3,7.3083685E2,5.93558E2,3.046455E2,4.2113525E2,2.3246245E2,3.5179712E2,0E0,0E0,0E0,0E0,0E0,0E0,0E0,0E0],"parents":[2147483647,0,0,1,1,2,2,3,3,4,4,5,5,6,6],"right_children":[2,4,6,8,10,12,14,-1,-1,-1,-1,-1,-1,-1,-1],"split_conditions":[4.924695E-2,-8.1279004E-1,-3.4313986E-1,6.9093436E-1,-1.3424857E-1,-3.290175E-1,-3.81347E-1,2.4889056E-1,4.452734E-3,1.2540637E-1,-1.9866025E-2,1.6310869E-1,-5.5762082E-2,-2.93041E-1,-1.2511003E-1],"split_indices":[6,6,1,1,1,0,5,0,0,0,0,0,0,0,0],"split_type":[0,0,0,0,0,0,0,0,0,0,0,0,0,0,0],"sum_hessian":[2E3,1.203E3,7.97E2,3.49E2,8.54E2,2.41E2,5.56E2,2.87E2,6.2E1,3.16E2,5.38E2,6.6E1,1.75E2,1.91E2,3.65E2],"tree_param":{"num_deleted":"0","num_feature":"8","num_nodes":"15","size_leaf_vector":"1"}},{"base_weights":[3.256095E-4,1.3767861E0,-6.3612425E-1,1.7798679E0,-3.261207E-1,-2.8975227E-1,-2.3236296E0,1.3901548E-1,3.1282505E-1,-1.296949E-1,2.3815352E-2,1.8972604E-2,-1.3956128E-1,-4.0602556E-1,-1.8269546E-1],"categories":[],"categories_nodes":[],"categories_segments":[],"categories_sizes":[],"default_left":[0,1,1,1,0,1,0,0,0,0,0,0,0,0,0],"id":3,"left_children":[1,3,5,7,9,11,13,-1,-1,-1,-1,-1,-1,-1,-1],"loss_changes":[1.7538479E3,4.3507837E2,7.9951337E2,2.6469824E2,6.7142105E1,6.031433E2,1.9355371E2,0E0,0E0,0E0,0E0,0E0,0E0,0E0,0E0],"parents":[2147483647,0,0,1,1,2,2,3,3,4,4,5,5,6,6],"right_children":[2,4,6,8,10,12,14,-1,-1,-1,-1,-1,-1,-1,-1],"split_conditions":[-3.7206468E-1,6.9093436E-1,1.0817266E0,8.057451E-1,-9.536129E-2,3.380169E-1,-6.6964334E-1,1.3901548E-1,3.1282505E-1,-1.296949E-1,2.3815352E-2,1.8972604E-2,-1.3956128E-1,-4.0602556E-1,-1.8269546E-1],"split_indices":[6,1,6,5,5,1,5,0,0,0,0,0,0,0,0],"split_type":[0,0,0,0,0,0,0,0,0,0,0,0,0,0,0],"sum_hessian":[2E3,6.32E2,1.368E3,5.11E2,1.21E2,1.136E3,2.32E2,3.98E2,1.13E2,4.4E1,7.7E1,7.93E2,3.43E2,5E1,1.82E2],"tree_param":{"num_deleted":"0","num_feature":"8","num_nodes":"15","size_leaf_vector":"1"}},{"base_weights":[1.1147261E-4,5.2266604E-1,-1.407508E0,8.684098E-1,-8.632833E-1,9.6891636E-1,-1.6778822E0,-2.2602234E-2,1.317545E-1,-1.4594673E-1,5.385319E-3,2.4034075E-1,3.955292E-3,-2.654383E-1,-1.169258E-1],"categories":[],"categories_nodes":[],"categories_segments":[],"categories_sizes":[],"default_left":[1,1,0,0,1,0,0,0,0,0,0,0,0,0,0],"id":4,"left_children":[1,3,5,7,9,11,13,-1,-1,-1,-1,-1,-1,-1,-1],"loss_changes":[1.4725872E3,7.003575E2,3.4987354E2,5.7491724E2,1.5973895E2,7.45621E1,2.3877563E2,0E0,0E0,0E0,0E0,0E0,0E0,0E0,0E0],"parents":[2147483647,0,0,1,1,2,2,3,3,4,4,5,5,6,6],"right_children":[2,4,6,8,10,12,14,-1,-1,-1,-1,-1,-1,-1,-1],"split_conditions":[4.4838065E-1,6.9093436E-1,-1.1653668E0,-4.4832167E-1,1.109615E-1,-2.721044E-1,-3.9298233E-1,-2.2602234E-2,1.317545E-1,-1.4594673E-1,5.385319E-3,2.4034075E-1,3.955292E-3,-2.654383E-1,-1.169258E-1],"split_indices":[6,1,1,5,5,0,5,0,0,0,0,0,0,0,0],"split_type":[0,0,0,0,0,0,0,0,0,0,0,0,0,0,0],"sum_hessian":[2E3,1.459E3,5.41E2,1.168E3,2.91E2,5.5E1,4.86E2,3.4E2,8.28E2,1.76E2,1.15E2,2.1E1,3.4E1,1.65E2,3.21E2],"tree_param":{"num_deleted":"0","num_feature":"8","num_nodes":"15","size_leaf_vector":"1"}},{"base_weights":[1.5611266E-5,1.166281E0,-5.555946E-1,2.2257214E0,6.722729E-1,-9.9591285E-1,4.0471345E-1,2.9398116E-1,1.367935E-1,2.9879326E-2,2.0706129E-1,-5.0496977E-2,-1.9082685E-1,-5.1626112E-2,9.7530104E-2],"categories":[],"categories_nodes":[],"categories_segments":[],"categories_sizes":[],"default_left":[0,0,1,0,1,1,0,0,0,0,0,0,0,0,0],"id":5,"left_children":[1,3,5,7,9,11,13,-1,-1,-1,-1,-1,-1,-1,-1],"loss_changes":[1.2972739E3,3.366021E2,5.737757E2,1.21548584E2,2.302165E2,4.155971E2,2.2489053E2,0E0,0E0,0E0,0E0,0E0,0E0,0E0,0E0],"parents":[2147483647,0,0,1,1,2,2,3,3,4,4,5,5,6,6],"right_children":[2,4,6,8,10,12,14,-1,-1,-1,-1,-1,-1,-1,-1],"split_conditions":[-3.449957E-1,-3.7195995E-1,2.8556353E-1,3.416886E-1,7.976503E-1,1.7013972E-1,-1.6312501E-1,2.9398116E-1,1.367935E-1,2.9879326E-2,2.0706129E-1,-5.0496977E-2,-1.9082685E-1,-5.1626112E-2,9.7530104E-2],"split_indices":[6,1,5,0,5,1,4,0,0,0,0,0,0,0,0],"split_type":[0,0,0,0,0,0,0,0,0,0,0,0,0,0,0],"sum_hessian":[2E3,6.45E2,1.355E3,2.04E2,4.41E2,9.29E2,4.26E2,1.1E2,9.4E1,3.49E2,9.2E1,6.05E2,3.24E2,1.63E2,2.63E2],"tree_param":{"num_deleted":"0","num_feature":"8","num_nodes":"15","size_leaf_vector":"1"}},{"base_weights":[2.5008555E-4,6.0131097E-1,-9.06614E-1,1.6859442E0,2.5532675E-1,1.1009765E0,-1.1443431E0,2.2224462E-1,6.700488E-2,-6.337312E-2,6.2125754E-2,2.5756523E-1,5.451269E-2,-1.5845431E-1,-1.6162716E-2],"categories":[],"categories_nodes":[],"categories_segments":[],"categories_sizes":[],"default_left":[1,0,0,1,0,0,1,0,0,0,0,0,0,0,0],"id":6,"left_children":[1,3,5,7,9,11,13,-1,-1,-1,-1,-1,-1,-1,-1],"loss_changes":[1.0912513E3,4.513897E2,3.8211548E2,1.5711462E2,2.977487E2,6.8270256E1,3.0861438E2,0E0,0E0,0E0,0E0,0E0,0E0,0E0,0E0],"parents":[2147483647,0,0,1,1,2,2,3,3,4,4,5,5,6,6],"right_children":[2,4,6,8,10,12,14,-1,-1,-1,-1,-1,-1,-1,-1],"split_conditions":[4.924695E-2,-9.1871774E-1,-1.1653668E0,1.7013972E-1,-4.2449278E-1,-5.532118E-1,2.8556353E-1,2.2224462E-1,6.700488E-2,-6.337312E-2,6.2125754E-2,2.5756523E-1,5.451269E-2,-1.5845431E-1,-1.6162716E-2],"split_indices":[6,6,1,1,4,0,5,0,0,0,0,0,0,0,0],"split_type":[0,0,0,0,0,0,0,0,0,0,0,0,0,0,0],"sum_hessian":[2E3,1.203E3,7.97E2,2.9E2,9.13E2,8.4E1,7.13E2,1.89E2,1.01E2,2.66E2,6.47E2,2.2E1,6.2E1,4.92E2,2.21E2],"tree_param":{"num_deleted":"0","num_feature":"8","num_nodes":"15","size_leaf_vector":"1"}},{"base_weights":[4.37699E-4,4.032115E-1,-1.1415272E0,1.4202564E0,5.3063385E-2,-7.8553456E-1,-2.46774E0,2.24383E-1,6.1492722E-2,-3.9197925E-2,8.051646E-2,-5.2088577E-2,-2.5733212E-1,-2.0248726E-1,-3.3981237E-1],"categories":[],"categories_nodes":[],"categories_segments":[],"categories_sizes":[],"default_left":[1,0,1,0,1,0,0,0,0,0,0,0,0,0,0],"id":7,"left_children":[1,3,5,7,9,11,13,-1,-1,-1,-1,-1,-1,-1,-1],"loss_changes":[9.208273E2,5.269768E2,2.4450916E2,2.4999109E2,3.6917383E2,1.9406459E2,3.8443237E1,0E0,0E0,0E0,0E0,0E0,0E0,0E0,0E0],"parents":[2147483647,0,0,1,1,2,2,3,3,4,4,5,5,6,6],"right_children":[2,4,6,8,10,12,14,-1,-1,-1,-1,-1,-1,-1,-1],"split_conditions":[4.845163E-1,-4.7861406E-1,5.8493274E-1,3.416886E-1,1.7376193E-1,1.7403101E0,1.2405375E0,2.24383E-1,6.1492722E-2,-3.9197925E-2,8.051646E-2,-5.2088577E-2,-2.5733212E-1,-2.0248726E-1,-3.3981237E-1],"split_indices":[6,1,1,0,5,6,6,0,0,0,0,0,0,0,0],"split_type":[0,0,0,0,0,0,0,0,0,0,0,0,0,0,0],"sum_hessian":[2E3,1.479E3,5.21E2,3.78E2,1.101E3,4.12E2,1.09E2,1.86E2,1.92E2,6.92E2,4.09E2,3.6E2,5.2E1,7.6E1,3.3E1],"tree_param":{"num_deleted":"0","num_feature":"8","num_nodes":"15","size_leaf_vector":"1"}},{"base_weights":[1.317978E-4,8.064476E-1,-5.048801E-1,2.5412834E0,5.849335E-1,-1.4190923E0,-1.3130449E-1,1.3090777E-1,3.4701556E-1,9.75447E-2,-3.5364788E-2,-1.23075545E-1,-3.8709757E-1,1.0433241E-2,-1.5865415E-1],"categories":[],"categories_nodes":[],"categories_segments":[],"categories_sizes":[],"default_left":[0,0,0,1,1,1,1,0,0,0,0,0,0,0,0],"id":8,"left_children":[1,3,5,7,9,11,13,-1,-1,-1,-1,-1,-1,-1,-1],"loss_changes":[8.1521246E2,2.948016E2,4.2023386E2,9.503406E1,2.5141711E2,1.6009125E2,3.0020966E2,0E0,0E0,0E0,0E0,0E0,0E0,0E0,0E0],"parents":[2147483647,0,0,1,1,2,2,3,3,4,4,5,5,6,6],"right_children":[2,4,6,8,10,12,14,-1,-1,-1,-1,-1,-1,-1,-1],"split_conditions":[-1.1588265E-1,-1.5726858E0,-4.99199E-1,-1.5134546E-1,3.2368234E-1,1.6170088E0,9.4084406E-1,1.3090777E-1,3.4701556E-1,9.75447E-2,-3.5364788E-2,-1.23075545E-1,-3.8709757E-1,1.0433241E-2,-1.5865415E-1],"split_indices":[6,6,5,5,1,6,1,0,0,0,0,0,0,0,0],"split_type":[0,0,0,0,0,0,0,0,0,0,0,0,0,0,0],"sum_hessian":[2E3,7.7E2,1.23E3,8.6E1,6.84E2,3.56E2,8.74E2,3.8E1,4.8E1,4.83E2,2.01E2,3.32E2,2.4E1,7.53E2,1.21E2],"tree_param":{"num_deleted":"0","num_feature":"8","num_nodes":"15","size_leaf_vector":"1"}},{"base_weights":[5.950966E-5,1.1739345E0,-2.8938913E-1,4.884449E-1,1.8167068E0,-7.2474396E-1,4.096233E-1,6.7961596E-2,-1.6688602E-1,3.070308E-1,1.4005986E-1,-1.6144158E-1,-3.8374703E-2,6.1875142E-2,-1.0871803E-1],"categories":[],"categories_nodes":[],"categories_segments":[],"categories_sizes":[],"default_left":[0,1,1,1,0,0,1,0,0,0,0,0,0,0,0],"id":9,"left_children":[1,3,5,7,9,11,13,-1,-1,-1,-1,-1,-1,-1,-1],"loss_changes":[6.8023254E2,1.735957E2,4.890323E2,8.073012E1,1.02112976E2,2.997221E2,1.938083E2,0E0,0E0,0E0,0E0,0E0,0E0,0E0,0E0],"parents":[2147483647,0,0,1,1,2,2,3,3,4,4,5,5,6,6],"right_children":[2,4,6,8,10,12,14,-1,-1,-1,-1,-1,-1,-1,-1],"split_conditions":[-7.231275E-1,-1.719433E-1,1.3258725E-1,1.4764075E0,-1.5726858E0,-4.99199E-1,1.0712525E0,6.7961596E-2,-1.6688602E-1,3.070308E-1,1.4005986E-1,-1.6144158E-1,-3.8374703E-2,6.1875142E-2,-1.0871803E-1],"split_indices":[6,5,4,1,6,5,1,0,0,0,0,0,0,0,0],"split_type":[0,0,0,0,0,0,0,0,0,0,0,0,0,0,0],"sum_hessian":[2E3,3.95E2,1.605E3,1.92E2,2.03E2,9.89E2,6.16E2,1.77E2,1.5E1,4.9E1,1.54E2,2.73E2,7.16E2,5.41E2,7.5E1],"tree_param":{"num_deleted":"0","num_feature":"8","num_nodes":"15","size_leaf_vector":"1"}},{"base_weights":[1.042841E-4,2.853567E-1,-1.1075102E0,-4.5462674E-1,6.8623316E-1,-7.93136E-1,-2.2488213E0,-1.5849853E-1,-2.2612927E-2,1.5352523E-1,3.1161437E-2,1.0056525E-2,-1.21800125E-1,-3.4000832E-1,-1.7639719E-1],"categories":[],"categories_nodes":[],"categories_segments":[],"categories_sizes":[],"default_left":[1,0,0,0,0,0,0,0,0,0,0,0,0,0,0],"id":10,"left_children":[1,3,5,7,9,11,13,-1,-1,-1,-1,-1,-1,-1,-1],"loss_changes":[6.325315E2,4.7256598E2,1.4532394E2,1.4428067E2,3.2807602E2,1.2276643E2,4.3122925E1,0E0,0E0,0E0,0E0,0E0,0E0,0E0,0E0],"parents":[2147483647,0,0,1,1,2,2,3,3,4,4,5,5,6,6],"right_children":[2,4,6,8,10,12,14,-1,-1,-1,-1,-1,-1,-1,-1],"split_conditions":[6.7261976E-1,-2.4508981E-1,1.6170088E0,-8.103685E-1,-3.6617464E-1,-2.57395E-1,-4.99199E-1,-1.5849853E-1,-2.2612927E-2,1.5352523E-1,3.1161437E-2,1.0056525E-2,-1.21800125E-1,-3.4000832E-1,-1.7639719E-1],"split_indices":[6,4,6,5,1,1,5,0,0,0,0,0,0,0,0],"split_type":[0,0,0,0,0,0,0,0,0,0,0,0,0,0,0],"sum_hessian":[2E3,1.591E3,4.09E2,5.59E2,1.032E3,3.22E2,8.7E1,9.3E1,4.66E2,3.15E2,7.17E2,1.04E2,2.18E2,2.4E1,6.3E1],"tree_param":{"num_deleted":"0","num_feature":"8","num_nodes":"15","size_leaf_vector":"1"}},{"base_weights":[-2.1827153E-4,-2.2551353E-1,1.2436764E0,3.6540574E-1,-6.893033E-1,2.7220252E0,9.793722E-1,1.394482E-1,1.1480587E-2,1.0248209E-2,-1.0322066E-1,3.083628E-1,2.6686346E-2,2.0540116E-2,1.3696253E-1],"categories":[],"categories_nodes":[],"categories_segments":[],"categories_sizes":[],"default_left":[1,0,0,0,0,1,0,0,0,0,0,0,0,0,0],"id":11,"left_children":[1,3,5,7,9,11,13,-1,-1,-1,-1,-1,-1,-1,-1],"loss_changes":[5.6104785E2,4.6478748E2,1.1728949E2,1.9222314E2,2.5803625E2,4.0015564E1,7.8854385E1,0E0,0E0,0E0,0E0,0E0,0E0,0E0,0E0],"parents":[2147483647,0,0,1,1,2,2,3,3,4,4,5,5,6,6],"right_children":[2,4,6,8,10,12,14,-1,-1,-1,-1,-1,-1,-1,-1],"split_conditions":[9.4281644E-1,4.924695E-2,-9.2732704E-1,-6.947322E-1,-3.3282173E-1,1.2220075E0,-1.6312501E-1,1.394482E-1,1.1480587E-2,1.0248209E-2,-1.0322066E-1,3.083628E-1,2.6686346E-2,2.0540116E-2,1.3696253E-1],"split_indices":[5,6,1,1,1,6,4,0,0,0,0,0,0,0,0],"split_type":[0,0,0,0,0,0,0,0,0,0,0,0,0,0,0],"sum_hessian":[2E3,1.694E3,3.06E2,7.45E2,9.49E2,4.5E1,2.61E2,1.45E2,6E2,2.87E2,6.62E2,3.9E1,6E0,8.8E1,1.73E2],"tree_param":{"num_deleted":"0","num_feature":"8","num_nodes":"15","size_leaf_vector":"1"}},{"base_weights":[7.868354E-5,1.8009284E-1,-1.3666385E0,4.3856007E-1,-7.113573E-1,-2.5121663E0,-1.071417E0,1.1310432E-1,3.5170037E-3,-1.3509998E-1,-2.8016835E-2,-1.996813E-1,-3.304154E-1,-5.135963E-2,-1.6542433E-1],"categories":[],"categories_nodes":[],"categories_segments":[],"categories_sizes":[],"default_left":[1,1,0,0,0,0,1,0,0,0,0,0,0,0,0],"id":12,"left_children":[1,3,5,7,9,11,13,-1,-1,-1,-1,-1,-1,-1,-1],"loss_changes":[4.9254907E2,4.079084E2,7.610544E1,3.8321582E2,1.0939256E2,1.2585419E1,5.9946426E1,0E0,0E0,0E0,0E0,0E0,0E0,0E0,0E0],"parents":[2147483647,0,0,1,1,2,2,3,3,4,4,5,5,6,6],"right_children":[2,4,6,8,10,12,14,-1,-1,-1,-1,-1,-1,-1,-1],"split_conditions":[1.0817266E0,5.545298E-1,-7.462243E-1,-1.1044703E-1,-9.536129E-2,1.6402843E0,-2.1390922E-1,1.1310432E-1,3.5170037E-3,-1.3509998E-1,-2.8016835E-2,-1.996813E-1,-3.304154E-1,-5.135963E-2,-1.6542433E-1],"split_indices":[6,1,5,0,5,6,1,0,0,0,0,0,0,0,0],"split_type":[0,0,0,0,0,0,0,0,0,0,0,0,0,0,0],"sum_hessian":[2E3,1.768E3,2.32E2,1.371E3,3.97E2,4.6E1,1.86E2,5.04E2,8.67E2,1.59E2,2.38E2,3E1,1.6E1,9.6E1,9E1],"tree_param":{"num_deleted":"0","num_feature":"8","num_nodes":"15","size_leaf_vector":"1"}},{"base_weights":[-3.2568036E-4,-7.579749E-1,2.961002E-1,-9.9864393E-1,3.0131128E-1,-4.137437E-1,6.4300823E-1,-6.792031E-2,-1.810553E-1,7.9026334E-2,-2.122411E-2,-5.9299853E-2,7.2054796E-2,1.7973885E-1,3.9803546E-2],"categories":[],"categories_nodes":[],"categories_segments":[],"categories_sizes":[],"default_left":[0,1,0,1,0,1,0,0,0,0,0,0,0,0,0],"id":13,"left_children":[1,3,5,7,9,11,13,-1,-1,-1,-1,-1,-1,-1,-1],"loss_changes":[4.496227E2,1.4383063E2,3.5462057E2,1.17815094E2,2.653349E1,9.660107E1,2.7274423E2,0E0,0E0,0E0,0E0,0E0,0E0,0E0,0E0],"parents":[2147483647,0,0,1,1,2,2,3,3,4,4,5,5,6,6],"right_children":[2,4,6,8,10,12,14,-1,-1,-1,-1,-1,-1,-1,-1],"split_conditions":[-4.99199E-1,8.925884E-1,-3.224172E-1,4.845163E-1,1.7013972E-1,1.1564436E0,-8.005238E-1,-6.792031E-2,-1.810553E-1,7.9026334E-2,-2.122411E-2,-5.9299853E-2,7.2054796E-2,1.7973885E-1,3.9803546E-2],"split_indices":[5,4,4,6,1,5,6,0,0,0,0,0,0,0,0],"split_type":[0,0,0,0,0,0,0,0,0,0,0,0,0,0,0],"sum_hessian":[2E3,5.62E2,1.438E3,4.58E2,1.04E2,4.72E2,9.66E2,3.3E2,1.28E2,5.3E1,5.1E1,4.08E2,6.4E1,1.68E2,7.98E2],"tree_param":{"num_deleted":"0","num_feature":"8","num_nodes":"15","size_leaf_vector":"1"}},{"base_weights":[-2.7255405E-4,1.3600757E0,-1.546167E-1,2.4563947E0,6.760367E-1,-3.644825E-1,8.0126804E-1,3.7732473E-1,1.9050412E-1,1.09349154E-1,-4.9798653E-2,-1.052129E-2,-1.0905671E-1,3.5420668E-3,1.2056996E-1],"categories":[],"categories_nodes":[],"categories_segments":[],"categories_sizes":[],"default_left":[0,0,1,0,1,1,0,0,0,0,0,0,0,0,0],"id":14,"left_children":[1,3,5,7,9,11,13,-1,-1,-1,-1,-1,-1,-1,-1],"loss_changes":[4.2034384E2,1.513241E2,3.609843E2,4.9443817E1,6.278745E1,2.7755646E2,1.00310745E2,0E0,0E0,0E0,0E0,0E0,0E0,0E0,0E0],"parents":[2147483647,0,0,1,1,2,2,3,3,4,4,5,5,6,6],"right_children":[2,4,6,8,10,12,14,-1,-1,-1,-1,-1,-1,-1,-1],"split_conditions":[-1.1235182E0,-1.4740553E-1,8.135456E-1,-1.6941774E0,8.44208E-1,5.150736E-1,-1.6312501E-1,3.7732473E-1,1.9050412E-1,1.09349154E-1,-4.9798653E-2,-1.052129E-2,-1.0905671E-1,3.5420668E-3,1.2056996E-1],"split_indices":[1,0,5,1,0,6,4,0,0,0,0,0,0,0,0],"split_type":[0,0,0,0,0,0,0,0,0,0,0,0,0,0,0],"sum_hessian":[2E3,2.03E2,1.797E3,7.7E1,1.26E2,1.474E3,3.23E2,2.1E1,5.6E1,9.3E1,3.3E1,1.087E3,3.87E2,1.12E2,2.11E2],"tree_param":{"num_deleted":"0","num_feature":"8","num_nodes":"15","size_leaf_vector":"1"}},{"base_weights":[7.050097E-5,1.4652218E-1,-1.2837038E0,1.0337154E0,-7.1076795E-2,-1.563562E0,-2.241418E-1,2.3433097E-1,8.354143E-2,6.1987486E-2,-3.560333E-2,-1.317506E-1,-2.7450457E-1,3.3444192E-2,-1.2225659E-1],"categories":[],"categories_nodes":[],"categories_segments":[],"categories_sizes":[],"default_left":[1,0,1,0,0,0,0,0,0,0,0,0,0,0,0],"id":15,"left_children":[1,3,5,7,9,11,13,-1,-1,-1,-1,-1,-1,-1,-1],"loss_changes":[3.7639795E2,3.4698853E2,6.043759E1,8.997403E1,2.8453152E2,4.3478577E1,2.4947828E1,0E0,0E0,0E0,0E0,0E0,0E0,0E0,0E0],"parents":[2147483647,0,0,1,1,2,2,3,3,4,4,5,5,6,6],"right_children":[2,4,6,8,10,12,14,-1,-1,-1,-1,-1,-1,-1,-1],"split_conditions":[1.1211932E0,-7.231275E-1,7.0165443E-1,-1.9779503E0,-3.290175E-1,2.0865147E0,4.4838065E-1,2.3433097E-1,8.354143E-2,6.1987486E-2,-3.560333E-2,-1.317506E-1,-2.7450457E-1,3.3444192E-2,-1.2225659E-1],"split_indices":[1,6,4,6,0,1,6,0,0,0,0,0,0,0,0],"split_type":[0,0,0,0,0,0,0,0,0,0,0,0,0,0,0],"sum_hessian":[2E3,1.796E3,2.04E2,3.53E2,1.443E3,1.61E2,4.3E1,4.5E1,3.08E2,4.21E2,1.022E3,1.35E2,2.6E1,2.8E1,1.5E1],"tree_param":{"num_deleted":"0","num_feature":"8","num_nodes":"15","size_leaf_vector":"1"}},{"base_weights":[-1.192108E-5,-3.1552804E-1,5.533348E-1,-4.7038102E-1,9.637346E-1,-1.23110056E-1,8.567674E-1,-2.2282625E-2,-1.1835585E-1,1.6073039E-1,4.017058E-2,1.8775687E-3,-1.8685745E-1,2.2056131E-1,6.959995E-2],"categories":[],"categories_nodes":[],"categories_segments":[],"categories_sizes":[],"default_left":[1,1,0,1,0,1,0,0,0,0,0,0,0,0,0],"id":16,"left_children":[1,3,5,7,9,11,13,-1,-1,-1,-1,-1,-1,-1,-1],"loss_changes":[3.4952875E2,2.5302786E2,1.4932622E2,2.0065073E2,4.9269547E1,5.6005463E1,1.0732419E2,0E0,0E0,0E0,0E0,0E0,0E0,0E0,0E0],"parents":[2147483647,0,0,1,1,2,2,3,3,4,4,5,5,6,6],"right_children":[2,4,6,8,10,12,14,-1,-1,-1,-1,-1,-1,-1,-1],"split_conditions":[1.8422192E-1,1.1683382E0,-4.4832167E-1,4.845163E-1,3.416886E-1,1.596772E0,-1.0993706E0,-2.2282625E-2,-1.1835585E-1,1.6073039E-1,4.017058E-2,1.8775687E-3,-1.8685745E-1,2.2056131E-1,6.959995E-2],"split_indices":[4,5,5,6,0,1,1,0,0,0,0,0,0,0,0],"split_type":[0,0,0,0,0,0,0,0,0,0,0,0,0,0,0],"sum_hessian":[2E3,1.274E3,7.26E2,1.137E3,1.37E2,2.25E2,5.01E2,8.45E2,2.92E2,6.3E1,7.4E1,2.09E2,1.6E1,5.2E1,4.49E2],"tree_param":{"num_deleted":"0","num_feature":"8","num_nodes":"15","size_leaf_vector":"1"}},{"base_weights":[7.194561E-5,-9.4422114E-1,1.6586383E-1,-1.1647091E0,4.3268582E-1,8.08343E-1,-9.8823845E-2,3.2971542E-2,-1.2781648E-1,1.437134E-1,-1.20864455E-2,1.1875838E-1,-1.20487055E-2,-4.4881403E-2,3.628692E-2],"categories":[],"categories_nodes":[],"categories_segments":[],"categories_sizes":[],"default_left":[0,1,0,0,0,1,1,0,0,0,0,0,0,0,0],"id":17,"left_children":[1,3,5,7,9,11,13,-1,-1,-1,-1,-1,-1,-1,-1],"loss_changes":[3.134254E2,9.127777E1,2.896858E2,4.4165558E1,2.3526226E1,1.7521149E2,1.9519962E2,0E0,0E0,0E0,0E0,0E0,0E0,0E0,0E0],"parents":[2147483647,0,0,1,1,2,2,3,3,4,4,5,5,6,6],"right_children":[2,4,6,8,10,12,14,-1,-1,-1,-1,-1,-1,-1,-1],"split_conditions":[-9.732676E-1,1.2951832E0,-3.6617464E-1,-1.2713608E0,-6.2597996E-1,4.7941402E-1,-5.7670727E-2,3.2971542E-2,-1.2781648E-1,1.437134E-1,-1.20864455E-2,1.1875838E-1,-1.20487055E-2,-4.4881403E-2,3.628692E-2],"split_indices":[5,4,1,6,0,0,4,0,0,0,0,0,0,0,0],"split_type":[0,0,0,0,0,0,0,0,0,0,0,0,0,0,0],"sum_hessian":[2E3,2.98E2,1.702E3,2.57E2,4.1E1,4.96E2,1.206E3,1.8E1,2.39E2,1.4E1,2.7E1,3.52E2,1.44E2,6.86E2,5.2E2],"tree_param":{"num_deleted":"0","num_feature":"8","num_nodes":"15","size_leaf_vector":"1"}},{"base_weights":[1.3216495E-4,1.21148914E-1,-1.2248269E0,3.6590027E-3,1.3936782E0,-8.8032734E-1,-1.9917747E0,1.2513256E-1,-1.14974E-2,1.9142376E-1,1.0220595E-1,-5.612413E-2,-1.604494E-1,-1.5790825E-1,-2.9870152E-1],"categories":[],"categories_nodes":[],"categories_segments":[],"categories_sizes":[],"default_left":[1,1,0,0,0,1,1,0,0,0,0,0,0,0,0],"id":18,"left_children":[1,3,5,7,9,11,13,-1,-1,-1,-1,-1,-1,-1,-1],"loss_changes":[2.9677777E2,2.724009E2,4.5804962E1,2.4717995E2,2.7834808E1,2.82145E1,1.7873306E1,0E0,0E0,0E0,0E0,0E0,0E0,0E0,0E0],"parents":[2147483647,0,0,1,1,2,2,3,3,4,4,5,5,6,6],"right_children":[2,4,6,8,10,12,14,-1,-1,-1,-1,-1,-1,-1,-1],"split_conditions":[1.2037345E0,1.3051571E0,1.8347176E0,-1.2304453E0,-4.1598476E-2,2.2154295E-1,5.9312356E-1,1.2513256E-1,-1.14974E-2,1.9142376E-1,1.0220595E-1,-5.612413E-2,-1.604494E-1,-1.5790825E-1,-2.9870152E-1],"split_indices":[6,5,6,1,1,1,0,0,0,0,0,0,0,0,0],"split_type":[0,0,0,0,0,0,0,0,0,0,0,0,0,0,0],"sum_hessian":[2E3,1.821E3,1.79E2,1.668E3,1.53E2,1.25E2,5.4E1,1.44E2,1.524E3,6.2E1,9.1E1,8.8E1,3.7E1,4E1,1.4E1],"tree_param":{"num_deleted":"0","num_feature":"8","num_nodes":"15","size_leaf_vector":"1"}},{"base_weights":[-1.3941851E-5,6.160301E-1,-2.2410624E-1,1.6497487E-2,9.6644974E-1,-1.07465796E-1,-1.384486E0,-9.739829E-2,2.2049649E-2,1.8858096E-1,7.564252E-2,1.8595858E-2,-6.0577374E-2,-1.5213989E-1,1.3424518E-2],"categories":[],"categories_nodes":[],"categories_segments":[],"categories_sizes":[],"default_left":[0,0,1,0,0,1,1,0,0,0,0,0,0,0,0],"id":19,"left_children":[1,3,5,7,9,11,13,-1,-1,-1,-1,-1,-1,-1,-1],"loss_changes":[2.7637756E2,1.1217105E2,1.9854091E2,4.0222046E1,6.3644196E1,1.953106E2,2.8067352E1,0E0,0E0,0E0,0E0,0E0,0E0,0E0,0E0],"parents":[2147483647,0,0,1,1,2,2,3,3,4,4,5,5,6,6],"right_children":[2,4,6,8,10,12,14,-1,-1,-1,-1,-1,-1,-1,-1],"split_conditions":[-5.297306E-1,-2.5185218E-1,1.1552879E0,-8.103685E-1,-1.5726858E0,2.5259355E-1,1.3059177E0,-9.739829E-2,2.2049649E-2,1.8858096E-1,7.564252E-2,1.8595858E-2,-6.0577374E-2,-1.5213989E-1,1.3424518E-2],"split_indices":[6,4,1,5,6,0,4,0,0,0,0,0,0,0,0],"split_type":[0,0,0,0,0,0,0,0,0,0,0,0,0,0,0],"sum_hessian":[2E3,5.33E2,1.467E3,1.97E2,3.36E2,1.334E3,1.33E2,3.3E1,1.64E2,6.1E1,2.75E2,8.4E2,4.94E2,1.22E2,1.1E1],"tree_param":{"num_deleted":"0","num_feature":"8","num_nodes":"15","size_leaf_vector":"1"}},{"base_weights":[-8.458572E-6,-6.465678E-1,1.9395936E-1,-1.3008133E0,-3.8921502E-1,4.8149246E-1,-2.801613E-1,-1.3821294E-2,-1.4864258E-1,-1.9122543E-2,-1.3445467E-1,1.1601038E-1,1.6171424E-2,-9.681065E-3,-1.02388255E-1],"categories":[],"categories_nodes":[],"categories_segments":[],"categories_sizes":[],"default_left":[0,0,1,0,1,0,0,0,0,0,0,0,0,0,0],"id":20,"left_children":[1,3,5,7,9,11,13,-1,-1,-1,-1,-1,-1,-1,-1],"loss_changes":[2.5107422E2,7.7281525E1,2.1007599E2,2.7847672E1,6.2728416E1,2.0792033E2,7.926343E1,0E0,0E0,0E0,0E0,0E0,0E0,0E0,0E0],"parents":[2147483647,0,0,1,1,2,2,3,3,4,4,5,5,6,6],"right_children":[2,4,6,8,10,12,14,-1,-1,-1,-1,-1,-1,-1,-1],"split_conditions":[-6.2695724E-1,-1.4864491E0,9.612679E-2,-9.328798E-1,7.550102E-1,-2.2164774E-1,1.3064653E0,-1.3821294E-2,-1.4864258E-1,-1.9122543E-2,-1.3445467E-1,1.1601038E-1,1.6171424E-2,-9.681065E-3,-1.02388255E-1],"split_indices":[5,5,1,6,1,0,1,0,0,0,0,0,0,0,0],"split_type":[0,0,0,0,0,0,0,0,0,0,0,0,0,0,0],"sum_hessian":[2E3,4.61E2,1.539E3,1.29E2,3.32E2,9.58E2,5.81E2,1.8E1,1.11E2,2.76E2,5.6E1,3.06E2,6.52E2,4.67E2,1.14E2],"tree_param":{"num_deleted":"0","num_feature":"8","num_nodes":"15","size_leaf_vector":"1"}},{"base_weights":[-1.5550571E-4,-6.288827E-1,1.9542117E-1,-1.1581252E0,-3.713704E-1,3.2920462E-1,-7.768306E-1,-9.5654584E-2,-2.0382689E-1,6.602263E-2,-5.080933E-2,7.5612734E-3,8.339608E-2,-5.484268E-2,-1.6178183E-1],"categories":[],"categories_nodes":[],"categories_segments":[],"categories_sizes":[],"default_left":[0,0,1,1,0,1,0,0,0,0,0,0,0,0,0],"id":21,"left_children":[1,3,5,7,9,11,13,-1,-1,-1,-1,-1,-1,-1,-1],"loss_changes":[2.4617464E2,6.4305954E1,1.9887442E2,2.5550201E1,4.5610233E1,1.7184372E2,3.4648422E1,0E0,0E0,0E0,0E0,0E0,0E0,0E0,0E0],"parents":[2147483647,0,0,1,1,2,2,3,3,4,4,5,5,6,6],"right_children":[2,4,6,8,10,12,14,-1,-1,-1,-1,-1,-1,-1,-1],"split_conditions":[-6.0964674E-1,-3.104348E-1,1.0603275E0,7.582594E-1,-1.1457529E0,2.6140204E-1,1.8347176E0,-9.5654584E-2,-2.0382689E-1,6.602263E-2,-5.080933E-2,7.5612734E-3,8.339608E-2,-5.484268E-2,-1.6178183E-1],"split_indices":[4,5,6,0,6,5,6,0,0,0,0,0,0,0,0],"split_type":[0,0,0,0,0,0,0,0,0,0,0,0,0,0,0],"sum_hessian":[2E3,4.74E2,1.526E3,1.54E2,3.2E2,1.342E3,1.84E2,1.27E2,2.7E1,3.7E1,2.83E2,8.94E2,4.48E2,1.46E2,3.8E1],"tree_param":{"num_deleted":"0","num_feature":"8","num_nodes":"15","size_leaf_vector":"1"}},{"base_weights":[-3.4482003E-4,-1.5539263E-1,7.2895515E-1,-3.0169994E-1,6.357227E-1,9.972472E-1,2.4194756E-1,-1.5261361E-2,-1.00373544E-1,2.4975263E-1,5.1866215E-2,1.2578678E-1,3.4638103E-2,1.1366062E-2,1.4512019E-1],"categories":[],"categories_nodes":[],"categories_segments":[],"categories_sizes":[],"default_left":[1,1,1,1,0,1,0,0,0,0,0,0,0,0,0],"id":22,"left_children":[1,3,5,7,9,11,13,-1,-1,-1,-1,-1,-1,-1,-1],"loss_changes":[2.2637909E2,1.9128836E2,4.562047E1,1.4574828E2,5.4934105E1,3.7900482E1,1.9381626E1,0E0,0E0,0E0,0E0,0E0,0E0,0E0,0E0],"parents":[2147483647,0,0,1,1,2,2,3,3,4,4,5,5,6,6],"right_children":[2,4,6,8,10,12,14,-1,-1,-1,-1,-1,-1,-1,-1],"split_conditions":[8.722679E-1,9.4281644E-1,9.612679E-2,8.0422103E-1,-1.581368E0,4.8962146E-1,2.0635889E0,-1.5261361E-2,-1.00373544E-1,2.4975263E-1,5.1866215E-2,1.2578678E-1,3.4638103E-2,1.1366062E-2,1.4512019E-1],"split_indices":[4,5,1,6,1,0,4,0,0,0,0,0,0,0,0],"split_type":[0,0,0,0,0,0,0,0,0,0,0,0,0,0,0],"sum_hessian":[2E3,1.65E3,3.5E2,1.393E3,2.57E2,2.25E2,1.25E2,1.15E3,2.43E2,1.4E1,2.43E2,1.6E2,6.5E1,1.14E2,1.1E1],"tree_param":{"num_deleted":"0","num_feature":"8","num_nodes":"15","size_leaf_vector":"1"}},{"base_weights":[-5.900594E-5,9.462633E-1,-1.0742813E-1,1.5790441E0,2.7238077E-1,-2.935102E-1,4.4085178E-1,2.1913706E-1,1.0832765E-1,6.309197E-2,-5.8524072E-2,6.331245E-2,-4.1142546E-2,5.1788934E-2,-1.1795869E-1],"categories":[],"categories_nodes":[],"categories_segments":[],"categories_sizes":[],"default_left":[0,1,1,0,0,0,1,0,0,0,0,0,0,0,0],"id":23,"left_children":[1,3,5,7,9,11,13,-1,-1,-1,-1,-1,-1,-1,-1],"loss_changes":[2.0341487E2,8.6559586E1,1.8357047E2,2.950113E1,3.1118309E1,1.470025E2,5.753547E1,0E0,0E0,0E0,0E0,0E0,0E0,0E0,0E0],"parents":[2147483647,0,0,1,1,2,2,3,3,4,4,5,5,6,6],"right_children":[2,4,6,8,10,12,14,-1,-1,-1,-1,-1,-1,-1,-1],"split_conditions":[-1.1235182E0,-1.3807465E-1,5.366713E-1,-1.581368E0,9.343954E-1,-1.1457529E0,1.6170088E0,2.1913706E-1,1.0832765E-1,6.309197E-2,-5.8524072E-2,6.331245E-2,-4.1142546E-2,5.1788934E-2,-1.1795869E-1],"split_indices":[1,0,4,1,0,6,6,0,0,0,0,0,0,0,0],"split_type":[0,0,0,0,0,0,0,0,0,0,0,0,0,0,0],"sum_hessian":[2E3,2.03E2,1.797E3,1.04E2,9.9E1,1.342E3,4.55E2,4.5E1,5.9E1,7E1,2.9E1,1.51E2,1.191E3,4.35E2,2E1],"tree_param":{"num_deleted":"0","num_feature":"8","num_nodes":"15","size_leaf_vector":"1"}},{"base_weights":[9.083267E-5,2.353547E-1,-3.8931155E-1,4.0392366E-1,-7.2929126E-1,-2.4992262E-1,-1.2298231E0,1.072554E-1,2.2210406E-2,-1.2638772E-2,-1.10896386E-1,-3.9298186E-4,-6.3148655E-2,-1.3648172E-1,3.917591E-2],"categories":[],"categories_nodes":[],"categories_segments":[],"categories_sizes":[],"default_left":[1,1,0,0,0,1,1,0,0,0,0,0,0,0,0],"id":24,"left_children":[1,3,5,7,9,11,13,-1,-1,-1,-1,-1,-1,-1,-1],"loss_changes":[1.8340788E2,2.0323106E2,8.802978E1,1.2899081E2,4.243634E1,6.082008E1,2.3957413E1,0E0,0E0,0E0,0E0,0E0,0E0,0E0,0E0],"parents":[2147483647,0,0,1,1,2,2,3,3,4,4,5,5,6,6],"right_children":[2,4,6,8,10,12,14,-1,-1,-1,-1,-1,-1,-1,-1],"split_conditions":[9.612679E-2,9.343954E-1,1.5089548E0,-7.617771E-1,-5.8852743E-2,1.1678648E-1,1.3059177E0,1.072554E-1,2.2210406E-2,-1.2638772E-2,-1.10896386E-1,-3.9298186E-4,-6.3148655E-2,-1.3648172E-1,3.917591E-2],"split_indices":[1,0,1,0,6,6,4,0,0,0,0,0,0,0,0],"split_type":[0,0,0,0,0,0,0,0,0,0,0,0,0,0,0],"sum_hessian":[2E3,1.247E3,7.53E2,1.062E3,1.85E2,6.47E2,1.06E2,2.26E2,8.36E2,7.2E1,1.13E2,3.94E2,2.53E2,9.8E1,8E0],"tree_param":{"num_deleted":"0","num_feature":"8","num_nodes":"15","size_leaf_vector":"1"}}]},"name":"gbtree"},"learner_model_param":{"base_score":"[3.8430945E-3]","boost_from_average":"1","num_class":"0","num_feature":"8","num_target":"1"},"objective":{"name":"reg:squarederror","reg_loss_param":{"scale_pos_weight":"1"}}},"version":[3,1,2]}