{"learner":{"attributes":{},"feature_names":[],"feature_types":[],"gradient_booster":{"model":{"cats":{"enc":[],"feature_segments":[],"sorted_idx":[]},"gbtree_model_param":{"num_parallel_tree":"1","num_trees":"12"},"iteration_indptr":[0,1,2,3,4,5,6,7,8,9,10,11,12],"tree_info":[0,0,0,0,0,0,0,0,0,0,0,0],"trees":[{"base_weights":[-4.2265928E-8,-8.595647E-1,1.2102671E0,-1.2722246E-2,-1.8992782E0,2.0621672E0,1.24895036E-1,1.0287328E-1,-7.936999E-2,-3.3774704E-1,-1.352412E-1,6.681808E-2,2.5938237E-1,-1.4529568E-1,5.7686515E-2],"categories":[],"categories_nodes":[],"categories_segments":[],"categories_sizes":[],"default_left":[0,0,0,0,0,0,0,0,0,0,0,0,0,0,0],"id":0,"left_children":[1,3,5,7,9,11,13,-1,-1,-1,-1,-1,-1,-1,-1],"loss_changes":[6.262623E2,3.0990253E2,2.308996E2,1.5942038E2,1.2315527E2,1.02023926E2,7.999691E1,0E0,0E0,0E0,0E0,0E0,0E0,0E0,0E0],"parents":[2147483647,0,0,1,1,2,2,3,3,4,4,5,5,6,6],"right_children":[2,4,6,8,10,12,14,-1,-1,-1,-1,-1,-1,-1,-1],"split_conditions":[1.7789038E-1,1.3522355E-1,1.807404E-1,-1.4845163E-1,-6.535601E-1,-4.4313017E-1,-6.535601E-1,1.0287328E-1,-7.936999E-2,-3.3774704E-1,-1.352412E-1,6.681808E-2,2.5938237E-1,-1.4529568E-1,5.7686515E-2],"split_indices":[5,3,3,1,4,2,4,0,0,0,0,0,0,0,0],"split_type":[0,0,0,0,0,0,0,0,0,0,0,0,0,0,0],"sum_hessian":[6E2,3.51E2,2.49E2,1.94E2,1.57E2,1.39E2,1.1E2,8.3E1,1.11E2,4.1E1,1.16E2,3.9E1,1E2,2.4E1,8.6E1],"tree_param":{"num_deleted":"0","num_feature":"6","num_nodes":"15","size_leaf_vector":"1"}},{"base_weights":[-4.2265928E-8,-8.595647E-1,1.2102671E0,-1.2722246E-2,-1.8992782E0,2.0621672E0,1.24895036E-1,1.0287328E-1,-7.936999E-2,-3.3774704E-1,-1.352412E-1,6.681808E-2,2.5938237E-1,-1.4529568E-1,5.7686515E-2],"categories":[],"categories_nodes":[],"categories_segments":[],"categories_sizes":[],"default_left":[0,0,0,0,0,0,0,0,0,0,0,0,0,0,0],"id":1,"left_children":[1,3,5,7,9,11,13,-1,-1,-1,-1,-1,-1,-1,-1],"loss_changes":[6.262623E2,3.0990253E2,2.308996E2,1.5942038E2,1.2315527E2,1.02023926E2,7.999691E1,0E0,0E0,0E0,0E0,0E0,0E0,0E0,0E0],"parents":[2147483647,0,0,1,1,2,2,3,3,4,4,5,5,6,6],"right_children":[2,4,6,8,10,12,14,-1,-1,-1,-1,-1,-1,-1,-1],"split_conditions":[1.7789038E-1,1.3522355E-1,1.807404E-1,-1.4845163E-1,-6.535601E-1,-4.4313017E-1,-6.535601E-1,1.0287328E-1,-7.936999E-2,-3.3774704E-1,-1.352412E-1,6.681808E-2,2.5938237E-1,-1.4529568E-1,5.7686515E-2],"split_indices":[5,3,3,1,4,2,4,0,0,0,0,0,0,0,0],"split_type":[0,0,0,0,0,0,0,0,0,0,0,0,0,0,0],"sum_hessian":[6E2,3.51E2,2.49E2,1.94E2,1.57E2,1.39E2,1.1E2,8.3E1,1.11E2,4.1E1,1.16E2,3.9E1,1E2,2.4E1,8.6E1],"tree_param":{"num_deleted":"0","num_feature":"6","num_nodes":"15","size_leaf_vector":"1"}},{"base_weights":[-3.1899102E-4,-8.214146E-1,1.0509334E0,8.249741E-1,-1.2860272E0,1.795333E0,8.570507E-2,9.53469E-3,1.7020144E-1,-2.0204978E-1,-4.8986714E-2,5.4091126E-2,2.3158441E-1,1.4583875E-1,-3.8861882E-2],"categories":[],"categories_nodes":[],"categories_segments":[],"categories_sizes":[],"default_left":[0,0,0,0,0,0,0,0,0,0,0,0,0,0,0],"id":2,"left_children":[1,3,5,7,9,11,13,-1,-1,-1,-1,-1,-1,-1,-1],"loss_changes":[5.196336E2,2.5960828E2,1.895343E2,4.783115E1,1.5338586E2,9.603537E1,7.60939E1,0E0,0E0,0E0,0E0,0E0,0E0,0E0,0E0],"parents":[2147483647,0,0,1,1,2,2,3,3,4,4,5,5,6,6],"right_children":[2,4,6,8,10,12,14,-1,-1,-1,-1,-1,-1,-1,-1],"split_conditions":[1.4614673E-1,-7.3709494E-1,1.807404E-1,2.762724E-2,2.2076989E-2,-4.4313017E-1,-6.245387E-1,9.53469E-3,1.7020144E-1,-2.0204978E-1,-4.8986714E-2,5.4091126E-2,2.3158441E-1,1.4583875E-1,-3.8861882E-2],"split_indices":[5,3,3,4,2,2,1,0,0,0,0,0,0,0,0],"split_type":[0,0,0,0,0,0,0,0,0,0,0,0,0,0,0],"sum_hessian":[6E2,3.37E2,2.63E2,7.4E1,2.63E2,1.48E2,1.15E2,4.1E1,3.3E1,1.36E2,1.27E2,4.4E1,1.04E2,2.9E1,8.6E1],"tree_param":{"num_deleted":"0","num_feature":"6","num_nodes":"15","size_leaf_vector":"1"}},{"base_weights":[-3.1899102E-4,-8.214146E-1,1.0509334E0,8.249741E-1,-1.2860272E0,1.795333E0,8.570507E-2,9.53469E-3,1.7020144E-1,-2.0204978E-1,-4.8986714E-2,5.4091126E-2,2.3158441E-1,1.4583875E-1,-3.8861882E-2],"categories":[],"categories_nodes":[],"categories_segments":[],"categories_sizes":[],"default_left":[0,0,0,0,0,0,0,0,0,0,0,0,0,0,0],"id":3,"left_children":[1,3,5,7,9,11,13,-1,-1,-1,-1,-1,-1,-1,-1],"loss_changes":[5.196336E2,2.5960828E2,1.895343E2,4.783115E1,1.5338586E2,9.603537E1,7.60939E1,0E0,0E0,0E0,0E0,0E0,0E0,0E0,0E0],"parents":[2147483647,0,0,1,1,2,2,3,3,4,4,5,5,6,6],"right_children":[2,4,6,8,10,12,14,-1,-1,-1,-1,-1,-1,-1,-1],"split_conditions":[1.4614673E-1,-7.3709494E-1,1.807404E-1,2.762724E-2,2.2076989E-2,-4.4313017E-1,-6.245387E-1,9.53469E-3,1.7020144E-1,-2.0204978E-1,-4.8986714E-2,5.4091126E-2,2.3158441E-1,1.4583875E-1,-3.8861882E-2],"split_indices":[5,3,3,4,2,2,1,0,0,0,0,0,0,0,0],"split_type":[0,0,0,0,0,0,0,0,0,0,0,0,0,0,0],"sum_hessian":[6E2,3.37E2,2.63E2,7.4E1,2.63E2,1.48E2,1.15E2,4.1E1,3.3E1,1.36E2,1.27E2,4.4E1,1.04E2,2.9E1,8.6E1],"tree_param":{"num_deleted":"0","num_feature":"6","num_nodes":"15","size_leaf_vector":"1"}},{"base_weights":[-1.0463099E-4,-1.171719E0,5.612342E-1,-8.682225E-2,-1.8490559E0,2.0752776E0,1.6106415E-1,3.70793E-2,-1.15744844E-1,-2.4579294E-1,-9.166489E-2,1.1155857E-1,2.7917987E-1,4.7313582E-2,-1.3035709E-1],"categories":[],"categories_nodes":[],"categories_segments":[],"categories_sizes":[],"default_left":[0,0,0,0,0,0,0,0,0,0,0,0,0,0,0],"id":4,"left_children":[1,3,5,7,9,11,13,-1,-1,-1,-1,-1,-1,-1,-1],"loss_changes":[3.9591882E2,1.4313336E2,2.4625676E2,3.7664227E1,6.587311E1,5.533487E1,1.4825072E2,0E0,0E0,0E0,0E0,0E0,0E0,0E0,0E0],"parents":[2147483647,0,0,1,1,2,2,3,3,4,4,5,5,6,6],"right_children":[2,4,6,8,10,12,14,-1,-1,-1,-1,-1,-1,-1,-1],"split_conditions":[-5.171854E-1,-1.7398044E-1,-8.101638E-1,4.2686638E-1,2.34619E-1,1.3010989E-1,9.98467E-1,3.70793E-2,-1.15744844E-1,-2.4579294E-1,-9.166489E-2,1.1155857E-1,2.7917987E-1,4.7313582E-2,-1.3035709E-1],"split_indices":[5,1,3,3,4,2,1,0,0,0,0,0,0,0,0],"split_type":[0,0,0,0,0,0,0,0,0,0,0,0,0,0,0],"sum_hessian":[6E2,1.94E2,4.06E2,7.5E1,1.19E2,8.4E1,3.22E2,5.3E1,2.2E1,7.1E1,4.8E1,3.7E1,4.7E1,2.66E2,5.6E1],"tree_param":{"num_deleted":"0","num_feature":"6","num_nodes":"15","size_leaf_vector":"1"}},{"base_weights":[-5.04418E-4,-7.967657E-1,7.4455196E-1,-1.4080937E0,1.9283973E-1,1.4795008E0,-4.3999758E-2,-3.3919986E-2,-1.8756935E-1,2.1821368E-1,-1.6144035E-2,5.3403277E-2,2.0358776E-1,1.6063544E-1,-4.163055E-2],"categories":[],"categories_nodes":[],"categories_segments":[],"categories_sizes":[],"default_left":[0,0,0,0,0,0,0,0,0,0,0,0,0,0,0],"id":5,"left_children":[1,3,5,7,9,11,13,-1,-1,-1,-1,-1,-1,-1,-1],"loss_changes":[3.5714224E2,1.7631882E2,1.803036E2,8.933038E1,7.928634E1,8.3604645E1,9.344862E1,0E0,0E0,0E0,0E0,0E0,0E0,0E0,0E0],"parents":[2147483647,0,0,1,1,2,2,3,3,4,4,5,5,6,6],"right_children":[2,4,6,8,10,12,14,-1,-1,-1,-1,-1,-1,-1,-1],"split_conditions":[2.2076989E-2,3.2253534E-1,1.4952113E-1,-5.6249017E-1,-9.028413E-1,-2.558973E-1,-8.4551984E-1,-3.3919986E-2,-1.8756935E-1,2.1821368E-1,-1.6144035E-2,5.3403277E-2,2.0358776E-1,1.6063544E-1,-4.163055E-2],"split_indices":[2,4,1,3,3,5,3,0,0,0,0,0,0,0,0],"split_type":[0,0,0,0,0,0,0,0,0,0,0,0,0,0,0],"sum_hessian":[6E2,2.9E2,3.1E2,1.79E2,1.11E2,1.6E2,1.5E2,5.5E1,1.24E2,1.6E1,9.5E1,6E1,1E2,2.7E1,1.23E2],"tree_param":{"num_deleted":"0","num_feature":"6","num_nodes":"15","size_leaf_vector":"1"}},{"base_weights":[5.367377E-4,-7.304661E-1,1.0297866E0,4.10638E-2,-1.6780475E0,1.758417E0,1.0151592E-1,9.680983E-2,-6.691974E-2,-3.095423E-1,-1.1549039E-1,5.671492E-2,2.2127962E-1,-1.4370094E-1,5.42454E-2],"categories":[],"categories_nodes":[],"categories_segments":[],"categories_sizes":[],"default_left":[0,0,0,0,0,0,0,0,0,0,0,0,0,0,0],"id":6,"left_children":[1,3,5,7,9,11,13,-1,-1,-1,-1,-1,-1,-1,-1],"loss_changes":[4.529353E2,2.5741168E2,1.6891312E2,1.2904297E2,1.135806E2,7.452521E1,7.60813E1,0E0,0E0,0E0,0E0,0E0,0E0,0E0,0E0],"parents":[2147483647,0,0,1,1,2,2,3,3,4,4,5,5,6,6],"right_children":[2,4,6,8,10,12,14,-1,-1,-1,-1,-1,-1,-1,-1],"split_conditions":[1.7789038E-1,1.3522355E-1,1.807404E-1,-1.4631462E-1,-6.535601E-1,-4.4313017E-1,-6.535601E-1,9.680983E-2,-6.691974E-2,-3.095423E-1,-1.1549039E-1,5.671492E-2,2.2127962E-1,-1.4370094E-1,5.42454E-2],"split_indices":[5,3,3,1,4,2,4,0,0,0,0,0,0,0,0],"split_type":[0,0,0,0,0,0,0,0,0,0,0,0,0,0,0],"sum_hessian":[6E2,3.51E2,2.49E2,1.94E2,1.57E2,1.39E2,1.1E2,8.4E1,1.1E2,4.1E1,1.16E2,3.9E1,1E2,2.4E1,8.6E1],"tree_param":{"num_deleted":"0","num_feature":"6","num_nodes":"15","size_leaf_vector":"1"}},{"base_weights":[3.080927E-4,-1.1221505E0,5.3809464E-1,-7.856595E-2,-1.7737362E0,1.9384644E0,1.6791037E-1,3.427055E-2,-1.0642222E-1,-2.3466516E-1,-8.9570306E-2,1.7020544E-2,2.2847381E-1,4.6807796E-2,-1.2410837E-1],"categories":[],"categories_nodes":[],"categories_segments":[],"categories_sizes":[],"default_left":[0,0,0,0,0,0,0,0,0,0,0,0,0,0,0],"id":7,"left_children":[1,3,5,7,9,11,13,-1,-1,-1,-1,-1,-1,-1,-1],"loss_changes":[3.6339337E2,1.3245767E2,2.1066124E2,3.1922106E1,5.8262756E1,5.165674E1,1.3718872E2,0E0,0E0,0E0,0E0,0E0,0E0,0E0,0E0],"parents":[2147483647,0,0,1,1,2,2,3,3,4,4,5,5,6,6],"right_children":[2,4,6,8,10,12,14,-1,-1,-1,-1,-1,-1,-1,-1],"split_conditions":[-5.171854E-1,-1.7398044E-1,-8.101638E-1,4.2686638E-1,2.34619E-1,-9.939417E-1,9.98467E-1,3.427055E-2,-1.0642222E-1,-2.3466516E-1,-8.9570306E-2,1.7020544E-2,2.2847381E-1,4.6807796E-2,-1.2410837E-1],"split_indices":[5,1,3,3,4,4,1,0,0,0,0,0,0,0,0],"split_type":[0,0,0,0,0,0,0,0,0,0,0,0,0,0,0],"sum_hessian":[6E2,1.94E2,4.06E2,7.5E1,1.19E2,8.4E1,3.22E2,5.3E1,2.2E1,7.1E1,4.8E1,1.4E1,7E1,2.66E2,5.6E1],"tree_param":{"num_deleted":"0","num_feature":"6","num_nodes":"15","size_leaf_vector":"1"}},{"base_weights":[-1.7178881E-4,-7.455102E-1,6.9723547E-1,-1.3395423E0,2.1584049E-1,1.4038718E0,-6.0815368E-2,-9.4762675E-2,-2.4942306E-1,2.055174E-1,-1.12123145E-2,5.4325975E-2,1.9097476E-1,3.0098066E-2,-1.5932325E-1],"categories":[],"categories_nodes":[],"categories_segments":[],"categories_sizes":[],"default_left":[0,0,0,0,0,0,0,0,0,0,0,0,0,0,0],"id":8,"left_children":[1,3,5,7,9,11,13,-1,-1,-1,-1,-1,-1,-1,-1],"loss_changes":[3.1292227E2,1.664714E2,1.6667757E2,7.909363E1,6.779269E1,6.905591E1,8.419731E1,0E0,0E0,0E0,0E0,0E0,0E0,0E0,0E0],"parents":[2147483647,0,0,1,1,2,2,3,3,4,4,5,5,6,6],"right_children":[2,4,6,8,10,12,14,-1,-1,-1,-1,-1,-1,-1,-1],"split_conditions":[2.2076989E-2,3.2253534E-1,1.4952113E-1,6.343007E-1,-9.028413E-1,-2.558973E-1,9.225508E-1,-9.4762675E-2,-2.4942306E-1,2.055174E-1,-1.12123145E-2,5.4325975E-2,1.9097476E-1,3.0098066E-2,-1.5932325E-1],"split_indices":[2,4,1,3,3,5,3,0,0,0,0,0,0,0,0],"split_type":[0,0,0,0,0,0,0,0,0,0,0,0,0,0,0],"sum_hessian":[6E2,2.9E2,3.1E2,1.79E2,1.11E2,1.6E2,1.5E2,1.35E2,4.4E1,1.6E1,9.5E1,6E1,1E2,1.22E2,2.8E1],"tree_param":{"num_deleted":"0","num_feature":"6","num_nodes":"15","size_leaf_vector":"1"}},{"base_weights":[-5.426221E-4,-7.247122E-1,1.0546781E0,-6.0146125E-3,-1.599611E0,1.8011963E0,9.102816E-2,1.2000163E-1,-4.8159003E-2,-2.9171488E-1,-1.1251427E-1,6.0913336E-2,2.2480889E-1,1.4638908E-1,-4.077724E-2],"categories":[],"categories_nodes":[],"categories_segments":[],"categories_sizes":[],"default_left":[0,0,0,0,0,0,0,0,0,0,0,0,0,0,0],"id":9,"left_children":[1,3,5,7,9,11,13,-1,-1,-1,-1,-1,-1,-1,-1],"loss_changes":[4.6002374E2,2.2446759E2,1.7608469E2,1.1356896E2,9.736371E1,7.2146545E1,7.455367E1,0E0,0E0,0E0,0E0,0E0,0E0,0E0,0E0],"parents":[2147483647,0,0,1,1,2,2,3,3,4,4,5,5,6,6],"right_children":[2,4,6,8,10,12,14,-1,-1,-1,-1,-1,-1,-1,-1],"split_conditions":[2.151327E-1,1.3522355E-1,1.807404E-1,-6.245387E-1,-6.535601E-1,-4.4313017E-1,-6.245387E-1,1.2000163E-1,-4.8159003E-2,-2.9171488E-1,-1.1251427E-1,6.0913336E-2,2.2480889E-1,1.4638908E-1,-4.077724E-2],"split_indices":[5,3,3,1,4,2,1,0,0,0,0,0,0,0,0],"split_type":[0,0,0,0,0,0,0,0,0,0,0,0,0,0,0],"sum_hessian":[6E2,3.56E2,2.44E2,1.96E2,1.6E2,1.37E2,1.07E2,5.5E1,1.41E2,4.1E1,1.19E2,3.8E1,9.9E1,2.8E1,7.9E1],"tree_param":{"num_deleted":"0","num_feature":"6","num_nodes":"15","size_leaf_vector":"1"}},{"base_weights":[1.695629E-4,2.8349635E-1,-1.5704482E0,-3.102329E-1,1.0134009E0,-2.7265298E0,-1.09838E0,-8.724714E-2,4.672238E-2,1.8155416E-2,1.4502965E-1,-1.4451838E-1,-3.3198786E-1,-1.9970411E-1,-5.5035897E-2],"categories":[],"categories_nodes":[],"categories_segments":[],"categories_sizes":[],"default_left":[0,0,0,0,0,0,0,0,0,0,0,0,0,0,0],"id":10,"left_children":[1,3,5,7,9,11,13,-1,-1,-1,-1,-1,-1,-1,-1],"loss_changes":[2.6788907E2,2.213309E2,4.721414E1,1.2367436E2,8.296222E1,1.4969589E1,3.1897415E1,0E0,0E0,0E0,0E0,0E0,0E0,0E0,0E0],"parents":[2147483647,0,0,1,1,2,2,3,3,4,4,5,5,6,6],"right_children":[2,4,6,8,10,12,14,-1,-1,-1,-1,-1,-1,-1,-1],"split_conditions":[1.0618311E0,2.184755E-1,-5.3141105E-1,1.5620461E-1,-3.108807E-1,3.486633E-2,-5.171854E-1,-8.724714E-2,4.672238E-2,1.8155416E-2,1.4502965E-1,-1.4451838E-1,-3.3198786E-1,-1.9970411E-1,-5.5035897E-2],"split_indices":[3,2,2,4,5,1,5,0,0,0,0,0,0,0,0],"split_type":[0,0,0,0,0,0,0,0,0,0,0,0,0,0,0],"sum_hessian":[6E2,5.09E2,9.1E1,2.81E2,2.28E2,2.5E1,6.6E1,1.63E2,1.18E2,7.9E1,1.49E2,9E0,1.6E1,2.4E1,4.2E1],"tree_param":{"num_deleted":"0","num_feature":"6","num_nodes":"15","size_leaf_vector":"1"}},{"base_weights":[-8.448922E-4,-6.752147E-1,6.3015985E-1,-1.212171E0,1.9377933E-1,1.2789098E0,-6.57269E-2,-2.8521722E-2,-1.6177489E-1,1.8589495E-1,-1.0311306E-2,9.422983E-2,2.3815456E-1,-1.0833259E-1,4.045662E-2],"categories":[],"categories_nodes":[],"categories_segments":[],"categories_sizes":[],"default_left":[0,0,0,0,0,0,0,0,0,0,0,0,0,0,0],"id":11,"left_children":[1,3,5,7,9,11,13,-1,-1,-1,-1,-1,-1,-1,-1],"loss_changes":[2.5616937E2,1.3601894E2,1.4048703E2,6.720996E1,5.5561832E1,5.7512573E1,7.270232E1,0E0,0E0,0E0,0E0,0E0,0E0,0E0,0E0],"parents":[2147483647,0,0,1,1,2,2,3,3,4,4,5,5,6,6],"right_children":[2,4,6,8,10,12,14,-1,-1,-1,-1,-1,-1,-1,-1],"split_conditions":[2.2076989E-2,3.2253534E-1,1.4952113E-1,-5.6249017E-1,-9.028413E-1,7.243736E-1,-4.6277824E-1,-2.8521722E-2,-1.6177489E-1,1.8589495E-1,-1.0311306E-2,9.422983E-2,2.3815456E-1,-1.0833259E-1,4.045662E-2],"split_indices":[2,4,1,3,3,4,4,0,0,0,0,0,0,0,0],"split_type":[0,0,0,0,0,0,0,0,0,0,0,0,0,0,0],"sum_hessian":[6E2,2.9E2,3.1E2,1.79E2,1.11E2,1.6E2,1.5E2,5.5E1,1.24E2,1.6E1,9.5E1,1.24E2,3.6E1,4.7E1,1.03E2],"tree_param":{"num_deleted":"0","num_feature":"6","num_nodes":"15","size_leaf_vector":"1"}}]},"name":"gbtree","weight_drop":[8.6534303E-1,7.617017E-1,7.741886E-1,4.055274E-1,8.658009E-1,7.4921477E-1,3.2258067E-1,4.4608012E-1,4.4608015E-1,1.5612803E-1,4.761905E-1,9.090909E-1]},"learner_model_param":{"base_score":"[8.616808E-3]","boost_from_average":"1","num_class":"0","num_feature":"6","num_target":"1"},"objective":{"name":"reg:squarederror","reg_loss_param":{"scale_pos_weight":"1"}}},"version":[3,3,0]}