{"learner":{"attributes":{},"feature_names":[],"feature_types":[],"gradient_booster":{"model":{"cats":{"enc":[],"feature_segments":[],"sorted_idx":[]},"gbtree_model_param":{"num_parallel_tree":"1","num_trees":"90"},"iteration_indptr":[0,3,6,9,12,15,18,21,24,27,30,33,36,39,42,45,48,51,54,57,60,63,66,69,72,75,78,81,84,87,90],"tree_info":[0,1,2,0,1,2,0,1,2,0,1,2,0,1,2,0,1,2,0,1,2,0,1,2,0,1,2,0,1,2,0,1,2,0,1,2,0,1,2,0,1,2,0,1,2,0,1,2,0,1,2,0,1,2,0,1,2,0,1,2,0,1,2,0,1,2,0,1,2,0,1,2,0,1,2,0,1,2,0,1,2,0,1,2,0,1,2,0,1,2],"trees":[{"base_weights":[-5.0004707E-3,-3.396532E-1,5.611079E-1,-4.6902987E-1,3.347376E-1,9.099933E-2,1.0306354E0,-6.370082E-1,-8.3005436E-2,-1.6160445E-1,8.697749E-1,-2.6205713E-1,5.995654E-1,2.2195432E-1,1.1996135E0,-6.530368E-2,2.3151073E-4,-4.3310475E-2,3.059187E-2,-5.9854586E-2,1.8356422E-2,1.1608083E-2,1.18841626E-1,-3.8404517E-2,8.608219E-2,2.7955947E-2,1.2503082E-1,-3.9136957E-2,5.550396E-2,7.5180866E-2,1.3157594E-1],"categories":[],"categories_nodes":[],"categories_segments":[],"categories_sizes":[],"default_left":[0,0,0,0,0,0,0,0,0,0,0,0,0,0,0,0,0,0,0,0,0,0,0,0,0,0,0,0,0,0,0],"id":0,"left_children":[1,3,5,7,9,11,13,15,17,19,21,23,25,27,29,-1,-1,-1,-1,-1,-1,-1,-1,-1,-1,-1,-1,-1,-1,-1,-1],"loss_changes":[2.525565E2,7.3256996E1,1.0922922E2,4.55567E1,3.6108505E1,4.4791115E1,3.358142E1,5.0223694E0,2.9328325E1,1.0833757E1,1.5553135E1,2.0523994E1,2.0925163E1,9.213896E0,9.655212E0,0E0,0E0,0E0,0E0,0E0,0E0,0E0,0E0,0E0,0E0,0E0,0E0,0E0,0E0,0E0,0E0],"parents":[2147483647,0,0,1,1,2,2,3,3,4,4,5,5,6,6,7,7,8,8,9,9,10,10,11,11,12,12,13,13,14,14],"right_children":[2,4,6,8,10,12,14,16,18,20,22,24,26,28,30,-1,-1,-1,-1,-1,-1,-1,-1,-1,-1,-1,-1,-1,-1,-1,-1],"split_conditions":[3.30972E-1,9.6071607E-1,1.2970613E-2,4.9739563E-1,2.6918482E-2,1.1337051E-1,-8.739346E-1,1.935075E0,-4.5684913E-1,-5.3909343E-1,-9.5498186E-1,1.8076262E0,1.1690568E0,6.543154E-1,-8.4216565E-1,-6.530368E-2,2.3151073E-4,-4.3310475E-2,3.059187E-2,-5.9854586E-2,1.8356422E-2,1.1608083E-2,1.18841626E-1,-3.8404517E-2,8.608219E-2,2.7955947E-2,1.2503082E-1,-3.9136957E-2,5.550396E-2,7.5180866E-2,1.3157594E-1],"split_indices":[6,5,7,7,7,5,5,8,6,6,6,6,6,6,8,0,0,0,0,0,0,0,0,0,0,0,0,0,0,0,0],"split_type":[0,0,0,0,0,0,0,0,0,0,0,0,0,0,0,0,0,0,0,0,0,0,0,0,0,0,0,0,0,0,0],"sum_hessian":[1.3311E3,8.368182E2,4.942818E2,7.023771E2,1.344411E2,2.475846E2,2.4669719E2,4.889574E2,2.134197E2,7.01046E1,6.4336494E1,1.4642099E2,1.011636E2,4.30389E1,2.036583E2,4.7697748E2,1.1979899E1,1.12256096E2,1.011636E2,3.06153E1,3.94893E1,1.9522799E1,4.4813698E1,1.3266629E2,1.37547E1,6.87735E1,3.23901E1,1.5085799E1,2.7953098E1,4.3482597E1,1.6017569E2],"tree_param":{"num_deleted":"0","num_feature":"10","num_nodes":"31","size_leaf_vector":"1"}},{"base_weights":[-5.0004707E-3,-3.9754823E-1,4.167431E-2,-5.924524E-1,-7.677532E-2,1.0188839E-1,-3.4882286E-1,-6.9883186E-1,2.6364839E-2,1.3575344E-1,-3.7140474E-1,-2.2339712E-1,1.5529083E-1,5.7974447E-2,-5.196048E-1,-7.114874E-2,1.4323168E-4,-3.690913E-2,8.030795E-2,-1.0659113E-2,5.5360686E-2,-4.6863474E-2,2.7488334E-2,-4.68746E-2,1.8989386E-2,2.2394242E-2,-1.5051121E-2,6.416484E-2,-2.1719275E-2,9.918607E-3,-5.7651736E-2],"categories":[],"categories_nodes":[],"categories_segments":[],"categories_sizes":[],"default_left":[0,0,0,0,0,0,0,0,0,0,0,0,0,0,0,0,0,0,0,0,0,0,0,0,0,0,0,0,0,0,0],"id":1,"left_children":[1,3,5,7,9,11,13,15,17,19,21,23,25,27,29,-1,-1,-1,-1,-1,-1,-1,-1,-1,-1,-1,-1,-1,-1,-1,-1],"loss_changes":[2.442341E1,8.81065E0,2.805054E1,5.809122E0,3.4748113E0,1.7979778E1,1.1104282E1,6.665497E-1,4.555842E0,3.3503792E0,1.5857329E0,1.4902597E1,1.8675278E1,7.853713E0,4.0144672E0,0E0,0E0,0E0,0E0,0E0,0E0,0E0,0E0,0E0,0E0,0E0,0E0,0E0,0E0,0E0,0E0],"parents":[2147483647,0,0,1,1,2,2,3,3,4,4,5,5,6,6,7,7,8,8,9,9,10,10,11,11,12,12,13,13,14,14],"right_children":[2,4,6,8,10,12,14,16,18,20,22,24,26,28,30,-1,-1,-1,-1,-1,-1,-1,-1,-1,-1,-1,-1,-1,-1,-1,-1],"split_conditions":[-1.2540982E0,3.1077027E-1,1.0856333E0,9.6071607E-1,1.9971846E-1,-1.1477015E0,-3.2399437E-1,1.7024646E0,-3.844089E-1,2.3193745E-1,1.5800471E0,5.136996E-1,8.519333E-1,-7.452505E-1,-1.4782209E0,-7.114874E-2,1.4323168E-4,-3.690913E-2,8.030795E-2,-1.0659113E-2,5.5360686E-2,-4.6863474E-2,2.7488334E-2,-4.68746E-2,1.8989386E-2,2.2394242E-2,-1.5051121E-2,6.416484E-2,-2.1719275E-2,9.918607E-3,-5.7651736E-2],"split_indices":[7,6,6,5,4,6,7,8,6,8,4,7,5,8,2,0,0,0,0,0,0,0,0,0,0,0,0,0,0,0,0],"split_type":[0,0,0,0,0,0,0,0,0,0,0,0,0,0,0,0,0,0,0,0,0,0,0,0,0,0,0,0,0,0,0],"sum_hessian":[1.3311E3,1.406529E2,1.190447E3,8.6965195E1,5.36877E1,1.0320461E3,1.584009E2,7.40979E1,1.28673E1,3.1502699E1,2.2185E1,1.4508989E2,8.869563E2,4.70322E1,1.113687E2,7.27668E1,1.3311E0,8.874E0,3.9933E0,2.04102E1,1.10925E1,1.9522799E1,2.6622E0,9.0958496E1,5.4131397E1,7.245621E2,1.623942E2,1.4642099E1,3.23901E1,9.317699E0,1.02050995E2],"tree_param":{"num_deleted":"0","num_feature":"10","num_nodes":"31","size_leaf_vector":"1"}},{"base_weights":[9.951223E-3,5.7560116E-1,-3.0760825E-1,9.2884195E-1,-9.909218E-2,5.76535E-1,-4.6913165E-1,1.1395841E0,4.1304523E-1,2.1940582E-1,-5.6466556E-1,9.302779E-1,2.0390624E-2,-7.751009E-2,-5.8780414E-1,1.2368008E-1,4.5784585E-2,9.667819E-2,7.4229985E-3,5.7667967E-2,-3.315413E-2,-6.0397793E-2,4.0940266E-2,1.0938101E-1,-2.9396562E-2,6.825754E-2,-3.1227246E-2,3.635426E-2,-3.865968E-2,-4.4909947E-2,-7.152573E-2],"categories":[],"categories_nodes":[],"categories_segments":[],"categories_sizes":[],"default_left":[0,0,0,0,0,0,0,0,0,0,0,0,0,0,0,0,0,0,0,0,0,0,0,0,0,0,0,0,0,0,0],"id":2,"left_children":[1,3,5,7,9,11,13,15,17,19,21,23,25,27,29,-1,-1,-1,-1,-1,-1,-1,-1,-1,-1,-1,-1,-1,-1,-1,-1],"loss_changes":[2.4065433E2,1.1489526E2,1.22809204E2,3.3907288E1,2.4803682E1,2.6144794E1,3.3698044E1,1.4276947E1,1.7433622E1,1.9786116E1,2.8468914E0,1.6591125E1,1.1827987E1,2.3315966E1,9.526672E0,0E0,0E0,0E0,0E0,0E0,0E0,0E0,0E0,0E0,0E0,0E0,0E0,0E0,0E0,0E0,0E0],"parents":[2147483647,0,0,1,1,2,2,3,3,4,4,5,5,6,6,7,7,8,8,9,9,10,10,11,11,12,12,13,13,14,14],"right_children":[2,4,6,8,10,12,14,16,18,20,22,24,26,28,30,-1,-1,-1,-1,-1,-1,-1,-1,-1,-1,-1,-1,-1,-1,-1,-1],"split_conditions":[-3.5254502E-1,4.2462835E-1,-9.989346E-1,5.141611E-1,2.901175E-1,6.8312097E-1,-7.3722947E-1,1.059509E0,-6.644784E-1,3.058363E-1,2.0444367E0,9.6071607E-1,-4.6776092E-1,3.17864E-1,1.5159133E-1,1.2368008E-1,4.5784585E-2,9.667819E-2,7.4229985E-3,5.7667967E-2,-3.315413E-2,-6.0397793E-2,4.0940266E-2,1.0938101E-1,-2.9396562E-2,6.825754E-2,-3.1227246E-2,3.635426E-2,-3.865968E-2,-4.4909947E-2,-7.152573E-2],"split_indices":[6,7,7,5,5,6,5,8,7,8,1,5,5,6,7,0,0,0,0,0,0,0,0,0,0,0,0,0,0,0,0],"split_type":[0,0,0,0,0,0,0,0,0,0,0,0,0,0,0,0,0,0,0,0,0,0,0,0,0,0,0,0,0,0,0],"sum_hessian":[1.3377554E3,4.807001E2,8.570553E2,3.1526437E2,1.6543575E2,1.3199187E2,7.250634E2,2.2295923E2,9.230512E1,9.854798E1,6.688777E1,8.026533E1,5.1726543E1,1.690031E2,5.560603E2,1.9442046E2,2.8538782E1,3.4335724E1,5.7969402E1,5.9753075E1,3.8794907E1,6.465818E1,2.2295923E0,7.090104E1,9.364288E0,1.6944902E1,3.478164E1,6.956328E1,9.943982E1,2.6844293E2,2.876174E2],"tree_param":{"num_deleted":"0","num_feature":"10","num_nodes":"31","size_leaf_vector":"1"}},{"base_weights":[-4.9048406E-3,-3.2168964E-1,5.094933E-1,-5.307415E-1,5.487074E-2,8.148426E-2,9.217386E-1,-5.988761E-1,9.303352E-2,-2.0111017E-1,7.154526E-1,-2.524296E-1,5.470879E-1,1.9868404E-1,1.0678021E0,-6.6114955E-2,-3.9973766E-2,-3.0294443E-2,6.1206426E-2,-3.955138E-2,2.3507612E-2,3.6838965E-3,9.938258E-2,-3.7005685E-2,7.824877E-2,2.5557598E-2,1.1214464E-1,-9.118402E-3,8.211194E-2,6.717855E-2,1.1690923E-1],"categories":[],"categories_nodes":[],"categories_segments":[],"categories_sizes":[],"default_left":[0,0,0,0,0,0,0,0,0,0,0,0,0,0,0,0,0,0,0,0,0,0,0,0,0,0,0,0,0,0,0],"id":3,"left_children":[1,3,5,7,9,11,13,15,17,19,21,23,25,27,29,-1,-1,-1,-1,-1,-1,-1,-1,-1,-1,-1,-1,-1,-1,-1,-1],"loss_changes":[2.1671664E2,6.4820175E1,8.936E1,2.2552643E1,4.9979748E1,3.897162E1,2.7045654E1,5.655243E0,1.1076286E1,1.8170614E1,1.5553867E1,1.8080387E1,1.723258E1,8.12247E0,7.81839E0,0E0,0E0,0E0,0E0,0E0,0E0,0E0,0E0,0E0,0E0,0E0,0E0,0E0,0E0,0E0,0E0],"parents":[2147483647,0,0,1,1,2,2,3,3,4,4,5,5,6,6,7,7,8,8,9,9,10,10,11,11,12,12,13,13,14,14],"right_children":[2,4,6,8,10,12,14,16,18,20,22,24,26,28,30,-1,-1,-1,-1,-1,-1,-1,-1,-1,-1,-1,-1,-1,-1,-1,-1],"split_conditions":[3.30972E-1,3.8033506E-1,1.2970613E-2,1.3155563E0,6.3980013E-1,1.1337051E-1,-8.739346E-1,-1.4498098E-2,1.09324455E-1,-1.9374897E-1,-9.395489E-1,1.8076262E0,1.1690568E0,1.1509625E0,-8.4216565E-1,-6.6114955E-2,-3.9973766E-2,-3.0294443E-2,6.1206426E-2,-3.955138E-2,2.3507612E-2,3.6838965E-3,9.938258E-2,-3.7005685E-2,7.824877E-2,2.5557598E-2,1.1214464E-1,-9.118402E-3,8.211194E-2,6.717855E-2,1.1690923E-1],"split_indices":[6,7,7,5,5,5,5,6,8,6,6,6,6,6,8,0,0,0,0,0,0,0,0,0,0,0,0,0,0,0,0],"split_type":[0,0,0,0,0,0,0,0,0,0,0,0,0,0,0,0,0,0,0,0,0,0,0,0,0,0,0,0,0,0,0],"sum_hessian":[1.3279235E3,8.220502E2,5.0587326E2,5.283314E2,2.9371878E2,2.4877896E2,2.570943E2,4.7634088E2,5.1990536E1,2.1218925E2,8.1529526E1,1.451445E2,1.0363446E2,4.360377E1,2.1349054E2,3.610998E2,1.1524108E2,2.9727339E1,2.2263197E1,1.4683824E2,6.535101E1,2.4045107E1,5.748442E1,1.309081E2,1.42364E1,6.970242E1,3.393204E1,3.0331772E1,1.3271997E1,4.5037766E1,1.6845277E2],"tree_param":{"num_deleted":"0","num_feature":"10","num_nodes":"31","size_leaf_vector":"1"}},{"base_weights":[-3.976556E-3,-3.7520316E-1,3.914572E-2,-5.678168E-1,-6.492598E-2,9.377321E-2,-3.3634537E-1,-6.744606E-1,3.547107E-2,1.3569202E-1,-3.4924352E-1,-2.4764088E-1,1.3829975E-1,3.036688E-2,-4.968271E-1,-6.873181E-2,1.3760851E-3,-3.4749325E-2,7.559832E-2,-9.577223E-3,5.2578032E-2,-4.4493955E-2,2.6647136E-2,-6.440404E-2,-3.4089282E-3,2.0036263E-2,-1.4216693E-2,5.728711E-2,-2.2846961E-2,1.0244802E-2,-5.5574816E-2],"categories":[],"categories_nodes":[],"categories_segments":[],"categories_sizes":[],"default_left":[0,0,0,0,0,0,0,0,0,0,0,0,0,0,0,0,0,0,0,0,0,0,0,0,0,0,0,0,0,0,0],"id":4,"left_children":[1,3,5,7,9,11,13,15,17,19,21,23,25,27,29,-1,-1,-1,-1,-1,-1,-1,-1,-1,-1,-1,-1,-1,-1,-1,-1],"loss_changes":[2.1309683E1,8.2426605E0,2.4496838E1,5.514885E0,3.1383963E0,1.5875061E1,8.94276E0,6.5167236E-1,4.062427E0,2.9841328E0,1.4559987E0,1.0185188E1,1.608508E1,6.747634E0,3.7849388E0,0E0,0E0,0E0,0E0,0E0,0E0,0E0,0E0,0E0,0E0,0E0,0E0,0E0,0E0,0E0,0E0],"parents":[2147483647,0,0,1,1,2,2,3,3,4,4,5,5,6,6,7,7,8,8,9,9,10,10,11,11,12,12,13,13,14,14],"right_children":[2,4,6,8,10,12,14,16,18,20,22,24,26,28,30,-1,-1,-1,-1,-1,-1,-1,-1,-1,-1,-1,-1,-1,-1,-1,-1],"split_conditions":[-1.2540982E0,3.1077027E-1,1.1001593E0,9.6071607E-1,1.9971846E-1,-1.2767465E0,-3.2399437E-1,1.7024646E0,-3.844089E-1,2.3193745E-1,1.5800471E0,-4.315115E-2,8.519333E-1,-7.452505E-1,-1.4782209E0,-6.873181E-2,1.3760851E-3,-3.4749325E-2,7.559832E-2,-9.577223E-3,5.2578032E-2,-4.4493955E-2,2.6647136E-2,-6.440404E-2,-3.4089282E-3,2.0036263E-2,-1.4216693E-2,5.728711E-2,-2.2846961E-2,1.0244802E-2,-5.5574816E-2],"split_indices":[7,6,6,5,4,6,7,8,6,8,4,7,5,8,2,0,0,0,0,0,0,0,0,0,0,0,0,0,0,0,0],"split_type":[0,0,0,0,0,0,0,0,0,0,0,0,0,0,0,0,0,0,0,0,0,0,0,0,0,0,0,0,0,0,0],"sum_hessian":[1.329261E3,1.375379E2,1.191723E3,8.434699E1,5.3190907E1,1.0410225E3,1.5070058E2,7.157639E1,1.2770601E1,3.1492294E1,2.1698612E1,1.1957802E2,9.2144446E2,4.6121174E1,1.0457941E2,7.0265E1,1.3113953E0,8.676572E0,4.09403E0,2.0238178E1,1.1254115E1,1.9019857E1,2.6787543E0,4.116E1,7.8418015E1,7.547219E2,1.6672249E2,1.4505451E1,3.1615723E1,9.295715E0,9.528369E1],"tree_param":{"num_deleted":"0","num_feature":"10","num_nodes":"31","size_leaf_vector":"1"}},{"base_weights":[8.834594E-3,5.212513E-1,-2.9060748E-1,9.6914494E-1,8.531942E-2,5.278337E-1,-4.469054E-1,1.0509766E0,-1.18112765E-1,5.7500017E-1,-2.1055187E-1,8.36805E-1,2.2834336E-2,-7.332462E-2,-5.6306994E-1,1.1404455E-1,4.9878404E-2,5.7917662E-2,-6.0893018E-2,7.61669E-2,-5.8481554E-3,2.4631852E-2,-4.5427784E-2,9.7681984E-2,-2.7526215E-2,6.259146E-2,-2.9310567E-2,3.3927746E-2,-3.7051614E-2,-4.3155186E-2,-6.866934E-2],"categories":[],"categories_nodes":[],"categories_segments":[],"categories_sizes":[],"default_left":[0,0,0,0,0,0,0,0,0,0,0,0,0,0,0,0,0,0,0,0,0,0,0,0,0,0,0,0,0,0,0],"id":5,"left_children":[1,3,5,7,9,11,13,15,17,19,21,23,25,27,29,-1,-1,-1,-1,-1,-1,-1,-1,-1,-1,-1,-1,-1,-1,-1,-1],"loss_changes":[2.0523291E2,9.62406E1,1.0823103E2,2.1764847E1,3.6501064E1,2.1174538E1,3.0744629E1,1.0611603E1,6.4870667E0,1.1259808E1,1.7622694E1,1.3386021E1,1.0203286E1,2.089982E1,8.499435E0,0E0,0E0,0E0,0E0,0E0,0E0,0E0,0E0,0E0,0E0,0E0,0E0,0E0,0E0,0E0,0E0],"parents":[2147483647,0,0,1,1,2,2,3,3,4,4,5,5,6,6,7,7,8,8,9,9,10,10,11,11,12,12,13,13,14,14],"right_children":[2,4,6,8,10,12,14,16,18,20,22,24,26,28,30,-1,-1,-1,-1,-1,-1,-1,-1,-1,-1,-1,-1,-1,-1,-1,-1],"split_conditions":[-3.5254502E-1,1.6761895E-2,-9.989346E-1,1.5053718E0,-3.3166853E-1,6.8312097E-1,-7.3722947E-1,-4.777482E-1,-1.9052337E-1,7.612922E-1,-5.2695835E-1,9.6071607E-1,-4.6776092E-1,3.17864E-1,1.5159133E-1,1.1404455E-1,4.9878404E-2,5.7917662E-2,-6.0893018E-2,7.61669E-2,-5.8481554E-3,2.4631852E-2,-4.5427784E-2,9.7681984E-2,-2.7526215E-2,6.259146E-2,-2.9310567E-2,3.3927746E-2,-3.7051614E-2,-4.3155186E-2,-6.866934E-2],"split_indices":[6,7,7,5,5,6,5,6,8,8,8,5,5,6,7,0,0,0,0,0,0,0,0,0,0,0,0,0,0,0,0],"split_type":[0,0,0,0,0,0,0,0,0,0,0,0,0,0,0,0,0,0,0,0,0,0,0,0,0,0,0,0,0,0,0],"sum_hessian":[1.3355654E3,4.9233026E2,8.4323517E2,2.4223026E2,2.5010002E2,1.3483032E2,7.0840485E2,2.253061E2,1.6924137E1,9.384265E1,1.5625737E2,8.324308E1,5.1587246E1,1.6841612E2,5.399888E2,1.929742E2,3.233191E1,6.917141E0,1.0006995E1,7.232748E1,2.1515173E1,5.4355675E1,1.01901695E2,7.404239E1,9.200689E0,1.7397331E1,3.4189915E1,7.045676E1,9.795936E1,2.6381604E2,2.761727E2],"tree_param":{"num_deleted":"0","num_feature":"10","num_nodes":"31","size_leaf_vector":"1"}},{"base_weights":[-5.0093303E-3,-3.0538294E-1,4.6592724E-1,-5.091458E-1,5.1008865E-2,7.272213E-2,8.348905E-1,-5.97584E-1,-4.699588E-2,-1.9010298E-1,6.5227944E-1,-2.5274283E-1,4.899517E-1,1.7865893E-1,9.645447E-1,-6.157117E-2,1.0445162E-2,-4.945048E-2,2.8264165E-2,-4.1794695E-2,1.8390624E-2,2.7962064E-3,9.0208314E-2,-3.7018087E-2,7.1580015E-2,2.213995E-2,1.0250814E-1,-3.7996937E-2,4.6798773E-2,7.457369E-2,1.1198355E-1],"categories":[],"categories_nodes":[],"categories_segments":[],"categories_sizes":[],"default_left":[0,0,0,0,0,0,0,0,0,0,0,0,0,0,0,0,0,0,0,0,0,0,0,0,0,0,0,0,0,0,0],"id":6,"left_children":[1,3,5,7,9,11,13,15,17,19,21,23,25,27,29,-1,-1,-1,-1,-1,-1,-1,-1,-1,-1,-1,-1,-1,-1,-1,-1],"loss_changes":[1.8699448E2,5.8637794E1,7.4625946E1,2.0963837E1,4.2819344E1,3.4114296E1,2.2416672E1,5.5496063E0,1.2469602E1,1.805602E1,1.3156326E1,1.63345E1,1.5585705E1,7.455564E0,6.690033E0,0E0,0E0,0E0,0E0,0E0,0E0,0E0,0E0,0E0,0E0,0E0,0E0,0E0,0E0,0E0,0E0],"parents":[2147483647,0,0,1,1,2,2,3,3,4,4,5,5,6,6,7,7,8,8,9,9,10,10,11,11,12,12,13,13,14,14],"right_children":[2,4,6,8,10,12,14,16,18,20,22,24,26,28,30,-1,-1,-1,-1,-1,-1,-1,-1,-1,-1,-1,-1,-1,-1,-1,-1],"split_conditions":[3.30972E-1,3.8033506E-1,1.2970613E-2,9.6071607E-1,6.3980013E-1,8.130287E-2,-8.739346E-1,1.935075E0,-2.862733E-1,3.1371328E-1,-9.395489E-1,1.8076262E0,1.1690568E0,6.543154E-1,7.353317E-2,-6.157117E-2,1.0445162E-2,-4.945048E-2,2.8264165E-2,-4.1794695E-2,1.8390624E-2,2.7962064E-3,9.0208314E-2,-3.7018087E-2,7.1580015E-2,2.213995E-2,1.0250814E-1,-3.7996937E-2,4.6798773E-2,7.457369E-2,1.1198355E-1],"split_indices":[6,7,7,5,5,5,5,8,8,8,6,6,6,6,5,0,0,0,0,0,0,0,0,0,0,0,0,0,0,0,0],"split_type":[0,0,0,0,0,0,0,0,0,0,0,0,0,0,0,0,0,0,0,0,0,0,0,0,0,0,0,0,0,0,0],"sum_hessian":[1.3199124E3,8.061096E2,5.1380273E2,5.1260504E2,2.9350455E2,2.4930977E2,2.6449298E2,4.3002188E2,8.258318E1,2.09984E2,8.352057E1,1.4027826E2,1.0903152E2,4.402795E1,2.2046503E2,4.1931738E2,1.0704484E1,3.481667E1,4.7766514E1,1.304172E2,7.956678E1,2.4186016E1,5.933455E1,1.2565955E2,1.4618709E1,7.35397E1,3.5491806E1,1.4915746E1,2.9112204E1,9.3925E1,1.26540016E2],"tree_param":{"num_deleted":"0","num_feature":"10","num_nodes":"31","size_leaf_vector":"1"}},{"base_weights":[-2.5781102E-3,-3.537002E-1,3.7210252E-2,-5.444666E-1,-5.3972624E-2,8.7525435E-2,-3.170477E-1,-6.514514E-1,4.18048E-2,-3.5216862E-1,1.2092894E-1,-2.4319719E-1,1.2822422E-1,3.1368468E-2,-4.7363847E-1,-6.645463E-2,2.278649E-3,-3.2536756E-2,7.01123E-2,-4.3186404E-2,4.5013692E-2,3.369231E-2,-1.965291E-2,-3.8390845E-2,2.9344488E-2,1.8513514E-2,-1.3371575E-2,5.3605486E-2,-2.1611126E-2,1.0779235E-2,-5.325098E-2],"categories":[],"categories_nodes":[],"categories_segments":[],"categories_sizes":[],"default_left":[0,0,0,0,0,0,0,0,0,0,0,0,0,0,0,0,0,0,0,0,0,0,0,0,0,0,0,0,0,0,0],"id":7,"left_children":[1,3,5,7,9,11,13,15,17,19,21,23,25,27,29,-1,-1,-1,-1,-1,-1,-1,-1,-1,-1,-1,-1,-1,-1,-1,-1],"loss_changes":[1.8546574E1,7.696615E0,2.1283201E1,5.199255E0,2.8413603E0,1.4096368E1,8.117961E0,6.313591E-1,3.5361917E0,1.4792345E0,2.436529E0,8.784984E0,1.3905085E1,5.9849634E0,3.5669594E0,0E0,0E0,0E0,0E0,0E0,0E0,0E0,0E0,0E0,0E0,0E0,0E0,0E0,0E0,0E0,0E0],"parents":[2147483647,0,0,1,1,2,2,3,3,4,4,5,5,6,6,7,7,8,8,9,9,10,10,11,11,12,12,13,13,14,14],"right_children":[2,4,6,8,10,12,14,16,18,20,22,24,26,28,30,-1,-1,-1,-1,-1,-1,-1,-1,-1,-1,-1,-1,-1,-1,-1,-1],"split_conditions":[-1.2540982E0,3.1077027E-1,1.1001593E0,9.6071607E-1,-3.1699064E-1,-1.2984564E0,-3.2399437E-1,1.7024646E0,-3.844089E-1,1.6135199E0,1.9971846E-1,9.179102E-1,8.519333E-1,-7.452505E-1,-1.4782209E0,-6.645463E-2,2.278649E-3,-3.2536756E-2,7.01123E-2,-4.3186404E-2,4.5013692E-2,3.369231E-2,-1.965291E-2,-3.8390845E-2,2.9344488E-2,1.8513514E-2,-1.3371575E-2,5.3605486E-2,-2.1611126E-2,1.0779235E-2,-5.325098E-2],"split_indices":[7,6,6,5,2,6,7,8,6,3,4,7,5,8,2,0,0,0,0,0,0,0,0,0,0,0,0,0,0,0,0],"split_type":[0,0,0,0,0,0,0,0,0,0,0,0,0,0,0,0,0,0,0,0,0,0,0,0,0,0,0,0,0,0,0],"sum_hessian":[1.3256036E3,1.34122E2,1.1914816E3,8.1459335E1,5.2662647E1,1.0439609E3,1.4752065E2,6.879434E1,1.2664997E1,1.9094397E1,3.3568253E1,1.1384764E2,9.3011334E2,4.5990654E1,1.0152999E2,6.7497795E1,1.2965473E0,8.460101E0,4.204896E0,1.7789076E1,1.3053205E0,1.9940018E1,1.3628235E1,9.042277E1,2.3424868E1,7.6434064E2,1.6577274E2,1.474831E1,3.1242342E1,9.258574E0,9.2271416E1],"tree_param":{"num_deleted":"0","num_feature":"10","num_nodes":"31","size_leaf_vector":"1"}},{"base_weights":[7.549421E-3,4.9609062E-1,-2.6340395E-1,8.4501773E-1,-1.433324E-3,3.8178387E-1,-4.4516885E-1,1.0586538E0,5.3613156E-1,4.5330885E-1,-2.876985E-1,6.771815E-1,-1.2460558E-1,-6.329726E-2,-5.5000925E-1,1.10114805E-1,3.265004E-2,7.0975654E-2,3.3997956E-3,9.4867244E-2,1.6338555E-2,1.3170044E-2,-5.0402906E-2,9.580519E-2,1.1716576E-2,3.7593048E-2,-4.044536E-2,3.378406E-2,-3.88173E-2,-3.759066E-2,-6.207875E-2],"categories":[],"categories_nodes":[],"categories_segments":[],"categories_sizes":[],"default_left":[0,0,0,0,0,0,0,0,0,0,0,0,0,0,0,0,0,0,0,0,0,0,0,0,0,0,0,0,0,0,0],"id":8,"left_children":[1,3,5,7,9,11,13,15,17,19,21,23,25,27,29,-1,-1,-1,-1,-1,-1,-1,-1,-1,-1,-1,-1,-1,-1,-1,-1],"loss_changes":[1.7611996E2,8.240107E1,1.0053783E2,1.784291E1,2.5731277E1,2.8304613E1,2.6716812E1,4.739746E0,1.00972595E1,1.0811997E1,1.1071747E1,1.8653545E1,1.0006214E1,1.9035772E1,6.2253876E0,0E0,0E0,0E0,0E0,0E0,0E0,0E0,0E0,0E0,0E0,0E0,0E0,0E0,0E0,0E0,0E0],"parents":[2147483647,0,0,1,1,2,2,3,3,4,4,5,5,6,6,7,7,8,8,9,9,10,10,11,11,12,12,13,13,14,14],"right_children":[2,4,6,8,10,12,14,16,18,20,22,24,26,28,30,-1,-1,-1,-1,-1,-1,-1,-1,-1,-1,-1,-1,-1,-1,-1,-1],"split_conditions":[-4.0657577E-1,2.4782172E-1,-7.922567E-1,1.3094054E-1,-3.3166853E-1,7.0044136E-1,-8.115733E-1,1.483487E0,-6.632372E-1,-1.1323878E0,-5.2695835E-1,2.666727E-1,-4.6776092E-1,3.1077027E-1,-6.0312676E-1,1.10114805E-1,3.265004E-2,7.0975654E-2,3.3997956E-3,9.4867244E-2,1.6338555E-2,1.3170044E-2,-5.0402906E-2,9.580519E-2,1.1716576E-2,3.7593048E-2,-4.044536E-2,3.378406E-2,-3.88173E-2,-3.759066E-2,-6.207875E-2],"split_indices":[6,7,7,5,5,6,5,8,6,6,8,5,5,6,8,0,0,0,0,0,0,0,0,0,0,0,0,0,0,0,0],"split_type":[0,0,0,0,0,0,0,0,0,0,0,0,0,0,0,0,0,0,0,0,0,0,0,0,0,0,0,0,0,0,0],"sum_hessian":[1.3285065E3,4.736547E2,8.548518E2,2.7799252E2,1.9566217E2,1.8765526E2,6.6719653E2,1.6289883E2,1.1509369E2,7.536257E1,1.2029959E2,1.1830554E2,6.934972E1,1.4406319E2,5.2313336E2,1.534865E2,9.412339E0,8.521503E1,2.9878662E1,2.6984556E1,4.8378017E1,4.1069523E1,7.923007E1,7.83161E1,3.998944E1,2.474589E1,4.460383E1,6.444737E1,7.961581E1,1.5302605E2,3.701073E2],"tree_param":{"num_deleted":"0","num_feature":"10","num_nodes":"31","size_leaf_vector":"1"}},{"base_weights":[-5.343701E-3,-2.9053947E-1,4.284425E-1,-4.8926607E-1,4.6655934E-2,6.360914E-2,7.6471967E-1,-5.769978E-1,-4.6527416E-2,-1.8047912E-1,5.9822667E-1,-2.3544674E-1,4.5924675E-1,-2.7659684E-1,8.332232E-1,-5.9528876E-2,1.0502269E-2,-2.9418383E-2,4.945044E-2,-4.017727E-2,1.7431727E-2,1.7820416E-3,8.270859E-2,-3.9870914E-2,3.6850106E-2,1.6336923E-2,8.600824E-2,-4.6632316E-2,8.314369E-2,6.2649935E-2,1.0242444E-1],"categories":[],"categories_nodes":[],"categories_segments":[],"categories_sizes":[],"default_left":[0,0,0,0,0,0,0,0,0,0,0,0,0,0,0,0,0,0,0,0,0,0,0,0,0,0,0,0,0,0,0],"id":9,"left_children":[1,3,5,7,9,11,13,15,17,19,21,23,25,27,29,-1,-1,-1,-1,-1,-1,-1,-1,-1,-1,-1,-1,-1,-1,-1,-1],"loss_changes":[1.6209698E2,5.2994705E1,6.3715607E1,1.929586E1,3.694613E1,2.9732029E1,1.9516525E1,5.24086E0,1.1315026E1,1.6483015E1,1.140868E1,1.4272005E1,1.26825905E1,4.0537844E0,9.385452E0,0E0,0E0,0E0,0E0,0E0,0E0,0E0,0E0,0E0,0E0,0E0,0E0,0E0,0E0,0E0,0E0],"parents":[2147483647,0,0,1,1,2,2,3,3,4,4,5,5,6,6,7,7,8,8,9,9,10,10,11,11,12,12,13,13,14,14],"right_children":[2,4,6,8,10,12,14,16,18,20,22,24,26,28,30,-1,-1,-1,-1,-1,-1,-1,-1,-1,-1,-1,-1,-1,-1,-1,-1],"split_conditions":[3.30972E-1,3.8033506E-1,1.2970613E-2,9.6071607E-1,6.3980013E-1,1.1337051E-1,-1.6009898E0,1.935075E0,3.74326E-1,3.1371328E-1,-9.395489E-1,1.4179817E0,1.0165446E0,1.1077708E0,7.353317E-2,-5.9528876E-2,1.0502269E-2,-2.9418383E-2,4.945044E-2,-4.017727E-2,1.7431727E-2,1.7820416E-3,8.270859E-2,-3.9870914E-2,3.6850106E-2,1.6336923E-2,8.600824E-2,-4.6632316E-2,8.314369E-2,6.2649935E-2,1.0242444E-1],"split_indices":[6,7,7,5,5,5,5,8,8,8,6,6,6,2,5,0,0,0,0,0,0,0,0,0,0,0,0,0,0,0,0],"split_type":[0,0,0,0,0,0,0,0,0,0,0,0,0,0,0,0,0,0,0,0,0,0,0,0,0,0,0,0,0,0,0],"sum_hessian":[1.3082496E3,7.895106E2,5.187391E2,4.9646643E2,2.9304422E2,2.4937576E2,2.6936328E2,4.1410535E2,8.23611E1,2.0804482E2,8.49994E1,1.4225356E2,1.071222E2,1.6438925E1,2.5292436E2,4.0341345E2,1.0691893E1,5.681183E1,2.5549267E1,1.2804697E2,7.999785E1,2.4342539E1,6.0656857E1,1.12249504E2,3.0004055E1,6.2439754E1,4.468245E1,1.4530108E1,1.9088168E0,1.23524956E2,1.293994E2],"tree_param":{"num_deleted":"0","num_feature":"10","num_nodes":"31","size_leaf_vector":"1"}},{"base_weights":[-9.727138E-4,-3.1515378E-1,3.8334224E-2,-5.005269E-1,-3.0166326E-2,9.1028824E-2,-2.6522583E-1,-5.9162635E-1,5.2365806E-2,1.6025855E-1,-3.1358993E-1,-2.6293516E-1,1.2558696E-1,-1.14601135E-1,-6.1251163E-1,-6.1531384E-2,2.8035134E-2,-3.0461067E-2,6.696171E-2,-3.994793E-2,3.0962853E-2,-4.2557724E-2,2.0128962E-2,-4.405148E-2,2.7726715E-2,1.4603319E-2,-3.746989E-2,3.3932846E-2,-2.6480092E-2,3.2316602E-3,-6.464704E-2],"categories":[],"categories_nodes":[],"categories_segments":[],"categories_sizes":[],"default_left":[0,0,0,0,0,0,0,0,0,0,0,0,0,0,0,0,0,0,0,0,0,0,0,0,0,0,0,0,0,0,0],"id":10,"left_children":[1,3,5,7,9,11,13,15,17,19,21,23,25,27,29,-1,-1,-1,-1,-1,-1,-1,-1,-1,-1,-1,-1,-1,-1,-1,-1],"loss_changes":[1.633132E1,7.753419E0,1.882581E1,4.515381E0,3.2355037E0,1.2293341E1,9.037577E0,1.7529984E0,3.1815379E0,3.1304214E0,1.4727118E0,8.705321E0,9.402074E0,8.453577E0,1.1692219E0,0E0,0E0,0E0,0E0,0E0,0E0,0E0,0E0,0E0,0E0,0E0,0E0,0E0,0E0,0E0,0E0],"parents":[2147483647,0,0,1,1,2,2,3,3,4,4,5,5,6,6,7,7,8,8,9,9,10,10,11,11,12,12,13,13,14,14],"right_children":[2,4,6,8,10,12,14,16,18,20,22,24,26,28,30,-1,-1,-1,-1,-1,-1,-1,-1,-1,-1,-1,-1,-1,-1,-1,-1],"split_conditions":[-1.2012652E0,3.1077027E-1,9.724874E-1,9.6071607E-1,1.9971846E-1,-1.4196721E0,4.9739563E-1,1.7024646E0,-3.844089E-1,-9.47691E-1,1.4473786E0,8.749327E-1,1.8370944E0,-7.892662E-1,-1.6374494E0,-6.1531384E-2,2.8035134E-2,-3.0461067E-2,6.696171E-2,-3.994793E-2,3.0962853E-2,-4.2557724E-2,2.0128962E-2,-4.405148E-2,2.7726715E-2,1.4603319E-2,-3.746989E-2,3.3932846E-2,-2.6480092E-2,3.2316602E-3,-6.464704E-2],"split_indices":[7,6,6,5,4,6,7,8,6,8,4,7,7,5,5,0,0,0,0,0,0,0,0,0,0,0,0,0,0,0,0],"split_type":[0,0,0,0,0,0,0,0,0,0,0,0,0,0,0,0,0,0,0,0,0,0,0,0,0,0,0,0,0,0,0],"sum_hessian":[1.3204498E3,1.460502E2,1.1743997E3,8.8032326E1,5.8017876E1,1.0012876E3,1.7311209E2,7.551908E1,1.2513246E1,3.496223E1,2.3055643E1,8.8474396E1,9.128132E2,1.21670975E2,5.1441113E1,7.380841E1,1.7106729E0,8.249054E0,4.264191E0,7.0119066E0,2.7950325E1,1.9079302E1,3.9763412E0,6.672467E1,2.1749727E1,8.7765247E2,3.5160744E1,2.9937006E1,9.173397E1,2.575943E0,4.8865173E1],"tree_param":{"num_deleted":"0","num_feature":"10","num_nodes":"31","size_leaf_vector":"1"}},{"base_weights":[6.2799514E-3,4.3876904E-1,-2.6286256E-1,6.969753E-1,-9.8188706E-2,4.5632622E-1,-4.0993318E-1,9.798156E-1,4.5461625E-1,1.700984E-1,-5.2184844E-1,5.849332E-1,-3.7226316E-1,-6.7938365E-2,-5.221503E-1,1.04863085E-1,1.8666828E-2,8.4023885E-2,1.9477261E-2,4.7406875E-2,-3.238672E-2,-5.614105E-2,3.9262697E-2,8.086438E-2,1.0062779E-2,4.2533718E-2,-6.0495432E-2,2.2281436E-2,-4.5325156E-2,-3.2750558E-2,-6.034262E-2],"categories":[],"categories_nodes":[],"categories_segments":[],"categories_sizes":[],"default_left":[0,0,0,0,0,0,0,0,0,0,0,0,0,0,0,0,0,0,0,0,0,0,0,0,0,0,0,0,0,0,0],"id":11,"left_children":[1,3,5,7,9,11,13,15,17,19,21,23,25,27,29,-1,-1,-1,-1,-1,-1,-1,-1,-1,-1,-1,-1,-1,-1,-1,-1],"loss_changes":[1.5361848E2,7.025618E1,8.623265E1,2.2996597E1,1.8872892E1,1.4985931E1,2.5904655E1,8.370285E0,1.84771E1,1.5459876E1,2.5475235E0,1.2958492E1,3.8265514E0,1.8937956E1,7.851166E0,0E0,0E0,0E0,0E0,0E0,0E0,0E0,0E0,0E0,0E0,0E0,0E0,0E0,0E0,0E0,0E0],"parents":[2147483647,0,0,1,1,2,2,3,3,4,4,5,5,6,6,7,7,8,8,9,9,10,10,11,11,12,12,13,13,14,14],"right_children":[2,4,6,8,10,12,14,16,18,20,22,24,26,28,30,-1,-1,-1,-1,-1,-1,-1,-1,-1,-1,-1,-1,-1,-1,-1,-1],"split_conditions":[-3.5254502E-1,4.2462835E-1,-9.989346E-1,-1.599711E-1,2.901175E-1,9.6071607E-1,-7.3722947E-1,1.365301E0,-6.644784E-1,3.058363E-1,2.0444367E0,7.3578805E-1,-1.0508211E0,2.4467589E-1,-6.0312676E-1,1.04863085E-1,1.8666828E-2,8.4023885E-2,1.9477261E-2,4.7406875E-2,-3.238672E-2,-5.614105E-2,3.9262697E-2,8.086438E-2,1.0062779E-2,4.2533718E-2,-6.0495432E-2,2.2281436E-2,-4.5325156E-2,-3.2750558E-2,-6.034262E-2],"split_indices":[6,7,7,5,5,5,5,8,7,8,1,6,8,7,8,0,0,0,0,0,0,0,0,0,0,0,0,0,0,0,0],"split_type":[0,0,0,0,0,0,0,0,0,0,0,0,0,0,0,0,0,0,0,0,0,0,0,0,0,0,0,0,0,0,0],"sum_hessian":[1.3177418E3,5.0523767E2,8.1250415E2,3.4097528E2,1.6426239E2,1.3758723E2,6.7491693E2,1.5594267E2,1.8503261E2,1.0093973E2,6.332267E1,1.1935585E2,1.8231394E1,1.6714087E2,5.0777606E2,1.431965E2,1.2746171E1,7.358891E1,1.114437E2,6.2512096E1,3.842763E1,6.106688E1,2.255792E0,8.11851E1,3.8170753E1,3.9305751E0,1.4300818E1,9.549968E1,7.164119E1,1.5105342E2,3.5672266E2],"tree_param":{"num_deleted":"0","num_feature":"10","num_nodes":"31","size_leaf_vector":"1"}},{"base_weights":[-5.7163346E-3,-2.7724162E-1,3.9675686E-1,-5.135023E-1,-1.1631434E-2,-5.446375E-2,6.338642E-1,-5.835393E-1,2.5479047E-2,-2.238924E-1,5.39263E-1,-1.6223249E-1,7.701725E-1,3.7380558E-1,9.1802907E-1,-6.266899E-2,-4.1468617E-2,-6.016351E-2,2.9626718E-2,-4.866132E-2,5.794206E-3,-6.86044E-3,7.644608E-2,-3.8690608E-2,2.3792898E-2,-5.8502853E-2,9.749997E-2,9.486088E-3,6.95157E-2,-1.3461381E-2,9.379002E-2],"categories":[],"categories_nodes":[],"categories_segments":[],"categories_sizes":[],"default_left":[0,0,0,0,0,0,0,0,0,0,0,0,0,0,0,0,0,0,0,0,0,0,0,0,0,0,0,0,0,0,0],"id":12,"left_children":[1,3,5,7,9,11,13,15,17,19,21,23,25,27,29,-1,-1,-1,-1,-1,-1,-1,-1,-1,-1,-1,-1,-1,-1,-1,-1],"loss_changes":[1.416043E2,4.8549305E1,5.5884056E1,1.5472015E1,4.283339E1,1.6187279E1,2.4951035E1,2.3808136E0,8.337486E0,1.960421E1,1.4000069E1,1.4537703E1,6.417433E0,1.6105566E1,3.5330658E0,0E0,0E0,0E0,0E0,0E0,0E0,0E0,0E0,0E0,0E0,0E0,0E0,0E0,0E0,0E0,0E0],"parents":[2147483647,0,0,1,1,2,2,3,3,4,4,5,5,6,6,7,7,8,8,9,9,10,10,11,11,12,12,13,13,14,14],"right_children":[2,4,6,8,10,12,14,16,18,20,22,24,26,28,30,-1,-1,-1,-1,-1,-1,-1,-1,-1,-1,-1,-1,-1,-1,-1,-1],"split_conditions":[3.30972E-1,1.5728262E-1,-2.9791147E-1,1.3155563E0,6.3980013E-1,1.8076262E0,8.130287E-2,5.8632433E-2,-5.1769185E-1,-4.5684913E-1,-9.5498186E-1,2.901175E-1,-1.3645933E0,8.864366E-1,-2.1272314E0,-6.266899E-2,-4.1468617E-2,-6.016351E-2,2.9626718E-2,-4.866132E-2,5.794206E-3,-6.86044E-3,7.644608E-2,-3.8690608E-2,2.3792898E-2,-5.8502853E-2,9.749997E-2,9.486088E-3,6.95157E-2,-1.3461381E-2,9.379002E-2],"split_indices":[6,7,7,5,5,6,5,6,8,6,6,5,5,6,8,0,0,0,0,0,0,0,0,0,0,0,0,0,0,0,0],"split_type":[0,0,0,0,0,0,0,0,0,0,0,0,0,0,0,0,0,0,0,0,0,0,0,0,0,0,0,0,0,0,0],"sum_hessian":[1.2937673E3,7.727493E2,5.2101794E2,4.0847598E2,3.6427338E2,1.7973967E2,3.4127826E2,3.6142816E2,4.704781E1,2.6338434E2,1.0088904E2,1.5967552E2,2.006415E1,1.7940652E2,1.6187173E2,2.8570465E2,7.5723526E1,1.38201475E1,3.322766E1,1.3593846E2,1.2744588E2,2.7460724E1,7.3428314E1,1.02281784E2,5.7393734E1,2.3906507E0,1.7673498E1,9.673351E1,8.267302E1,2.892115E0,1.5897961E2],"tree_param":{"num_deleted":"0","num_feature":"10","num_nodes":"31","size_leaf_vector":"1"}},{"base_weights":[7.35245E-4,-3.153132E-1,3.4849163E-2,-5.030195E-1,-3.752318E-2,7.762188E-2,-2.807271E-1,-6.1266905E-1,6.298942E-2,-3.5279214E-1,1.22239575E-1,-2.0947707E-1,1.1319728E-1,8.457912E-2,-4.3299422E-1,-6.265263E-2,4.3736706E-3,-3.6775198E-2,5.465522E-2,-6.4676054E-2,2.8719788E-3,6.40068E-2,-7.5490186E-3,-5.896314E-2,-2.0403436E-3,1.6551709E-2,-1.0835956E-2,6.965554E-2,-1.6662335E-2,-1.2647741E-2,-5.172951E-2],"categories":[],"categories_nodes":[],"categories_segments":[],"categories_sizes":[],"default_left":[0,0,0,0,0,0,0,0,0,0,0,0,0,0,0,0,0,0,0,0,0,0,0,0,0,0,0,0,0,0,0],"id":13,"left_children":[1,3,5,7,9,11,13,15,17,19,21,23,25,27,29,-1,-1,-1,-1,-1,-1,-1,-1,-1,-1,-1,-1,-1,-1,-1,-1],"loss_changes":[1.4192958E1,6.668354E0,1.6059261E1,4.783453E0,2.7023273E0,1.0718433E1,7.937066E0,6.108074E-1,2.9741647E0,2.038825E0,3.71202E0,8.31101E0,1.082503E1,6.668308E0,2.5291576E0,0E0,0E0,0E0,0E0,0E0,0E0,0E0,0E0,0E0,0E0,0E0,0E0,0E0,0E0,0E0,0E0],"parents":[2147483647,0,0,1,1,2,2,3,3,4,4,5,5,6,6,7,7,8,8,9,9,10,10,11,11,12,12,13,13,14,14],"right_children":[2,4,6,8,10,12,14,16,18,20,22,24,26,28,30,-1,-1,-1,-1,-1,-1,-1,-1,-1,-1,-1,-1,-1,-1,-1,-1],"split_conditions":[-1.2540982E0,3.1077027E-1,1.1001593E0,9.6071607E-1,-4.6776092E-1,-1.2767465E0,-7.132183E-1,1.7024646E0,-2.4732764E-1,4.575319E-1,-5.582539E-1,-4.315115E-2,9.052515E-1,-4.614373E-1,-8.0181533E-1,-6.265263E-2,4.3736706E-3,-3.6775198E-2,5.465522E-2,-6.4676054E-2,2.8719788E-3,6.40068E-2,-7.5490186E-3,-5.896314E-2,-2.0403436E-3,1.6551709E-2,-1.0835956E-2,6.965554E-2,-1.6662335E-2,-1.2647741E-2,-5.172951E-2],"split_indices":[7,6,6,5,5,6,8,8,3,2,9,7,7,7,5,0,0,0,0,0,0,0,0,0,0,0,0,0,0,0,0],"split_type":[0,0,0,0,0,0,0,0,0,0,0,0,0,0,0,0,0,0,0,0,0,0,0,0,0,0,0,0,0,0,0],"sum_hessian":[1.3143802E3,1.2724801E2,1.1871322E3,7.545279E1,5.179522E1,1.0460996E3,1.4103267E2,6.3138844E1,1.2313949E1,1.7013428E1,3.478179E1,1.1479536E2,9.313042E2,4.1621788E1,9.941088E1,6.1878063E1,1.2607768E0,6.639342E0,5.674607E0,9.216518E0,7.7969093E0,8.993059E0,2.5788733E1,3.7426514E1,7.736884E1,7.5359784E2,1.7770636E2,1.1596837E1,3.0024952E1,2.1982643E1,7.742823E1],"tree_param":{"num_deleted":"0","num_feature":"10","num_nodes":"31","size_leaf_vector":"1"}},{"base_weights":[4.9309074E-3,4.5227787E-1,-2.2518772E-1,8.185334E-1,8.849859E-2,2.9668143E-1,-4.0919316E-1,8.882569E-1,-1.0029046E-1,4.7016704E-1,-1.667343E-1,5.422039E-1,-1.7371617E-1,-4.3100253E-2,-5.164611E-1,9.054036E-2,7.28236E-3,3.6029086E-2,-6.644384E-2,6.473809E-2,-7.408527E-3,2.4425386E-2,-4.0452294E-2,7.816261E-2,2.5679478E-3,6.288126E-2,-3.3242535E-2,3.0591592E-2,-3.6691915E-2,-3.724874E-2,-6.0799457E-2],"categories":[],"categories_nodes":[],"categories_segments":[],"categories_sizes":[],"default_left":[0,0,0,0,0,0,0,0,0,0,0,0,0,0,0,0,0,0,0,0,0,0,0,0,0,0,0,0,0,0,0],"id":14,"left_children":[1,3,5,7,9,11,13,15,17,19,21,23,25,27,29,-1,-1,-1,-1,-1,-1,-1,-1,-1,-1,-1,-1,-1,-1,-1,-1],"loss_changes":[1.3442862E2,5.9026344E1,8.292557E1,1.4241287E1,2.1865652E1,2.6122019E1,2.5029678E1,2.8063507E0,4.521358E0,8.717749E0,1.3269229E1,1.8321999E1,1.0149482E1,1.6573803E1,6.274246E0,0E0,0E0,0E0,0E0,0E0,0E0,0E0,0E0,0E0,0E0,0E0,0E0,0E0,0E0,0E0,0E0],"parents":[2147483647,0,0,1,1,2,2,3,3,4,4,5,5,6,6,7,7,8,8,9,9,10,10,11,11,12,12,13,13,14,14],"right_children":[2,4,6,8,10,12,14,16,18,20,22,24,26,28,30,-1,-1,-1,-1,-1,-1,-1,-1,-1,-1,-1,-1,-1,-1,-1,-1],"split_conditions":[-4.777482E-1,1.2970613E-2,-6.751136E-1,1.5053718E0,-3.3166853E-1,2.800857E-1,-8.115733E-1,1.935075E0,4.265268E-2,1.1337496E0,-5.2695835E-1,7.3578805E-1,-9.349324E-1,3.1077027E-1,1.7515476E-1,9.054036E-2,7.28236E-3,3.6029086E-2,-6.644384E-2,6.473809E-2,-7.408527E-3,2.4425386E-2,-4.0452294E-2,7.816261E-2,2.5679478E-3,6.288126E-2,-3.3242535E-2,3.0591592E-2,-3.6691915E-2,-3.724874E-2,-6.0799457E-2],"split_indices":[6,7,7,5,5,5,5,8,8,7,8,6,8,6,6,0,0,0,0,0,0,0,0,0,0,0,0,0,0,0,0],"split_type":[0,0,0,0,0,0,0,0,0,0,0,0,0,0,0,0,0,0,0,0,0,0,0,0,0,0,0,0,0,0,0],"sum_hessian":[1.3038672E3,4.4256412E2,8.6130304E2,2.1990855E2,2.2265556E2,2.2436246E2,6.3694055E2,2.0442905E2,1.5479499E1,8.8889885E1,1.3376569E2,1.4731778E2,7.704468E1,1.4465425E2,4.9228632E2,2.0011086E2,4.318197E0,8.720922E0,6.7585764E0,6.691292E1,2.1976973E1,4.901762E1,8.474806E1,1.00308846E2,4.700894E1,1.2231722E1,6.481296E1,6.964513E1,7.5009125E1,1.9330505E2,2.9898126E2],"tree_param":{"num_deleted":"0","num_feature":"10","num_nodes":"31","size_leaf_vector":"1"}},{"base_weights":[-6.3733747E-3,-2.6409587E-1,3.6622426E-1,-3.8061664E-1,2.4548589E-1,8.0925874E-2,6.9054353E-1,-5.0073403E-1,7.293633E-2,-2.992974E-1,4.9880722E-1,-1.9781193E-1,4.211108E-1,-3.1978318E-1,7.605861E-1,-5.843681E-2,-3.2320227E-2,-5.331067E-2,2.7588675E-2,-4.8052404E-2,2.9930755E-2,-1.4611636E-2,7.138701E-2,-3.6431123E-2,3.7012693E-2,2.2571174E-2,8.315949E-2,-5.157522E-2,7.511065E-2,3.090393E-2,8.218115E-2],"categories":[],"categories_nodes":[],"categories_segments":[],"categories_sizes":[],"default_left":[0,0,0,0,0,0,0,0,0,0,0,0,0,0,0,0,0,0,0,0,0,0,0,0,0,0,0,0,0,0,0],"id":15,"left_children":[1,3,5,7,9,11,13,15,17,19,21,23,25,27,29,-1,-1,-1,-1,-1,-1,-1,-1,-1,-1,-1,-1,-1,-1,-1,-1],"loss_changes":[1.22837715E2,4.4991463E1,4.8340004E1,3.3586243E1,1.9653824E1,2.6576038E1,1.7556E1,7.0420456E0,1.6114023E1,5.0780973E0,1.35369835E1,1.4720582E1,9.930326E0,3.8637512E0,6.0793E0,0E0,0E0,0E0,0E0,0E0,0E0,0E0,0E0,0E0,0E0,0E0,0E0,0E0,0E0,0E0,0E0],"parents":[2147483647,0,0,1,1,2,2,3,3,4,4,5,5,6,6,7,7,8,8,9,9,10,10,11,11,12,12,13,13,14,14],"right_children":[2,4,6,8,10,12,14,16,18,20,22,24,26,28,30,-1,-1,-1,-1,-1,-1,-1,-1,-1,-1,-1,-1,-1,-1,-1,-1],"split_conditions":[3.30972E-1,8.90843E-1,1.3042721E-1,8.3234036E-1,-4.5861176E-1,7.353317E-2,-1.6374494E0,4.7932327E-1,-7.5525767E-1,-1.9374897E-1,-1.0559446E0,1.4179817E0,1.1846493E0,1.1077708E0,-1.0614898E0,-5.843681E-2,-3.2320227E-2,-5.331067E-2,2.7588675E-2,-4.8052404E-2,2.9930755E-2,-1.4611636E-2,7.138701E-2,-3.6431123E-2,3.7012693E-2,2.2571174E-2,8.315949E-2,-5.157522E-2,7.511065E-2,3.090393E-2,8.218115E-2],"split_indices":[6,7,7,5,5,5,5,8,7,6,6,6,6,2,2,0,0,0,0,0,0,0,0,0,0,0,0,0,0,0,0],"split_type":[0,0,0,0,0,0,0,0,0,0,0,0,0,0,0,0,0,0,0,0,0,0,0,0,0,0,0,0,0,0,0],"sum_hessian":[1.2771953E3,7.5515356E2,5.220418E2,6.148217E2,1.4033183E2,2.7839328E2,2.4364854E2,4.8600565E2,1.2881609E2,4.448423E1,9.5847595E1,1.5324622E2,1.2514706E2,1.5565073E1,2.2808347E2,3.2881256E2,1.5719308E2,3.19077E1,9.690838E1,3.429787E1,1.0186362E1,2.4049452E1,7.179814E1,1.18782104E2,3.446411E1,8.58368E1,3.9310253E1,1.3595529E1,1.9695446E0,2.7955437E1,2.0012802E2],"tree_param":{"num_deleted":"0","num_feature":"10","num_nodes":"31","size_leaf_vector":"1"}},{"base_weights":[2.7867204E-3,-2.9898706E-1,3.4628846E-2,-4.850099E-1,-3.313146E-2,6.335468E-2,-3.8488623E-1,-5.955467E-1,6.2009346E-2,-3.4087303E-1,1.20504014E-1,-3.3168045E-1,8.419839E-2,2.4924941E-2,-5.2710843E-1,-6.0967684E-2,4.159369E-3,-3.5317093E-2,5.1245462E-2,-6.327226E-2,2.8407117E-3,5.993988E-2,-6.74393E-3,-4.5447864E-2,3.8913764E-2,1.2909815E-2,-1.2535182E-2,6.843315E-2,-3.0545397E-2,1.6959952E-3,-6.2027168E-2],"categories":[],"categories_nodes":[],"categories_segments":[],"categories_sizes":[],"default_left":[0,0,0,0,0,0,0,0,0,0,0,0,0,0,0,0,0,0,0,0,0,0,0,0,0,0,0,0,0,0,0],"id":16,"left_children":[1,3,5,7,9,11,13,15,17,19,21,23,25,27,29,-1,-1,-1,-1,-1,-1,-1,-1,-1,-1,-1,-1,-1,-1,-1,-1],"loss_changes":[1.2583656E1,6.165434E0,1.4298509E1,4.4789677E0,2.524611E0,9.16301E0,4.4456463E0,5.764122E-1,2.6599054E0,1.9312601E0,3.2603977E0,5.1166143E0,9.93891E0,4.6854577E0,2.8744478E0,0E0,0E0,0E0,0E0,0E0,0E0,0E0,0E0,0E0,0E0,0E0,0E0,0E0,0E0,0E0,0E0],"parents":[2147483647,0,0,1,1,2,2,3,3,4,4,5,5,6,6,7,7,8,8,9,9,10,10,11,11,12,12,13,13,14,14],"right_children":[2,4,6,8,10,12,14,16,18,20,22,24,26,28,30,-1,-1,-1,-1,-1,-1,-1,-1,-1,-1,-1,-1,-1,-1,-1,-1],"split_conditions":[-1.2540982E0,3.1077027E-1,1.4179817E0,9.6071607E-1,-4.6776092E-1,-1.6743698E0,-4.7346804E-1,1.7024646E0,-2.4732764E-1,4.575319E-1,-5.582539E-1,1.0939842E0,8.519333E-1,-7.452505E-1,-1.1277919E0,-6.0967684E-2,4.159369E-3,-3.5317093E-2,5.1245462E-2,-6.327226E-2,2.8407117E-3,5.993988E-2,-6.74393E-3,-4.5447864E-2,3.8913764E-2,1.2909815E-2,-1.2535182E-2,6.843315E-2,-3.0545397E-2,1.6959952E-3,-6.2027168E-2],"split_indices":[7,6,6,5,5,6,7,8,3,2,9,5,5,8,5,0,0,0,0,0,0,0,0,0,0,0,0,0,0,0,0],"split_type":[0,0,0,0,0,0,0,0,0,0,0,0,0,0,0,0,0,0,0,0,0,0,0,0,0,0,0,0,0,0,0],"sum_hessian":[1.3074762E3,1.2399192E2,1.1834843E3,7.2463715E1,5.1528202E1,1.1084344E3,7.504984E1,6.0208588E1,1.2255129E1,1.6752724E1,3.477548E1,5.4806953E1,1.0536274E3,1.9547825E1,5.5502018E1,5.8944458E1,1.2641308E0,6.4895725E0,5.765557E0,8.958917E0,7.7938066E0,9.184182E0,2.5591295E1,4.7144875E1,7.6620774E0,8.680225E2,1.8560489E2,6.1672316E0,1.3380593E1,8.233978E0,4.726804E1],"tree_param":{"num_deleted":"0","num_feature":"10","num_nodes":"31","size_leaf_vector":"1"}},{"base_weights":[3.4928452E-3,3.7607256E-1,-2.395101E-1,5.995756E-1,-9.891145E-2,2.570122E-1,-4.1922742E-1,8.5166466E-1,3.8287959E-1,1.3986632E-1,-4.9612385E-1,4.9173793E-1,-1.668623E-1,-7.997982E-2,-5.219936E-1,9.149493E-2,1.2818313E-2,7.25716E-2,1.5236783E-2,4.1475613E-2,-3.1919625E-2,-5.3583797E-2,3.7271228E-2,6.1790373E-2,-3.9102197E-2,2.7395234E-2,-4.1829396E-2,1.6764658E-2,-4.7940265E-2,1.5965194E-2,-5.40906E-2],"categories":[],"categories_nodes":[],"categories_segments":[],"categories_sizes":[],"default_left":[0,0,0,0,0,0,0,0,0,0,0,0,0,0,0,0,0,0,0,0,0,0,0,0,0,0,0,0,0,0,0],"id":17,"left_children":[1,3,5,7,9,11,13,15,17,19,21,23,25,27,29,-1,-1,-1,-1,-1,-1,-1,-1,-1,-1,-1,-1,-1,-1,-1,-1],"loss_changes":[1.1673648E2,5.409247E1,6.97451E1,1.8588692E1,1.5597651E1,2.0778568E1,1.9947975E1,7.173546E0,1.4747868E1,1.3134371E1,2.3282576E0,1.5180557E1,8.41436E0,1.3382283E1,5.75721E0,0E0,0E0,0E0,0E0,0E0,0E0,0E0,0E0,0E0,0E0,0E0,0E0,0E0,0E0,0E0,0E0],"parents":[2147483647,0,0,1,1,2,2,3,3,4,4,5,5,6,6,7,7,8,8,9,9,10,10,11,11,12,12,13,13,14,14],"right_children":[2,4,6,8,10,12,14,16,18,20,22,24,26,28,30,-1,-1,-1,-1,-1,-1,-1,-1,-1,-1,-1,-1,-1,-1,-1,-1],"split_conditions":[-3.5254502E-1,4.2462835E-1,-6.751136E-1,-1.599711E-1,2.901175E-1,7.3578805E-1,-8.115733E-1,1.365301E0,-1.0344652E0,3.058363E-1,2.0444367E0,9.6071607E-1,-4.6776092E-1,4.5191E-1,-1.843813E0,9.149493E-2,1.2818313E-2,7.25716E-2,1.5236783E-2,4.1475613E-2,-3.1919625E-2,-5.3583797E-2,3.7271228E-2,6.1790373E-2,-3.9102197E-2,2.7395234E-2,-4.1829396E-2,1.6764658E-2,-4.7940265E-2,1.5965194E-2,-5.40906E-2],"split_indices":[6,7,7,5,5,6,5,8,6,8,1,5,5,7,0,0,0,0,0,0,0,0,0,0,0,0,0,0,0,0,0],"split_type":[0,0,0,0,0,0,0,0,0,0,0,0,0,0,0,0,0,0,0,0,0,0,0,0,0,0,0,0,0,0,0],"sum_hessian":[1.2873702E3,5.0797678E2,7.7939343E2,3.4525516E2,1.6272162E2,2.0701718E2,5.723763E2,1.5823976E2,1.8701538E2,1.0203364E2,6.068798E1,1.3313301E2,7.388416E1,1.3348825E2,4.38888E2,1.4526817E2,1.2971593E1,7.43249E1,1.1269048E2,6.3878986E1,3.8154655E1,5.8401737E1,2.2862465E0,1.1674729E2,1.6385721E1,2.680303E1,4.7081135E1,8.276036E1,5.0727886E1,1.1647454E1,4.2724054E2],"tree_param":{"num_deleted":"0","num_feature":"10","num_nodes":"31","size_leaf_vector":"1"}},{"base_weights":[-7.077063E-3,-3.3883804E-1,2.5383142E-1,-4.7278297E-1,1.8059587E-2,-6.0554307E-2,5.5360514E-1,-5.589834E-1,-9.5711336E-2,-4.3008435E-1,2.4418777E-1,-2.5726357E-1,3.423999E-1,9.0944925E-3,6.8967104E-1,-6.1285824E-2,-3.8171925E-2,-5.546645E-2,1.2424192E-2,-4.801249E-2,8.040085E-2,-1.0928489E-2,6.2345225E-2,-3.7569623E-2,3.452019E-2,-1.8362403E-2,5.524323E-2,-1.7806796E-2,5.8031578E-2,1.5846867E-2,7.5735874E-2],"categories":[],"categories_nodes":[],"categories_segments":[],"categories_sizes":[],"default_left":[0,0,0,0,0,0,0,0,0,0,0,0,0,0,0,0,0,0,0,0,0,0,0,0,0,0,0,0,0,0,0],"id":18,"left_children":[1,3,5,7,9,11,13,15,17,19,21,23,25,27,29,-1,-1,-1,-1,-1,-1,-1,-1,-1,-1,-1,-1,-1,-1,-1,-1],"loss_changes":[1.0920097E2,2.655774E1,6.65902E1,1.3073204E1,1.55607395E1,2.7482527E1,2.6784859E1,2.9032745E0,7.7764006E0,3.5670738E0,1.37429495E1,1.674086E1,1.2674219E1,7.940811E0,1.0281937E1,0E0,0E0,0E0,0E0,0E0,0E0,0E0,0E0,0E0,0E0,0E0,0E0,0E0,0E0,0E0,0E0],"parents":[2147483647,0,0,1,1,2,2,3,3,4,4,5,5,6,6,7,7,8,8,9,9,10,10,11,11,12,12,13,13,14,14],"right_children":[2,4,6,8,10,12,14,16,18,20,22,24,26,28,30,-1,-1,-1,-1,-1,-1,-1,-1,-1,-1,-1,-1,-1,-1,-1,-1],"split_conditions":[-4.414927E-2,6.8746716E-1,1.6761895E-2,9.6071607E-1,-3.644817E-1,9.561567E-1,-7.892662E-1,7.470412E-1,-6.282995E-1,-7.96527E-2,2.188524E-2,9.6071607E-1,-6.604815E-1,1.1509625E0,-1.2371432E0,-6.1285824E-2,-3.8171925E-2,-5.546645E-2,1.2424192E-2,-4.801249E-2,8.040085E-2,-1.0928489E-2,6.2345225E-2,-3.7569623E-2,3.452019E-2,-1.8362403E-2,5.524323E-2,-1.7806796E-2,5.8031578E-2,1.5846867E-2,7.5735874E-2],"split_indices":[6,7,7,5,5,6,5,8,7,6,8,5,5,6,8,0,0,0,0,0,0,0,0,0,0,0,0,0,0,0,0],"split_type":[0,0,0,0,0,0,0,0,0,0,0,0,0,0,0,0,0,0,0,0,0,0,0,0,0,0,0,0,0,0,0],"sum_hessian":[1.2595812E3,5.5436884E2,7.0521234E2,4.0285226E2,1.5151654E2,3.4460654E2,3.6060583E2,3.275014E2,7.535088E1,5.051107E1,1.0100548E2,2.3180725E2,1.1279927E2,7.230829E1,2.8829755E2,2.4928143E2,7.8219955E1,2.3919292E1,5.143159E1,4.912988E1,1.3811915E0,5.264885E1,4.835663E1,1.9403938E2,3.7767868E1,3.222295E1,8.057632E1,5.4981647E1,1.7326643E1,3.2961548E1,2.5533598E2],"tree_param":{"num_deleted":"0","num_feature":"10","num_nodes":"31","size_leaf_vector":"1"}},{"base_weights":[4.701041E-3,-2.8418514E-1,3.451606E-2,-4.6989274E-1,-2.6925376E-2,6.0963593E-2,-3.6460486E-1,-5.803746E-1,5.183156E-2,-3.122612E-1,1.3365601E-1,-3.1516066E-1,8.038087E-2,3.5130102E-2,-5.1007324E-1,-5.948719E-2,4.2462274E-3,-3.4644987E-2,4.7441717E-2,-3.9355326E-2,4.5463905E-2,-2.94611E-2,2.679332E-2,-5.1991463E-2,1.1335655E-2,9.886262E-3,-3.7947696E-2,-4.51937E-2,5.1797617E-2,-1.5285032E-2,-5.8163E-2],"categories":[],"categories_nodes":[],"categories_segments":[],"categories_sizes":[],"default_left":[0,0,0,0,0,0,0,0,0,0,0,0,0,0,0,0,0,0,0,0,0,0,0,0,0,0,0,0,0,0,0],"id":19,"left_children":[1,3,5,7,9,11,13,15,17,19,21,23,25,27,29,-1,-1,-1,-1,-1,-1,-1,-1,-1,-1,-1,-1,-1,-1,-1,-1],"loss_changes":[1.1216392E1,5.8077173E0,1.2480917E1,4.1048975E0,2.43057E0,8.115798E0,4.2914467E0,5.527687E-1,2.3981502E0,1.3680868E0,2.0376687E0,4.8482203E0,8.997103E0,5.0657363E0,1.2901096E0,0E0,0E0,0E0,0E0,0E0,0E0,0E0,0E0,0E0,0E0,0E0,0E0,0E0,0E0,0E0,0E0],"parents":[2147483647,0,0,1,1,2,2,3,3,4,4,5,5,6,6,7,7,8,8,9,9,10,10,11,11,12,12,13,13,14,14],"right_children":[2,4,6,8,10,12,14,16,18,20,22,24,26,28,30,-1,-1,-1,-1,-1,-1,-1,-1,-1,-1,-1,-1,-1,-1,-1,-1],"split_conditions":[-1.2540982E0,3.1077027E-1,1.4179817E0,9.6071607E-1,-3.1699064E-1,-1.6743698E0,-7.452505E-1,1.7024646E0,-2.4732764E-1,1.6135199E0,-6.872779E-1,4.0774232E-1,1.8370944E0,-6.944558E-2,-1.1277919E0,-5.948719E-2,4.2462274E-3,-3.4644987E-2,4.7441717E-2,-3.9355326E-2,4.5463905E-2,-2.94611E-2,2.679332E-2,-5.1991463E-2,1.1335655E-2,9.886262E-3,-3.7947696E-2,-4.51937E-2,5.1797617E-2,-1.5285032E-2,-5.8163E-2],"split_indices":[7,6,6,5,2,6,8,8,3,3,0,5,7,1,5,0,0,0,0,0,0,0,0,0,0,0,0,0,0,0,0],"split_type":[0,0,0,0,0,0,0,0,0,0,0,0,0,0,0,0,0,0,0,0,0,0,0,0,0,0,0,0,0,0,0],"sum_hessian":[1.300102E3,1.2082852E2,1.1792736E3,6.969291E1,5.1135612E1,1.1067806E3,7.2492966E1,5.742088E1,1.227203E1,1.807454E1,3.3061073E1,5.358458E1,1.053196E3,1.9544584E1,5.294838E1,5.615862E1,1.2622604E0,6.4104395E0,5.86159E0,1.6782415E1,1.292124E0,7.6065383E0,2.5454536E1,3.6114887E1,1.7469692E1,1.01325806E3,3.9937958E1,9.761631E0,9.782953E0,9.359631E0,4.358875E1],"tree_param":{"num_deleted":"0","num_feature":"10","num_nodes":"31","size_leaf_vector":"1"}},{"base_weights":[2.207457E-3,3.906507E-1,-2.0592739E-1,7.432518E-1,8.5207194E-2,3.8947707E-1,-3.4027722E-1,8.064081E-1,-7.965966E-2,4.316754E-1,-1.5554583E-1,6.8155223E-1,1.1265853E-1,-1.0987E-1,-5.0698215E-1,8.863308E-2,6.3724965E-2,3.910113E-2,-5.5230755E-2,5.8785785E-2,-9.858768E-3,5.2324947E-2,-2.9349769E-2,7.4123025E-2,-6.2170472E-2,3.9119955E-2,-3.2476332E-2,2.1381205E-2,-3.5926756E-2,3.210938E-3,-5.3517696E-2],"categories":[],"categories_nodes":[],"categories_segments":[],"categories_sizes":[],"default_left":[0,0,0,0,0,0,0,0,0,0,0,0,0,0,0,0,0,0,0,0,0,0,0,0,0,0,0,0,0,0,0],"id":20,"left_children":[1,3,5,7,9,11,13,15,17,19,21,23,25,27,29,-1,-1,-1,-1,-1,-1,-1,-1,-1,-1,-1,-1,-1,-1,-1,-1],"loss_changes":[1.0280265E2,4.771402E1,6.636105E1,1.0759216E1,1.9988998E1,1.2284758E1,2.5911118E1,2.020218E0,3.681402E0,8.189281E0,1.3417809E1,6.2316017E0,9.836938E0,2.308963E1,5.97493E0,0E0,0E0,0E0,0E0,0E0,0E0,0E0,0E0,0E0,0E0,0E0,0E0,0E0,0E0,0E0,0E0],"parents":[2147483647,0,0,1,1,2,2,3,3,4,4,5,5,6,6,7,7,8,8,9,9,10,10,11,11,12,12,13,13,14,14],"right_children":[2,4,6,8,10,12,14,16,18,20,22,24,26,28,30,-1,-1,-1,-1,-1,-1,-1,-1,-1,-1,-1,-1,-1,-1,-1,-1],"split_conditions":[-4.777482E-1,-5.1602535E-2,-9.822504E-1,1.5053718E0,-3.3166853E-1,-1.4164087E-1,-2.8811437E-1,-7.4840385E-1,-1.9052337E-1,1.1337496E0,-1.7569644E0,1.7685765E0,3.2353044E-1,2.4737206E-1,-1.6484665E0,8.863308E-2,6.3724965E-2,3.910113E-2,-5.5230755E-2,5.8785785E-2,-9.858768E-3,5.2324947E-2,-2.9349769E-2,7.4123025E-2,-6.2170472E-2,3.9119955E-2,-3.2476332E-2,2.1381205E-2,-3.5926756E-2,3.210938E-3,-5.3517696E-2],"split_indices":[6,7,7,5,5,5,5,6,8,7,6,0,8,6,8,0,0,0,0,0,0,0,0,0,0,0,0,0,0,0,0],"split_type":[0,0,0,0,0,0,0,0,0,0,0,0,0,0,0,0,0,0,0,0,0,0,0,0,0,0,0,0,0,0,0],"sum_hessian":[1.2695507E3,4.4261633E2,8.269343E2,2.047832E2,2.3783315E2,1.5189136E2,6.7504297E2,1.9020549E2,1.4577714E1,9.718335E1,1.406498E2,7.3197525E1,7.869383E1,2.8407483E2,3.9096814E2,1.2629496E2,6.3910522E1,7.3906746E0,7.18704E0,7.498796E1,2.2195393E1,2.3284565E1,1.1736523E2,7.040483E1,2.7926922E0,4.8143032E1,3.0550798E1,1.2368815E2,1.6038669E2,1.9424656E1,3.715435E2],"tree_param":{"num_deleted":"0","num_feature":"10","num_nodes":"31","size_leaf_vector":"1"}},{"base_weights":[-7.5541306E-3,-3.2527292E-1,2.3661828E-1,-4.3057695E-1,1.092079E-1,-6.0776785E-2,5.1803124E-1,-4.8399952E-1,3.2711527E-1,-3.1756026E-1,4.2744341E-1,-2.3638222E-1,3.4395906E-1,2.3460005E-1,7.5687885E-1,-5.7131685E-2,-3.0733703E-2,-1.1318511E-2,6.410649E-2,-4.0024936E-2,6.936375E-2,2.5186036E-3,6.959098E-2,-4.5286715E-2,9.0906145E-3,5.729503E-3,6.513271E-2,-8.454579E-3,5.192234E-2,-1.0770383E-2,7.791942E-2],"categories":[],"categories_nodes":[],"categories_segments":[],"categories_sizes":[],"default_left":[0,0,0,0,0,0,0,0,0,0,0,0,0,0,0,0,0,0,0,0,0,0,0,0,0,0,0,0,0,0,0],"id":21,"left_children":[1,3,5,7,9,11,13,15,17,19,21,23,25,27,29,-1,-1,-1,-1,-1,-1,-1,-1,-1,-1,-1,-1,-1,-1,-1,-1],"loss_changes":[9.644416E1,2.4763596E1,5.886381E1,1.7767632E1,1.4557306E1,2.4436584E1,2.4281075E1,6.099373E0,4.115781E0,4.1182837E0,6.5975046E0,1.7016006E1,9.134863E0,1.51841955E1,3.858101E0,0E0,0E0,0E0,0E0,0E0,0E0,0E0,0E0,0E0,0E0,0E0,0E0,0E0,0E0,0E0,0E0],"parents":[2147483647,0,0,1,1,2,2,3,3,4,4,5,5,6,6,7,7,8,8,9,9,10,10,11,11,12,12,13,13,14,14],"right_children":[2,4,6,8,10,12,14,16,18,20,22,24,26,28,30,-1,-1,-1,-1,-1,-1,-1,-1,-1,-1,-1,-1,-1,-1,-1,-1],"split_conditions":[-4.414927E-2,9.6071607E-1,1.6761895E-2,1.5643275E0,-1.16757855E-1,1.0165446E0,-1.20478E-1,4.640377E-1,6.865075E-2,1.6540291E0,-3.6760274E-1,2.0700002E-1,6.4275716E-3,-2.190745E-1,-1.7532948E0,-5.7131685E-2,-3.0733703E-2,-1.1318511E-2,6.410649E-2,-4.0024936E-2,6.936375E-2,2.5186036E-3,6.959098E-2,-4.5286715E-2,9.0906145E-3,5.729503E-3,6.513271E-2,-8.454579E-3,5.192234E-2,-1.0770383E-2,7.791942E-2],"split_indices":[6,5,7,7,7,6,5,7,8,3,8,5,5,8,0,0,0,0,0,0,0,0,0,0,0,0,0,0,0,0,0],"split_type":[0,0,0,0,0,0,0,0,0,0,0,0,0,0,0,0,0,0,0,0,0,0,0,0,0,0,0,0,0,0,0],"sum_hessian":[1.2411948E3,5.392226E2,7.019723E2,4.340355E2,1.0518711E2,3.4167584E2,3.6029642E2,4.0578598E2,2.8249506E1,4.49326E1,6.0254517E1,2.3857828E2,1.0309758E2,1.6567664E2,1.9461978E2,2.70068E2,1.3571799E2,1.2024775E1,1.6224731E1,4.2094563E1,2.838034E0,2.4555508E1,3.569901E1,1.4336546E2,9.521281E1,5.3959312E1,4.9138264E1,7.843314E1,8.724349E1,4.8005786E0,1.898192E2],"tree_param":{"num_deleted":"0","num_feature":"10","num_nodes":"31","size_leaf_vector":"1"}},{"base_weights":[6.6145402E-3,2.293292E-2,-4.51409E-1,-2.586867E-1,5.1138595E-2,1.3143818E-1,-5.0367004E-1,-4.5269224E-1,2.3885703E-2,-2.9449093E-1,6.803174E-2,4.9661625E-2,-3.8195625E-2,1.2913524E-1,-5.6320125E-1,-5.6502838E-2,5.3369934E-3,-3.0961055E-2,2.0004613E-2,-4.1778874E-2,3.8927425E-2,1.0942358E-2,-1.2681817E-2,4.9255494E-2,-4.1553747E-2,-2.0366998E-2,-6.347684E-2],"categories":[],"categories_nodes":[],"categories_segments":[],"categories_sizes":[],"default_left":[0,0,0,0,0,0,0,0,0,0,0,0,0,0,0,0,0,0,0,0,0,0,0,0,0,0,0],"id":22,"left_children":[1,3,5,7,9,11,13,15,17,19,21,-1,-1,23,25,-1,-1,-1,-1,-1,-1,-1,-1,-1,-1,-1,-1],"loss_changes":[9.680263E0,9.944022E0,1.4234104E0,6.2593374E0,6.6600785E0,1.025752E0,1.6209364E0,3.8749638E0,2.84366E0,4.646189E0,8.765032E0,0E0,0E0,1.0651962E0,8.420515E-1,0E0,0E0,0E0,0E0,0E0,0E0,0E0,0E0,0E0,0E0,0E0,0E0],"parents":[2147483647,0,0,1,1,2,2,3,3,4,4,5,5,6,6,7,7,8,8,9,9,10,10,13,13,14,14],"right_children":[2,4,6,8,10,12,14,16,18,20,22,-1,-1,24,26,-1,-1,-1,-1,-1,-1,-1,-1,-1,-1,-1,-1],"split_conditions":[1.7213228E0,-1.2540982E0,-1.5631777E0,3.1077027E-1,-1.6743698E0,-5.3438956E-1,-1.5209742E0,9.6071607E-1,-3.1699064E-1,1.0939842E0,8.519333E-1,4.9661625E-2,-3.8195625E-2,2.0881438E-1,-1.226294E0,-5.6502838E-2,5.3369934E-3,-3.0961055E-2,2.0004613E-2,-4.1778874E-2,3.8927425E-2,1.0942358E-2,-1.2681817E-2,4.9255494E-2,-4.1553747E-2,-2.0366998E-2,-6.347684E-2],"split_indices":[6,7,0,6,6,7,2,5,2,5,5,0,0,4,3,0,0,0,0,0,0,0,0,0,0,0,0],"split_type":[0,0,0,0,0,0,0,0,0,0,0,0,0,0,0,0,0,0,0,0,0,0,0,0,0,0,0],"sum_hessian":[1.2927715E3,1.2492147E3,4.355686E1,1.1298129E2,1.1362334E3,3.4594865E0,4.0097378E1,6.663186E1,4.6349426E1,5.2181446E1,1.0840519E3,2.0406504E0,1.4188361E0,3.3472786E0,3.67501E1,5.4432392E1,1.21994705E1,1.5758617E1,3.059081E1,4.4539066E1,7.6423793E0,8.944772E2,1.8957475E2,2.0650861E0,1.2821925E0,6.7393794E0,3.0010717E1],"tree_param":{"num_deleted":"0","num_feature":"10","num_nodes":"27","size_leaf_vector":"1"}},{"base_weights":[6.599161E-4,3.8588956E-1,-1.860453E-1,7.2691536E-1,9.915928E-2,3.8068834E-1,-3.1766075E-1,7.8402865E-1,-2.1863712E-2,3.0802116E-1,-2.7810076E-1,5.5153024E-1,-1.2490887E-2,-9.052752E-2,-4.8689684E-1,8.634471E-2,6.305348E-2,3.6789626E-2,-5.0263565E-2,5.3332504E-2,-8.395911E-3,3.5431515E-2,-4.0092267E-2,7.304289E-2,1.6782178E-2,4.91327E-2,-2.8292766E-2,1.8390056E-2,-3.6431324E-2,-2.753417E-2,-5.6148637E-2],"categories":[],"categories_nodes":[],"categories_segments":[],"categories_sizes":[],"default_left":[0,0,0,0,0,0,0,0,0,0,0,0,0,0,0,0,0,0,0,0,0,0,0,0,0,0,0,0,0,0,0],"id":23,"left_children":[1,3,5,7,9,11,13,15,17,19,21,23,25,27,29,-1,-1,-1,-1,-1,-1,-1,-1,-1,-1,-1,-1,-1,-1,-1,-1],"loss_changes":[9.009783E1,3.991396E1,6.3056816E1,7.998062E0,1.7681164E1,1.0718933E1,2.629728E1,1.5696487E0,2.8455486E0,1.27803545E1,6.36377E0,7.510109E0,6.8537545E0,2.2142792E1,6.038307E0,0E0,0E0,0E0,0E0,0E0,0E0,0E0,0E0,0E0,0E0,0E0,0E0,0E0,0E0,0E0,0E0],"parents":[2147483647,0,0,1,1,2,2,3,3,4,4,5,5,6,6,7,7,8,8,9,9,10,10,11,11,12,12,13,13,14,14],"right_children":[2,4,6,8,10,12,14,16,18,20,22,24,26,28,30,-1,-1,-1,-1,-1,-1,-1,-1,-1,-1,-1,-1,-1,-1,-1,-1],"split_conditions":[-5.3909343E-1,-5.1602535E-2,-9.822504E-1,1.5053718E0,3.1006205E-1,4.2726615E-1,-2.8811437E-1,2.176464E-1,-1.9052337E-1,3.8389367E-1,-1.7941107E0,7.3578805E-1,-1.6339164E0,3.17864E-1,-6.1222565E-1,8.634471E-2,6.305348E-2,3.6789626E-2,-5.0263565E-2,5.3332504E-2,-8.395911E-3,3.5431515E-2,-4.0092267E-2,7.304289E-2,1.6782178E-2,4.91327E-2,-2.8292766E-2,1.8390056E-2,-3.6431324E-2,-2.753417E-2,-5.6148637E-2],"split_indices":[6,7,7,5,5,8,5,5,8,8,6,6,7,6,2,0,0,0,0,0,0,0,0,0,0,0,0,0,0,0,0],"split_type":[0,0,0,0,0,0,0,0,0,0,0,0,0,0,0,0,0,0,0,0,0,0,0,0,0,0,0,0,0,0,0],"sum_hessian":[1.2506761E3,4.079286E2,8.4274756E2,1.8562192E2,2.2230667E2,1.5847305E2,6.842745E2,1.7242323E2,1.319869E1,1.4320683E2,7.9099846E1,1.1019084E2,4.828221E1,2.9281708E2,3.9145743E2,1.1058218E2,6.1841057E1,7.4189534E0,5.779737E0,9.070849E1,5.2498344E1,1.2557237E1,6.654261E1,7.453592E1,3.5654922E1,1.6579035E1,3.1703176E1,1.4640096E2,1.4641612E2,1.032644E2,2.8819302E2],"tree_param":{"num_deleted":"0","num_feature":"10","num_nodes":"31","size_leaf_vector":"1"}},{"base_weights":[-8.128987E-3,-2.3398538E-1,3.0185106E-1,-4.5688462E-1,-9.451004E-3,-1.20765306E-1,4.6985078E-1,-5.280074E-1,1.4813165E-2,-1.9121242E-1,4.337881E-1,-3.578783E-1,2.4989197E-1,5.778889E-2,5.902309E-1,-5.3881656E-2,1.223427E-2,-3.487651E-2,4.1424215E-2,-4.0127475E-2,1.2544967E-2,-8.513195E-3,6.352013E-2,-4.5619145E-2,3.6950734E-2,-4.4597406E-2,4.2717956E-2,-2.022899E-2,5.272714E-2,5.1648323E-3,6.625862E-2],"categories":[],"categories_nodes":[],"categories_segments":[],"categories_sizes":[],"default_left":[0,0,0,0,0,0,0,0,0,0,0,0,0,0,0,0,0,0,0,0,0,0,0,0,0,0,0,0,0,0,0],"id":24,"left_children":[1,3,5,7,9,11,13,15,17,19,21,23,25,27,29,-1,-1,-1,-1,-1,-1,-1,-1,-1,-1,-1,-1,-1,-1,-1,-1],"loss_changes":[8.569215E1,3.5432552E1,3.6686962E1,1.19275055E1,2.858257E1,1.3057154E1,1.8288345E1,2.2365189E0,7.0462866E0,1.6784393E1,1.0838545E1,6.6329203E0,7.364746E0,1.043903E1,1.1101379E1,0E0,0E0,0E0,0E0,0E0,0E0,0E0,0E0,0E0,0E0,0E0,0E0,0E0,0E0,0E0,0E0],"parents":[2147483647,0,0,1,1,2,2,3,3,4,4,5,5,6,6,7,7,8,8,9,9,10,10,11,11,12,12,13,13,14,14],"right_children":[2,4,6,8,10,12,14,16,18,20,22,24,26,28,30,-1,-1,-1,-1,-1,-1,-1,-1,-1,-1,-1,-1,-1,-1,-1,-1],"split_conditions":[3.30972E-1,1.5728262E-1,-4.7346804E-1,1.3155563E0,6.3980013E-1,2.901175E-1,-7.075275E-1,2.202889E0,1.09324455E-1,3.1371328E-1,-9.395489E-1,1.8076262E0,-7.822143E-1,1.1001593E0,-1.2371432E0,-5.3881656E-2,1.223427E-2,-3.487651E-2,4.1424215E-2,-4.0127475E-2,1.2544967E-2,-8.513195E-3,6.352013E-2,-4.5619145E-2,3.6950734E-2,-4.4597406E-2,4.2717956E-2,-2.022899E-2,5.272714E-2,5.1648323E-3,6.625862E-2],"split_indices":[6,7,7,5,5,5,5,1,8,8,6,6,8,6,8,0,0,0,0,0,0,0,0,0,0,0,0,0,0,0,0],"split_type":[0,0,0,0,0,0,0,0,0,0,0,0,0,0,0,0,0,0,0,0,0,0,0,0,0,0,0,0,0,0,0],"sum_hessian":[1.2219728E3,7.0705005E2,5.149228E2,3.542977E2,3.5275238E2,1.4654884E2,3.6837393E2,3.077723E2,4.652539E1,2.5056886E2,1.021835E2,8.939591E1,5.7152943E1,8.362049E1,2.8475342E2,3.0290927E2,4.863029E0,2.442212E1,2.2103273E1,1.5047916E2,1.0008971E2,2.873308E1,7.3450424E1,7.9080284E1,1.0315626E1,1.1296775E1,4.5856167E1,5.417715E1,2.9443344E1,3.3927197E1,2.5082623E2],"tree_param":{"num_deleted":"0","num_feature":"10","num_nodes":"31","size_leaf_vector":"1"}},{"base_weights":[8.399487E-3,2.4556963E-2,-4.1577116E-1,-2.470363E-1,5.0984997E-2,2.7832856E-2,-5.2886367E-1,-4.3470225E-1,1.8884145E-2,6.282001E-2,-3.953308E-1,-5.031245E-2,3.0660668E-1,-5.97724E-1,-1.3745828E-2,-5.5003326E-2,5.8029247E-3,-3.4271847E-2,1.9880595E-2,-1.762723E-2,8.826765E-3,9.945282E-3,-6.685417E-2,9.160311E-2,-4.617256E-3,-1.5420342E-2,-6.247895E-2,6.137694E-2,-4.7093343E-2],"categories":[],"categories_nodes":[],"categories_segments":[],"categories_sizes":[],"default_left":[0,0,0,0,0,0,0,0,0,0,0,0,0,0,0,0,0,0,0,0,0,0,0,0,0,0,0,0,0],"id":25,"left_children":[1,3,5,7,9,11,13,15,17,19,21,-1,23,25,27,-1,-1,-1,-1,-1,-1,-1,-1,-1,-1,-1,-1,-1,-1],"loss_changes":[8.82367E0,8.910982E0,2.3848476E0,5.5030794E0,5.996955E0,1.7154702E0,1.328908E0,3.7026148E0,3.0943692E0,6.7221956E0,4.0331526E0,0E0,1.662812E0,3.025217E-1,1.8579156E0,0E0,0E0,0E0,0E0,0E0,0E0,0E0,0E0,0E0,0E0,0E0,0E0,0E0,0E0],"parents":[2147483647,0,0,1,1,2,2,3,3,4,4,5,5,6,6,7,7,8,8,9,9,10,10,12,12,13,13,14,14],"right_children":[2,4,6,8,10,12,14,16,18,20,22,-1,24,26,28,-1,-1,-1,-1,-1,-1,-1,-1,-1,-1,-1,-1,-1,-1],"split_conditions":[1.6885098E0,-1.2540982E0,-9.362773E-1,3.1077027E-1,2.005568E0,-4.0634906E-1,1.3660775E0,9.6071607E-1,-4.6776092E-1,-1.2767465E0,-4.5684913E-1,-5.031245E-2,-5.042015E-2,-1.5436952E0,2.093275E0,-5.5003326E-2,5.8029247E-3,-3.4271847E-2,1.9880595E-2,-1.762723E-2,8.826765E-3,9.945282E-3,-6.685417E-2,9.160311E-2,-4.617256E-3,-1.5420342E-2,-6.247895E-2,6.137694E-2,-4.7093343E-2],"split_indices":[6,7,5,6,7,9,1,5,5,6,6,0,9,7,6,0,0,0,0,0,0,0,0,0,0,0,0,0,0],"split_type":[0,0,0,0,0,0,0,0,0,0,0,0,0,0,0,0,0,0,0,0,0,0,0,0,0,0,0,0,0],"sum_hessian":[1.2849745E3,1.238731E3,4.6243538E1,1.0910836E2,1.1296226E3,9.547497E0,3.669604E1,6.3593975E1,4.5514385E1,1.101279E3,2.8343508E1,3.0099392E0,6.5375576E0,3.2227535E1,4.468504E0,5.143789E1,1.2156088E1,1.4821555E1,3.0692831E1,1.0536832E2,9.959107E2,1.0309336E1,1.8034172E1,1.8115321E0,4.7260256E0,2.2387438E0,2.9988792E1,1.7390597E0,2.7294445E0],"tree_param":{"num_deleted":"0","num_feature":"10","num_nodes":"29","size_leaf_vector":"1"}},{"base_weights":[-6.98074E-4,3.0559197E-1,-2.1072438E-1,4.9913839E-1,-1.0604084E-1,2.1875462E-1,-3.7709275E-1,7.2784185E-1,3.0526313E-1,4.4292983E-1,-2.4833249E-1,5.127097E-1,-5.034295E-2,-6.63571E-2,-4.794238E-1,7.890033E-2,5.56114E-3,5.20671E-2,5.053064E-4,7.770726E-2,5.6484663E-3,2.080291E-2,-4.0773682E-2,6.429958E-2,-2.1787345E-2,2.0467382E-2,-4.212096E-2,1.6473971E-2,-4.539161E-2,4.155556E-3,-5.0683465E-2],"categories":[],"categories_nodes":[],"categories_segments":[],"categories_sizes":[],"default_left":[0,0,0,0,0,0,0,0,0,0,0,0,0,0,0,0,0,0,0,0,0,0,0,0,0,0,0,0,0,0,0],"id":26,"left_children":[1,3,5,7,9,11,13,15,17,19,21,23,25,27,29,-1,-1,-1,-1,-1,-1,-1,-1,-1,-1,-1,-1,-1,-1,-1,-1],"loss_changes":[7.9314384E1,4.0010506E1,5.2343037E1,1.4911629E1,1.2703919E1,1.6230156E1,1.6743439E1,6.364609E0,1.2054268E1,4.287872E0,9.445686E0,9.467604E0,1.0287175E1,1.1884217E1,5.686165E0,0E0,0E0,0E0,0E0,0E0,0E0,0E0,0E0,0E0,0E0,0E0,0E0,0E0,0E0,0E0,0E0],"parents":[2147483647,0,0,1,1,2,2,3,3,4,4,5,5,6,6,7,7,8,8,9,9,10,10,11,11,12,12,13,13,14,14],"right_children":[2,4,6,8,10,12,14,16,18,20,22,24,26,28,30,-1,-1,-1,-1,-1,-1,-1,-1,-1,-1,-1,-1,-1,-1,-1,-1],"split_conditions":[-3.5254502E-1,4.2462835E-1,-6.751136E-1,-1.599711E-1,-9.9190164E-1,-4.5083314E-2,-8.115733E-1,1.365301E0,-7.6536936E-1,-8.7432534E-1,-7.3460615E-1,9.6071607E-1,1.1852063E-1,4.5191E-1,-1.5631777E0,7.890033E-2,5.56114E-3,5.20671E-2,5.053064E-4,7.770726E-2,5.6484663E-3,2.080291E-2,-4.0773682E-2,6.429958E-2,-2.1787345E-2,2.0467382E-2,-4.212096E-2,1.6473971E-2,-4.539161E-2,4.155556E-3,-5.0683465E-2],"split_indices":[6,7,7,5,5,8,5,8,6,6,8,5,5,7,0,0,0,0,0,0,0,0,0,0,0,0,0,0,0,0,0],"split_type":[0,0,0,0,0,0,0,0,0,0,0,0,0,0,0,0,0,0,0,0,0,0,0,0,0,0,0,0,0,0,0],"sum_hessian":[1.2309489E3,5.0053824E2,7.304106E2,3.4031317E2,1.6022508E2,2.0385226E2,5.2655835E2,1.5486899E2,1.8544417E2,3.254633E1,1.2767875E2,9.699366E1,1.068586E2,1.3085527E2,3.9570306E2,1.4179442E2,1.3074574E1,1.0754425E2,7.789992E1,1.6912226E1,1.5634107E1,3.297344E1,9.4705315E1,8.241614E1,1.4577521E1,6.35845E1,4.32741E1,8.233489E1,4.8520382E1,1.9753109E1,3.7594998E2],"tree_param":{"num_deleted":"0","num_feature":"10","num_nodes":"31","size_leaf_vector":"1"}},{"base_weights":[-8.664617E-3,-3.0481485E-1,2.1084982E-1,-4.3324077E-1,1.8230405E-2,-2.0290297E-2,5.136063E-1,-5.219242E-1,-8.840473E-2,-3.958651E-1,2.1824929E-1,-2.2352378E-1,2.9092234E-1,-3.0463648E-1,5.8455074E-1,-5.8140665E-2,-3.3415027E-2,-2.8918741E-2,3.6942273E-2,-4.473642E-2,7.701468E-2,-9.088843E-3,5.3772237E-2,-4.199922E-2,1.4116786E-2,-3.3317078E-3,5.9278395E-2,-4.5164134E-2,5.9685748E-2,3.3217024E-2,6.879374E-2],"categories":[],"categories_nodes":[],"categories_segments":[],"categories_sizes":[],"default_left":[0,0,0,0,0,0,0,0,0,0,0,0,0,0,0,0,0,0,0,0,0,0,0,0,0,0,0,0,0,0,0],"id":27,"left_children":[1,3,5,7,9,11,13,15,17,19,21,23,25,27,29,-1,-1,-1,-1,-1,-1,-1,-1,-1,-1,-1,-1,-1,-1,-1,-1],"loss_changes":[7.82784E1,2.127304E1,4.8404793E1,1.1171158E1,1.2242532E1,2.4929482E1,1.7560081E1,3.0622787E0,7.1150603E0,3.2363114E0,9.88629E0,1.7139523E1,1.5262692E1,3.522746E0,6.9700775E0,0E0,0E0,0E0,0E0,0E0,0E0,0E0,0E0,0E0,0E0,0E0,0E0,0E0,0E0,0E0,0E0],"parents":[2147483647,0,0,1,1,2,2,3,3,4,4,5,5,6,6,7,7,8,8,9,9,10,10,11,11,12,12,13,13,14,14],"right_children":[2,4,6,8,10,12,14,16,18,20,22,24,26,28,30,-1,-1,-1,-1,-1,-1,-1,-1,-1,-1,-1,-1,-1,-1,-1,-1],"split_conditions":[-4.414927E-2,6.982726E-1,2.1407661E-1,9.6071607E-1,-3.644817E-1,2.0700002E-1,-1.3645933E0,7.470412E-1,3.74326E-1,-7.96527E-2,2.188524E-2,9.561567E-1,-9.908397E-2,1.1520203E0,-5.1460296E-1,-5.8140665E-2,-3.3415027E-2,-2.8918741E-2,3.6942273E-2,-4.473642E-2,7.701468E-2,-9.088843E-3,5.3772237E-2,-4.199922E-2,1.4116786E-2,-3.3317078E-3,5.9278395E-2,-4.5164134E-2,5.9685748E-2,3.3217024E-2,6.879374E-2],"split_indices":[6,7,7,5,5,5,5,8,8,6,8,6,8,2,2,0,0,0,0,0,0,0,0,0,0,0,0,0,0,0,0],"split_type":[0,0,0,0,0,0,0,0,0,0,0,0,0,0,0,0,0,0,0,0,0,0,0,0,0,0,0,0,0,0,0],"sum_hessian":[1.2021229E3,5.11569E2,6.9055396E2,3.658035E2,1.4576549E2,3.9212115E2,2.984328E2,2.90564E2,7.523951E1,4.7157345E1,9.860815E1,2.3738298E2,1.5473819E2,2.3547865E1,2.7488495E2,2.1907101E2,7.1492966E1,5.255819E1,2.2681324E1,4.5752914E1,1.4044312E0,5.0478344E1,4.8129803E1,1.54174E2,8.3208984E1,7.5032715E1,7.9705475E1,2.0675379E1,2.872485E0,8.1106346E1,1.9377861E2],"tree_param":{"num_deleted":"0","num_feature":"10","num_nodes":"31","size_leaf_vector":"1"}},{"base_weights":[1.0243054E-2,2.4575336E-2,-4.1875502E-1,-4.5559776E-1,3.738974E-2,1.4685209E-1,-4.7257817E-1,-5.642651E-1,-2.3947868E-1,4.7788806E-2,-3.856165E-1,4.898316E-2,-3.6268946E-2,1.4868592E-1,-5.353722E-1,-6.0688294E-2,-1.6875528E-2,-5.5164557E-2,1.34155555E-2,-3.1861525E-2,6.15517E-3,9.122439E-3,-6.545814E-2,4.998521E-2,-3.9478462E-2,-1.777321E-2,-6.105746E-2],"categories":[],"categories_nodes":[],"categories_segments":[],"categories_sizes":[],"default_left":[0,0,0,0,0,0,0,0,0,0,0,0,0,0,0,0,0,0,0,0,0,0,0,0,0,0,0],"id":28,"left_children":[1,3,5,7,9,11,13,15,17,19,21,-1,-1,23,25,-1,-1,-1,-1,-1,-1,-1,-1,-1,-1,-1,-1],"loss_changes":[7.8677998E0,7.6320353E0,1.3288131E0,6.221409E-1,5.324945E0,9.392029E-1,1.5625257E0,2.4681854E-1,1.5349705E0,5.9614277E0,3.78611E0,0E0,0E0,1.0126438E0,8.258333E-1,0E0,0E0,0E0,0E0,0E0,0E0,0E0,0E0,0E0,0E0,0E0,0E0],"parents":[2147483647,0,0,1,1,2,2,3,3,4,4,5,5,6,6,7,7,8,8,9,9,10,10,13,13,14,14],"right_children":[2,4,6,8,10,12,14,16,18,20,22,-1,-1,24,26,-1,-1,-1,-1,-1,-1,-1,-1,-1,-1,-1,-1],"split_conditions":[1.7213228E0,-1.8985255E0,-1.5631777E0,3.722868E-1,2.005568E0,-5.3438956E-1,-1.5209742E0,1.059509E0,-9.1438025E-2,-1.7569644E0,-4.5684913E-1,4.898316E-2,-3.6268946E-2,2.093275E0,-1.226294E0,-6.0688294E-2,-1.6875528E-2,-5.5164557E-2,1.34155555E-2,-3.1861525E-2,6.15517E-3,9.122439E-3,-6.545814E-2,4.998521E-2,-3.9478462E-2,-1.777321E-2,-6.105746E-2],"split_indices":[6,7,0,5,7,7,2,8,6,6,6,0,0,6,3,0,0,0,0,0,0,0,0,0,0,0,0],"split_type":[0,0,0,0,0,0,0,0,0,0,0,0,0,0,0,0,0,0,0,0,0,0,0,0,0,0,0],"sum_hessian":[1.276951E3,1.2365812E3,4.0369896E1,3.1244741E1,1.2053364E3,3.3576112E0,3.7012283E1,1.9718924E1,1.1525817E1,1.1772815E3,2.805493E1,2.0299232E0,1.327688E0,3.272028E0,3.3740253E1,1.7318367E1,2.4005578E0,6.0198627E0,5.5059543E0,4.1818336E1,1.1354631E3,1.0355955E1,1.7698975E1,2.0364347E0,1.2355933E0,6.446415E0,2.729384E1],"tree_param":{"num_deleted":"0","num_feature":"10","num_nodes":"27","size_leaf_vector":"1"}},{"base_weights":[-2.199834E-3,3.3997375E-1,-1.7205924E-1,6.574362E-1,7.832247E-2,3.358168E-1,-2.942642E-1,7.131778E-1,-4.942076E-2,2.6909953E-1,-2.7196446E-1,4.9289438E-1,-2.7493386E-2,-8.22026E-2,-4.6026126E-1,7.9215884E-2,5.6485284E-2,7.026755E-2,-2.6930047E-2,4.7604483E-2,-9.327587E-3,3.188425E-2,-3.8953543E-2,6.2855504E-2,5.076344E-3,4.4647835E-2,-2.8088896E-2,1.4877493E-2,-3.695753E-2,-2.451345E-2,-5.3790428E-2],"categories":[],"categories_nodes":[],"categories_segments":[],"categories_sizes":[],"default_left":[0,0,0,0,0,0,0,0,0,0,0,0,0,0,0,0,0,0,0,0,0,0,0,0,0,0,0,0,0,0,0],"id":29,"left_children":[1,3,5,7,9,11,13,15,17,19,21,23,25,27,29,-1,-1,-1,-1,-1,-1,-1,-1,-1,-1,-1,-1,-1,-1,-1,-1],"loss_changes":[7.048371E1,3.3365093E1,5.0395947E1,7.19162E0,1.4886601E1,9.009968E0,2.2975239E1,1.5255203E0,2.5393398E0,1.084414E1,5.587853E0,6.572613E0,5.9541674E0,1.918902E1,5.989601E0,0E0,0E0,0E0,0E0,0E0,0E0,0E0,0E0,0E0,0E0,0E0,0E0,0E0,0E0,0E0,0E0],"parents":[2147483647,0,0,1,1,2,2,3,3,4,4,5,5,6,6,7,7,8,8,9,9,10,10,11,11,12,12,13,13,14,14],"right_children":[2,4,6,8,10,12,14,16,18,20,22,24,26,28,30,-1,-1,-1,-1,-1,-1,-1,-1,-1,-1,-1,-1,-1,-1,-1,-1],"split_conditions":[-5.3909343E-1,-5.1602535E-2,-9.822504E-1,1.5053718E0,3.1006205E-1,4.2726615E-1,-2.8811437E-1,2.176464E-1,-1.4572057E0,3.8389367E-1,-1.7941107E0,6.0423243E-1,-1.6339164E0,1.3441241E-1,-6.1222565E-1,7.9215884E-2,5.6485284E-2,7.026755E-2,-2.6930047E-2,4.7604483E-2,-9.327587E-3,3.188425E-2,-3.8953543E-2,6.2855504E-2,5.076344E-3,4.4647835E-2,-2.8088896E-2,1.4877493E-2,-3.695753E-2,-2.451345E-2,-5.3790428E-2],"split_indices":[6,7,7,5,5,8,5,5,6,8,6,5,7,8,2,0,0,0,0,0,0,0,0,0,0,0,0,0,0,0,0],"split_type":[0,0,0,0,0,0,0,0,0,0,0,0,0,0,0,0,0,0,0,0,0,0,0,0,0,0,0,0,0,0,0],"sum_hessian":[1.2106918E3,4.0129694E2,8.0939484E2,1.8062785E2,2.2066907E2,1.5664407E2,6.527508E2,1.674167E2,1.3211157E1,1.4301205E2,7.765701E1,1.0911249E2,4.7531586E1,2.8726468E2,3.6548608E2,1.0641269E2,6.1004013E1,2.4919026E0,1.07192545E1,9.082822E1,5.2183838E1,1.2604767E1,6.5052246E1,8.317114E1,2.5941345E1,1.6293297E1,3.123829E1,1.5952655E2,1.2773814E2,9.802999E1,2.674561E2],"tree_param":{"num_deleted":"0","num_feature":"10","num_nodes":"31","size_leaf_vector":"1"}},{"base_weights":[-9.178555E-3,-2.8966987E-1,2.0152088E-1,-4.2064106E-1,2.9015996E-2,-1.1569589E-1,4.0077984E-1,-5.128896E-1,-7.532714E-2,-3.7043652E-1,2.1792229E-1,-2.9005852E-1,2.1934842E-1,1.8952796E-1,6.899045E-1,-5.7351667E-2,-3.231711E-2,-4.7087617E-2,1.4643885E-2,-4.3286446E-2,4.899613E-2,-8.087301E-3,5.1707417E-2,-4.3920763E-2,5.213171E-3,-2.9183546E-2,4.216906E-2,-1.6875315E-2,3.556905E-2,4.462901E-2,7.697984E-2],"categories":[],"categories_nodes":[],"categories_segments":[],"categories_sizes":[],"default_left":[0,0,0,0,0,0,0,0,0,0,0,0,0,0,0,0,0,0,0,0,0,0,0,0,0,0,0,0,0,0,0],"id":30,"left_children":[1,3,5,7,9,11,13,15,17,19,21,23,25,27,29,-1,-1,-1,-1,-1,-1,-1,-1,-1,-1,-1,-1,-1,-1,-1,-1],"loss_changes":[7.005475E1,2.1234642E1,4.2833633E1,1.14426155E1,1.1326703E1,1.5365782E1,2.5277008E1,3.08432E0,6.837237E0,2.8021889E0,9.142375E0,8.837581E0,9.455576E0,1.4451652E1,3.0673065E0,0E0,0E0,0E0,0E0,0E0,0E0,0E0,0E0,0E0,0E0,0E0,0E0,0E0,0E0,0E0,0E0],"parents":[2147483647,0,0,1,1,2,2,3,3,4,4,5,5,6,6,7,7,8,8,9,9,10,10,11,11,12,12,13,13,14,14],"right_children":[2,4,6,8,10,12,14,16,18,20,22,24,26,28,30,-1,-1,-1,-1,-1,-1,-1,-1,-1,-1,-1,-1,-1,-1,-1,-1],"split_conditions":[-1.4498098E-2,6.982726E-1,-2.0877795E-1,9.6071607E-1,-3.644817E-1,9.561567E-1,1.8367285E-1,7.470412E-1,-5.388716E-1,-7.96527E-2,2.188524E-2,5.4275614E-1,-6.303186E-1,-5.388716E-1,-7.543539E-1,-5.7351667E-2,-3.231711E-2,-4.7087617E-2,1.4643885E-2,-4.3286446E-2,4.899613E-2,-8.087301E-3,5.1707417E-2,-4.3920763E-2,5.213171E-3,-2.9183546E-2,4.216906E-2,-1.6875315E-2,3.556905E-2,4.462901E-2,7.697984E-2],"split_indices":[6,7,7,5,5,6,5,8,8,6,8,8,5,8,8,0,0,0,0,0,0,0,0,0,0,0,0,0,0,0,0],"split_type":[0,0,0,0,0,0,0,0,0,0,0,0,0,0,0,0,0,0,0,0,0,0,0,0,0,0,0,0,0,0,0],"sum_hessian":[1.1833846E3,5.074597E2,6.759249E2,3.594256E2,1.4803407E2,2.6093707E2,4.1498785E2,2.832672E2,7.61584E1,4.722125E1,1.0081282E2,1.7171039E2,8.9226685E1,2.4074246E2,1.742454E2,2.1313434E2,7.0132866E1,2.695582E1,4.920258E1,4.449008E1,2.7311683E0,5.080152E1,5.0011303E1,1.1938919E2,5.23212E1,2.5177542E1,6.404915E1,7.62709E1,1.6447157E2,4.465829E1,1.2958711E2],"tree_param":{"num_deleted":"0","num_feature":"10","num_nodes":"31","size_leaf_vector":"1"}},{"base_weights":[1.1653955E-2,2.5113005E-2,-4.0394774E-1,-4.3719453E-1,3.697266E-2,-1.3464639E-1,-5.296272E-1,-5.433882E-1,-2.0916551E-1,4.6726227E-2,-3.6908683E-1,1.9391511E-1,-5.4627556E-2,2.1891762E-2,-5.966842E-2,-5.8352638E-2,1.0473536E-2,-4.627116E-2,2.2468796E-2,-1.6574562E-2,6.7821764E-3,8.815198E-3,-6.384616E-2,6.272433E-2,-1.9043898E-2],"categories":[],"categories_nodes":[],"categories_segments":[],"categories_sizes":[],"default_left":[0,0,0,0,0,0,0,0,0,0,0,0,0,0,0,0,0,0,0,0,0,0,0,0,0],"id":31,"left_children":[1,3,5,7,9,11,13,15,17,19,21,23,-1,-1,-1,-1,-1,-1,-1,-1,-1,-1,-1,-1,-1],"loss_changes":[7.1184993E0,6.7703195E0,1.2798667E0,6.343298E-1,4.777758E0,2.0052729E0,1.4797769E0,5.9308195E-1,1.3624247E0,5.276413E0,3.5428114E0,1.5431125E0,0E0,0E0,0E0,0E0,0E0,0E0,0E0,0E0,0E0,0E0,0E0,0E0,0E0],"parents":[2147483647,0,0,1,1,2,2,3,3,4,4,5,5,6,6,7,7,8,8,9,9,10,10,11,11],"right_children":[2,4,6,8,10,12,14,16,18,20,22,24,-1,-1,-1,-1,-1,-1,-1,-1,-1,-1,-1,-1,-1],"split_conditions":[1.7213228E0,-1.8985255E0,-5.26252E-1,5.9855366E-1,2.005568E0,-3.0081575E-3,-1.5209742E0,2.028688E0,2.800857E-1,-1.2767465E0,-4.5684913E-1,-5.474234E-1,-5.4627556E-2,2.1891762E-2,-5.966842E-2,-5.8352638E-2,1.0473536E-2,-4.627116E-2,2.2468796E-2,-1.6574562E-2,6.7821764E-3,8.815198E-3,-6.384616E-2,6.272433E-2,-1.9043898E-2],"split_indices":[6,7,7,6,7,0,2,4,5,6,6,3,0,0,0,0,0,0,0,0,0,0,0,0,0],"split_type":[0,0,0,0,0,0,0,0,0,0,0,0,0,0,0,0,0,0,0,0,0,0,0,0,0],"sum_hessian":[1.2698004E3,1.2308787E3,3.8921803E1,2.988917E1,1.2009895E3,1.3043661E1,2.5878141E1,1.9448828E1,1.0440343E1,1.1736825E3,2.7306969E1,7.5478735E0,5.495788E0,1.9414501E0,2.3936691E1,1.8408463E1,1.0403645E0,6.5474596E0,3.8928835E0,1.0538635E2,1.0682961E3,1.037282E1,1.6934149E1,3.2508557E0,4.297018E0],"tree_param":{"num_deleted":"0","num_feature":"10","num_nodes":"25","size_leaf_vector":"1"}},{"base_weights":[-3.3030382E-3,1.8422693E-1,-2.85338E-1,3.9429712E-1,-1.6250888E-1,2.2697629E-1,-4.167136E-1,6.2271845E-1,1.7189398E-1,2.5780836E-1,-3.1148013E-1,3.972633E-1,-2.516457E-1,-2.4815547E-1,-5.538528E-1,6.986014E-2,9.733162E-3,4.3960176E-2,-5.706297E-3,6.023662E-2,-1.259733E-2,3.3428506E-3,-4.2986132E-2,5.5333205E-2,-3.7270659E-3,4.135875E-2,-3.9788824E-2,2.289415E-3,-5.04839E-2,4.400637E-3,-5.6999374E-2],"categories":[],"categories_nodes":[],"categories_segments":[],"categories_sizes":[],"default_left":[0,0,0,0,0,0,0,0,0,0,0,0,0,0,0,0,0,0,0,0,0,0,0,0,0,0,0,0,0,0,0],"id":32,"left_children":[1,3,5,7,9,11,13,15,17,19,21,23,25,27,29,-1,-1,-1,-1,-1,-1,-1,-1,-1,-1,-1,-1,-1,-1,-1,-1],"loss_changes":[6.3124516E1,5.22798E1,3.217547E1,2.258609E1,1.705938E1,8.081532E0,8.640038E0,8.702446E0,1.3982443E1,9.531429E0,8.207445E0,4.9454117E0,2.7242286E0,1.1989164E1,2.0376816E0,0E0,0E0,0E0,0E0,0E0,0E0,0E0,0E0,0E0,0E0,0E0,0E0,0E0,0E0,0E0,0E0],"parents":[2147483647,0,0,1,1,2,2,3,3,4,4,5,5,6,6,7,7,8,8,9,9,10,10,11,11,12,12,13,13,14,14],"right_children":[2,4,6,8,10,12,14,16,18,20,22,24,26,28,30,-1,-1,-1,-1,-1,-1,-1,-1,-1,-1,-1,-1,-1,-1,-1,-1],"split_conditions":[1.223007E-1,2.6577935E-1,-9.989346E-1,-8.1558466E-2,-1.1477015E0,4.0730417E-1,-2.4306084E-1,1.041816E0,-6.714499E-1,5.5274468E-2,-8.202797E-1,5.5256355E-1,-9.978757E-1,-1.5984347E-1,-2.0062542E0,6.986014E-2,9.733162E-3,4.3960176E-2,-5.706297E-3,6.023662E-2,-1.259733E-2,3.3428506E-3,-4.2986132E-2,5.5333205E-2,-3.7270659E-3,4.135875E-2,-3.9788824E-2,2.289415E-3,-5.04839E-2,4.400637E-3,-5.6999374E-2],"split_indices":[6,7,7,5,6,8,8,8,6,5,5,5,0,2,5,0,0,0,0,0,0,0,0,0,0,0,0,0,0,0,0],"split_type":[0,0,0,0,0,0,0,0,0,0,0,0,0,0,0,0,0,0,0,0,0,0,0,0,0,0,0,0,0,0,0],"sum_hessian":[1.1915116E3,7.1586633E2,4.756452E2,4.457009E2,2.7016544E2,9.692954E1,3.7871567E2,2.1898758E2,2.2671332E2,7.0505646E1,1.996598E2,7.161862E1,2.5310915E1,1.7115642E2,2.0755925E2,1.910623E2,2.7925268E1,1.0408822E2,1.226251E2,3.6851208E1,3.365444E1,5.1201023E1,1.4845879E2,5.2492016E1,1.9126608E1,4.2320266E0,2.107889E1,8.369158E1,8.746483E1,5.410962E0,2.0214828E2],"tree_param":{"num_deleted":"0","num_feature":"10","num_nodes":"31","size_leaf_vector":"1"}},{"base_weights":[-9.994024E-3,-1.7999774E-1,3.096799E-1,-4.1061324E-1,3.5100196E-2,-4.6023216E-2,4.6743155E-1,-4.9676853E-1,-9.974136E-2,-2.630716E-1,2.3447031E-1,-1.273386E-1,8.733061E-1,-2.919852E-1,5.2025664E-1,-5.4024167E-2,-2.6095105E-2,-5.8952738E-2,1.2413221E-2,-4.2261854E-2,1.6071817E-2,-1.3191104E-2,4.9259253E-2,-2.256509E-2,5.5182714E-2,3.646884E-2,9.5768034E-2,-4.8596177E-2,7.182289E-2,2.174329E-2,6.228186E-2],"categories":[],"categories_nodes":[],"categories_segments":[],"categories_sizes":[],"default_left":[0,0,0,0,0,0,0,0,0,0,0,0,0,0,0,0,0,0,0,0,0,0,0,0,0,0,0,0,0,0,0],"id":33,"left_children":[1,3,5,7,9,11,13,15,17,19,21,23,25,27,29,-1,-1,-1,-1,-1,-1,-1,-1,-1,-1,-1,-1,-1,-1,-1,-1],"loss_changes":[6.338077E1,3.7779655E1,2.2741798E1,9.792934E0,2.3533216E1,9.478936E0,1.1408253E1,2.8062973E0,8.954416E0,1.0797332E1,2.2492424E1,7.869943E0,9.320879E-2,4.050522E0,8.023674E0,0E0,0E0,0E0,0E0,0E0,0E0,0E0,0E0,0E0,0E0,0E0,0E0,0E0,0E0,0E0,0E0],"parents":[2147483647,0,0,1,1,2,2,3,3,4,4,5,5,6,6,7,7,8,8,9,9,10,10,11,11,12,12,13,13,14,14],"right_children":[2,4,6,8,10,12,14,16,18,20,22,24,26,28,30,-1,-1,-1,-1,-1,-1,-1,-1,-1,-1,-1,-1,-1,-1,-1,-1],"split_conditions":[5.133724E-1,1.5728262E-1,-4.5086488E-1,9.0657437E-1,-5.066801E-1,1.483487E0,-1.6009898E0,9.8965055E-1,-5.388716E-1,7.151873E-1,-1.0153301E-1,1.1293194E0,-6.7799586E-1,1.1520203E0,-6.813151E-1,-5.4024167E-2,-2.6095105E-2,-5.8952738E-2,1.2413221E-2,-4.2261854E-2,1.6071817E-2,-1.3191104E-2,4.9259253E-2,-2.256509E-2,5.5182714E-2,3.646884E-2,9.5768034E-2,-4.8596177E-2,7.182289E-2,2.174329E-2,6.228186E-2],"split_indices":[6,7,7,5,6,8,5,8,8,5,5,2,1,2,0,0,0,0,0,0,0,0,0,0,0,0,0,0,0,0,0],"split_type":[0,0,0,0,0,0,0,0,0,0,0,0,0,0,0,0,0,0,0,0,0,0,0,0,0,0,0,0,0,0,0],"sum_hessian":[1.1642249E3,7.603206E2,4.0390424E2,3.6648633E2,3.938343E2,1.2431139E2,2.7959283E2,2.864902E2,7.9996124E1,1.5768538E2,2.3614891E2,1.1500096E2,9.310435E0,1.7889214E1,2.617036E2,2.4080646E2,4.568374E1,2.458226E1,5.5413864E1,1.1455926E2,4.312612E1,9.7808075E1,1.3834084E2,1.0104237E2,1.3958584E1,2.0820243E0,7.228411E0,1.5442893E1,2.4463198E0,6.699995E1,1.9470367E2],"tree_param":{"num_deleted":"0","num_feature":"10","num_nodes":"31","size_leaf_vector":"1"}},{"base_weights":[1.3450684E-2,2.616195E-2,-3.910556E-1,-4.2327952E-1,3.7293114E-2,-1.2557332E-1,-5.1848006E-1,-5.327816E-1,-1.9596195E-1,-4.7688354E-2,8.1912465E-2,1.8847823E-1,-5.3412367E-2,2.1890948E-2,-5.8768924E-2,-5.7409197E-2,1.04143815E-2,-4.4502866E-2,2.1505669E-2,-1.968137E-2,7.86195E-4,1.1669483E-2,-6.9131167E-3,5.9049483E-2,-1.8056428E-2],"categories":[],"categories_nodes":[],"categories_segments":[],"categories_sizes":[],"default_left":[0,0,0,0,0,0,0,0,0,0,0,0,0,0,0,0,0,0,0,0,0,0,0,0,0],"id":34,"left_children":[1,3,5,7,9,11,13,15,17,19,21,23,-1,-1,-1,-1,-1,-1,-1,-1,-1,-1,-1,-1,-1],"loss_changes":[6.507517E0,6.149541E0,1.2393789E0,6.351929E-1,4.54404E0,1.8745606E0,1.4420519E0,5.721035E-1,1.2465141E0,3.4216564E0,4.134765E0,1.3759894E0,0E0,0E0,0E0,0E0,0E0,0E0,0E0,0E0,0E0,0E0,0E0,0E0,0E0],"parents":[2147483647,0,0,1,1,2,2,3,3,4,4,5,5,6,6,7,7,8,8,9,9,10,10,11,11],"right_children":[2,4,6,8,10,12,14,16,18,20,22,24,-1,-1,-1,-1,-1,-1,-1,-1,-1,-1,-1,-1,-1],"split_conditions":[1.7213228E0,-1.8985255E0,-5.26252E-1,5.9855366E-1,-4.054141E-1,-3.0081575E-3,-1.5209742E0,2.028688E0,2.800857E-1,-5.1516664E-1,8.90843E-1,-5.474234E-1,-5.3412367E-2,2.1890948E-2,-5.8768924E-2,-5.7409197E-2,1.04143815E-2,-4.4502866E-2,2.1505669E-2,-1.968137E-2,7.86195E-4,1.1669483E-2,-6.9131167E-3,5.9049483E-2,-1.8056428E-2],"split_indices":[6,7,7,6,1,0,2,4,5,7,7,3,0,0,0,0,0,0,0,0,0,0,0,0,0],"split_type":[0,0,0,0,0,0,0,0,0,0,0,0,0,0,0,0,0,0,0,0,0,0,0,0,0],"sum_hessian":[1.262624E3,1.2250627E3,3.7561234E1,2.8712574E1,1.1963502E3,1.2825478E1,2.4735754E1,1.847104E1,1.0241534E1,4.118593E2,7.844909E2,7.555925E0,5.269553E0,1.9368255E0,2.279893E1,1.7438637E1,1.0324029E0,6.325624E0,3.9159107E0,1.1109112E2,3.007682E2,6.3783704E2,1.4665385E2,3.3291936E0,4.2267313E0],"tree_param":{"num_deleted":"0","num_feature":"10","num_nodes":"25","size_leaf_vector":"1"}},{"base_weights":[-4.562461E-3,2.6770663E-1,-1.8130808E-1,5.005639E-1,-3.550253E-2,2.2002919E-1,-3.2662734E-1,5.765105E-1,-1.5226763E-1,2.1065515E-1,-2.7725253E-1,3.529279E-1,-3.0753592E-1,-1.6505414E-3,-4.232955E-1,6.977048E-2,3.1576734E-2,6.5527946E-2,-3.7169456E-2,6.2291633E-2,3.5128263E-3,9.175021E-2,-3.2573033E-2,4.696312E-2,-2.184548E-2,-8.8419433E-4,-6.471176E-2,4.1354537E-2,-2.4959033E-2,6.757357E-3,-4.6174973E-2],"categories":[],"categories_nodes":[],"categories_segments":[],"categories_sizes":[],"default_left":[0,0,0,0,0,0,0,0,0,0,0,0,0,0,0,0,0,0,0,0,0,0,0,0,0,0,0,0,0,0,0],"id":35,"left_children":[1,3,5,7,9,11,13,15,17,19,21,23,25,27,29,-1,-1,-1,-1,-1,-1,-1,-1,-1,-1,-1,-1,-1,-1,-1,-1],"loss_changes":[5.649138E1,3.264361E1,4.158602E1,1.3049812E1,1.2058822E1,1.34173155E1,1.6428955E1,7.1868362E0,5.2113705E0,7.249623E0,6.216558E0,1.02442875E1,3.9226956E0,1.25497875E1,7.6397934E0,0E0,0E0,0E0,0E0,0E0,0E0,0E0,0E0,0E0,0E0,0E0,0E0,0E0,0E0,0E0,0E0],"parents":[2147483647,0,0,1,1,2,2,3,3,4,4,5,5,6,6,7,7,8,8,9,9,10,10,11,11,12,12,13,13,14,14],"right_children":[2,4,6,8,10,12,14,16,18,20,22,24,26,28,30,-1,-1,-1,-1,-1,-1,-1,-1,-1,-1,-1,-1,-1,-1,-1,-1],"split_conditions":[-3.5484412E-1,1.223007E-1,-8.201974E-1,1.2856565E0,-6.56996E-2,1.0895523E0,-9.362773E-1,4.6798941E-1,-1.0344652E0,-6.777569E-1,-2.153144E0,8.3234036E-1,1.7730279E-2,-3.8838473E-1,-1.3800027E0,6.977048E-2,3.1576734E-2,6.5527946E-2,-3.7169456E-2,6.2291633E-2,3.5128263E-3,9.175021E-2,-3.2573033E-2,4.696312E-2,-2.184548E-2,-8.8419433E-4,-6.471176E-2,4.1354537E-2,-2.4959033E-2,6.757357E-3,-4.6174973E-2],"split_indices":[7,6,6,5,8,7,5,8,6,5,5,5,5,8,0,0,0,0,0,0,0,0,0,0,0,0,0,0,0,0,0],"split_type":[0,0,0,0,0,0,0,0,0,0,0,0,0,0,0,0,0,0,0,0,0,0,0,0,0,0,0,0,0,0,0],"sum_hessian":[1.1719023E3,4.6109323E2,7.108091E2,2.6043475E2,2.0065846E2,1.8881973E2,5.219893E2,2.3339935E2,2.703541E1,9.94866E1,1.0117186E2,1.510898E2,3.7729946E1,1.1990671E2,4.0208264E2,1.5819432E2,7.520503E1,5.3520775E0,2.1683332E1,2.8947823E1,7.053878E1,3.246026E0,9.7925835E1,1.2561198E2,2.547782E1,2.0619339E1,1.7110607E1,4.4582184E1,7.5324524E1,2.9155468E1,3.7292715E2],"tree_param":{"num_deleted":"0","num_feature":"10","num_nodes":"31","size_leaf_vector":"1"}},{"base_weights":[-1.0704719E-2,-2.7584872E-1,1.7583616E-1,-3.304608E-1,4.0259778E-1,1.4684455E-2,5.2911144E-1,-4.1733843E-1,9.62411E-2,-4.7631897E-2,4.7536883E-1,-1.8367158E-1,3.178829E-1,3.8945645E-2,6.123761E-1,-5.272428E-2,-2.5489127E-2,-3.6002446E-2,3.473662E-2,-1.9321087E-3,6.149441E-2,-3.5654068E-2,1.3258832E-2,8.679814E-3,6.0230404E-2,-3.669885E-2,6.4810835E-2,9.701512E-3,6.768393E-2],"categories":[],"categories_nodes":[],"categories_segments":[],"categories_sizes":[],"default_left":[0,0,0,0,0,0,0,0,0,0,0,0,0,0,0,0,0,0,0,0,0,0,0,0,0,0,0,0,0],"id":36,"left_children":[1,3,5,7,9,11,13,15,17,-1,19,21,23,25,27,-1,-1,-1,-1,-1,-1,-1,-1,-1,-1,-1,-1,-1,-1],"loss_changes":[5.676104E1,1.7692966E1,3.8346306E1,1.6320812E1,2.513525E0,2.7944609E1,8.588455E0,6.3834877E0,8.730472E0,0E0,2.3266387E0,1.5406474E1,1.2024311E1,8.078701E0,5.924492E0,0E0,0E0,0E0,0E0,0E0,0E0,0E0,0E0,0E0,0E0,0E0,0E0,0E0,0E0],"parents":[2147483647,0,0,1,1,2,2,3,3,4,4,5,5,6,6,7,7,8,8,10,10,11,11,12,12,13,13,14,14],"right_children":[2,4,6,8,10,12,14,16,18,-1,20,22,24,26,28,-1,-1,-1,-1,-1,-1,-1,-1,-1,-1,-1,-1,-1,-1],"split_conditions":[-4.414927E-2,1.5643275E0,5.253446E-1,1.1678823E0,-1.6484665E0,2.0700002E-1,-9.362773E-1,3.2353044E-1,-3.5484412E-1,-4.7631897E-2,-1.0752488E0,9.561567E-1,1.09324455E-1,7.126161E-1,-1.2537013E0,-5.272428E-2,-2.5489127E-2,-3.6002446E-2,3.473662E-2,-1.9321087E-3,6.149441E-2,-3.5654068E-2,1.3258832E-2,8.679814E-3,6.0230404E-2,-3.669885E-2,6.4810835E-2,9.701512E-3,6.768393E-2],"split_indices":[6,7,7,5,8,5,5,8,7,0,3,6,8,6,8,0,0,0,0,0,0,0,0,0,0,0,0,0,0],"split_type":[0,0,0,0,0,0,0,0,0,0,0,0,0,0,0,0,0,0,0,0,0,0,0,0,0,0,0,0,0],"sum_hessian":[1.1456299E3,4.7293478E2,6.726951E2,4.381764E2,3.475841E1,4.6267892E2,2.100162E2,3.6407224E2,7.410414E1,2.2337766E0,3.252463E1,2.799358E2,1.8274312E2,3.0708405E1,1.793078E2,2.1581557E2,1.4825667E2,2.615317E1,4.7950966E1,7.346909E0,2.5177723E1,1.8091788E2,9.9017914E1,1.0154535E2,8.119776E1,1.866678E1,1.2041625E1,2.0213411E1,1.5909438E2],"tree_param":{"num_deleted":"0","num_feature":"10","num_nodes":"29","size_leaf_vector":"1"}},{"base_weights":[1.5004014E-2,2.6967395E-2,-3.7814346E-1,-4.1130462E-1,3.7467677E-2,1.5628695E-1,-4.3443987E-1,-5.7662155E-2,-2.5077888E-1,4.6663254E-2,-3.5447842E-1,4.636525E-2,-3.3976007E-2,1.659276E-1,-5.023782E-1,-4.649808E-2,9.604195E-3,-2.8354514E-2,5.84897E-3,7.42184E-3,-6.221297E-2,4.903033E-2,-3.6836743E-2,-1.4691725E-2,-5.8315046E-2],"categories":[],"categories_nodes":[],"categories_segments":[],"categories_sizes":[],"default_left":[0,0,0,0,0,0,0,0,0,0,0,0,0,0,0,0,0,0,0,0,0,0,0,0,0],"id":37,"left_children":[1,3,5,7,9,11,13,-1,15,17,19,-1,-1,21,23,-1,-1,-1,-1,-1,-1,-1,-1,-1,-1],"loss_changes":[5.9231987E0,5.634384E0,1.186893E0,6.157508E-1,4.3175354E0,8.1007683E-1,1.466589E0,0E0,1.256045E0,4.5734224E0,3.1983254E0,0E0,0E0,9.0838534E-1,7.9615164E-1,0E0,0E0,0E0,0E0,0E0,0E0,0E0,0E0,0E0,0E0],"parents":[2147483647,0,0,1,1,2,2,3,3,4,4,5,5,6,6,8,8,9,9,10,10,13,13,14,14],"right_children":[2,4,6,8,10,12,14,-1,16,18,20,-1,-1,22,24,-1,-1,-1,-1,-1,-1,-1,-1,-1,-1],"split_conditions":[1.7213228E0,-1.8985255E0,-1.5631777E0,-1.4498979E-1,2.005568E0,-5.3438956E-1,-1.5209742E0,-5.7662155E-2,3.722868E-1,-1.7569644E0,-4.5684913E-1,4.636525E-2,-3.3976007E-2,2.0881438E-1,-1.226294E0,-4.649808E-2,9.604195E-3,-2.8354514E-2,5.84897E-3,7.42184E-3,-6.221297E-2,4.903033E-2,-3.6836743E-2,-1.4691725E-2,-5.8315046E-2],"split_indices":[6,7,0,8,7,7,2,0,5,6,6,0,0,4,3,0,0,0,0,0,0,0,0,0,0],"split_type":[0,0,0,0,0,0,0,0,0,0,0,0,0,0,0,0,0,0,0,0,0,0,0,0,0],"sum_hessian":[1.256183E3,1.2199904E3,3.6192604E1,2.7651976E1,1.1923384E3,3.2798963E0,3.291271E1,1.2345706E1,1.530627E1,1.1658666E3,2.647183E1,2.065411E0,1.2144852E0,3.1992025E0,2.9713505E1,9.251628E0,6.0546417E0,3.9517437E1,1.1263491E3,1.0452605E1,1.6019226E1,2.0418882E0,1.1573142E0,6.023649E0,2.3689856E1],"tree_param":{"num_deleted":"0","num_feature":"10","num_nodes":"25","size_leaf_vector":"1"}},{"base_weights":[-5.7050586E-3,3.293984E-1,-1.3696647E-1,4.7705114E-1,-1.521413E-1,1.3094623E-1,-3.255204E-1,6.162483E-1,2.1686281E-1,1.7979461E-1,-3.6322963E-1,4.151884E-1,-6.287955E-2,-5.6967404E-2,-4.223197E-1,7.2548434E-2,2.7634969E-2,6.5346844E-2,3.6424112E-3,3.6690302E-2,-6.521689E-2,2.85105E-2,-5.10768E-2,6.0873903E-2,4.792764E-3,2.8895432E-2,-2.2472098E-2,1.9501295E-2,-4.0647265E-2,-1.677428E-2,-4.808142E-2],"categories":[],"categories_nodes":[],"categories_segments":[],"categories_sizes":[],"default_left":[0,0,0,0,0,0,0,0,0,0,0,0,0,0,0,0,0,0,0,0,0,0,0,0,0,0,0,0,0,0,0],"id":38,"left_children":[1,3,5,7,9,11,13,15,17,19,21,23,25,27,29,-1,-1,-1,-1,-1,-1,-1,-1,-1,-1,-1,-1,-1,-1,-1,-1],"loss_changes":[5.084215E1,2.320385E1,4.1996674E1,8.89275E0,5.467798E0,1.8965818E1,1.2654999E1,5.8078194E0,6.9408607E0,5.0091233E0,4.685614E0,9.887684E0,1.17529545E1,1.1561679E1,5.255741E0,0E0,0E0,0E0,0E0,0E0,0E0,0E0,0E0,0E0,0E0,0E0,0E0,0E0,0E0,0E0,0E0],"parents":[2147483647,0,0,1,1,2,2,3,3,4,4,5,5,6,6,7,7,8,8,9,9,10,10,11,11,12,12,13,13,14,14],"right_children":[2,4,6,8,10,12,14,16,18,20,22,24,26,28,30,-1,-1,-1,-1,-1,-1,-1,-1,-1,-1,-1,-1,-1,-1,-1,-1],"split_conditions":[-6.644784E-1,7.0044136E-1,-3.9497596E-1,3.6463982E-1,-4.6776092E-1,-3.3166853E-1,-8.115733E-1,6.669691E-1,-6.714499E-1,4.0198416E-1,-9.075696E-1,6.8746716E-1,-6.196407E-1,1.8845081E-1,-9.7043353E-1,7.2548434E-2,2.7634969E-2,6.5346844E-2,3.6424112E-3,3.6690302E-2,-6.521689E-2,2.85105E-2,-5.10768E-2,6.0873903E-2,4.792764E-3,2.8895432E-2,-2.2472098E-2,1.9501295E-2,-4.0647265E-2,-1.677428E-2,-4.808142E-2],"split_indices":[7,6,6,8,5,5,5,5,6,8,8,7,8,2,8,0,0,0,0,0,0,0,0,0,0,0,0,0,0,0,0],"split_type":[0,0,0,0,0,0,0,0,0,0,0,0,0,0,0,0,0,0,0,0,0,0,0,0,0,0,0,0,0,0,0],"sum_hessian":[1.1538416E3,3.2433133E2,8.295102E2,2.4822754E2,7.6103775E1,3.4277423E2,4.8673593E2,1.6082169E2,8.740586E1,2.964124E1,4.6462536E1,1.3850986E2,2.0426439E2,1.2938054E2,3.573554E2,1.2084903E2,3.997265E1,2.4792982E1,6.2612877E1,2.4655268E1,4.9859724E0,8.440341E0,3.8022194E1,9.02759E1,4.8233948E1,6.410924E1,1.4015515E2,7.5436005E1,5.3944542E1,6.7491165E1,2.8986423E2],"tree_param":{"num_deleted":"0","num_feature":"10","num_nodes":"31","size_leaf_vector":"1"}},{"base_weights":[-1.135553E-2,-1.6796234E-1,2.7685818E-1,-3.9039418E-1,3.0870548E-2,-6.3372284E-2,4.230781E-1,-4.7742575E-1,-9.408603E-2,-2.4676542E-1,2.1188644E-1,-2.848669E-1,2.4527073E-1,7.477544E-2,5.329568E-1,-5.2019745E-2,-2.2769295E-2,-5.7389777E-2,1.17441965E-2,-3.8342018E-2,1.8759143E-2,-1.287724E-2,4.511316E-2,-3.895429E-2,3.0934218E-2,-4.2646702E-2,4.008213E-2,-1.7027672E-2,4.7066726E-2,1.8743837E-2,6.301604E-2],"categories":[],"categories_nodes":[],"categories_segments":[],"categories_sizes":[],"default_left":[0,0,0,0,0,0,0,0,0,0,0,0,0,0,0,0,0,0,0,0,0,0,0,0,0,0,0,0,0,0,0],"id":39,"left_children":[1,3,5,7,9,11,13,15,17,19,21,23,25,27,29,-1,-1,-1,-1,-1,-1,-1,-1,-1,-1,-1,-1,-1,-1,-1,-1],"loss_changes":[5.096261E1,3.236505E1,1.980325E1,8.86092E0,1.9510565E1,8.298083E0,1.0605915E1,2.730259E0,8.151482E0,9.169549E0,1.9203438E1,4.5078125E0,5.4815903E0,6.6646814E0,6.9783783E0,0E0,0E0,0E0,0E0,0E0,0E0,0E0,0E0,0E0,0E0,0E0,0E0,0E0,0E0,0E0,0E0],"parents":[2147483647,0,0,1,1,2,2,3,3,4,4,5,5,6,6,7,7,8,8,9,9,10,10,11,11,12,12,13,13,14,14],"right_children":[2,4,6,8,10,12,14,16,18,20,22,24,26,28,30,-1,-1,-1,-1,-1,-1,-1,-1,-1,-1,-1,-1,-1,-1,-1,-1],"split_conditions":[5.133724E-1,1.5728262E-1,-4.7346804E-1,9.0657437E-1,-5.066801E-1,2.901175E-1,-7.075275E-1,1.059509E0,-5.388716E-1,8.3234036E-1,-1.0153301E-1,1.8076262E0,-8.6027753E-1,1.2331377E0,-7.704058E-1,-5.2019745E-2,-2.2769295E-2,-5.7389777E-2,1.17441965E-2,-3.8342018E-2,1.8759143E-2,-1.287724E-2,4.511316E-2,-3.895429E-2,3.0934218E-2,-4.2646702E-2,4.008213E-2,-1.7027672E-2,4.7066726E-2,1.8743837E-2,6.301604E-2],"split_indices":[6,7,7,5,6,5,5,8,8,5,5,6,3,6,0,0,0,0,0,0,0,0,0,0,0,0,0,0,0,0,0],"split_type":[0,0,0,0,0,0,0,0,0,0,0,0,0,0,0,0,0,0,0,0,0,0,0,0,0,0,0,0,0,0,0],"sum_hessian":[1.1270541E3,7.305254E2,3.9652866E2,3.443462E2,3.8617917E2,1.1936105E2,2.771676E2,2.6569507E2,7.8651146E1,1.5226978E2,2.339094E2,6.9536156E1,4.98249E1,6.687194E1,2.1029567E2,2.2591895E2,3.977611E1,2.3540596E1,5.511055E1,1.1591771E2,3.6352066E1,9.6692154E1,1.3721724E2,5.9414173E1,1.0121982E1,9.040834E0,4.078407E1,4.1656788E1,2.5215149E1,4.6815235E1,1.6348044E2],"tree_param":{"num_deleted":"0","num_feature":"10","num_nodes":"31","size_leaf_vector":"1"}},{"base_weights":[1.6100248E-2,2.7950943E-2,-3.4523267E-1,-1.9222271E-1,4.7664825E-2,8.598425E-2,-4.7068846E-1,-3.8600677E-1,5.3601693E-2,7.608505E-2,-8.786573E-2,-4.452155E-2,3.2793096E-1,-5.501788E-1,5.5634256E-2,-5.140681E-2,9.326178E-3,-3.523028E-2,1.8696971E-2,-1.2231805E-2,1.2255764E-2,1.6959384E-2,-3.3498097E-2,8.474632E-2,-6.8777776E-4,-8.179613E-3,-5.832495E-2,5.7947386E-2,-4.147505E-2],"categories":[],"categories_nodes":[],"categories_segments":[],"categories_sizes":[],"default_left":[0,0,0,0,0,0,0,0,0,0,0,0,0,0,0,0,0,0,0,0,0,0,0,0,0,0,0,0,0],"id":40,"left_children":[1,3,5,7,9,11,13,15,17,19,21,-1,23,25,27,-1,-1,-1,-1,-1,-1,-1,-1,-1,-1,-1,-1,-1,-1],"loss_changes":[5.3608494E0,5.2651496E0,2.191403E0,4.7706575E0,4.290712E0,1.406288E0,1.3256235E0,3.4776096E0,2.4928458E0,8.49721E0,1.2352535E1,0E0,1.2779132E0,3.7026405E-1,1.4648882E0,0E0,0E0,0E0,0E0,0E0,0E0,0E0,0E0,0E0,0E0,0E0,0E0,0E0,0E0],"parents":[2147483647,0,0,1,1,2,2,3,3,4,4,5,5,6,6,7,7,8,8,9,9,10,10,12,12,13,13,14,14],"right_children":[2,4,6,8,10,12,14,16,18,20,22,-1,24,26,28,-1,-1,-1,-1,-1,-1,-1,-1,-1,-1,-1,-1,-1,-1],"split_conditions":[1.6885098E0,-1.2540982E0,-9.362773E-1,3.1077027E-1,8.519333E-1,-4.0634906E-1,1.3660775E0,9.6071607E-1,-6.777569E-1,-8.433557E-1,-1.5158229E-1,-4.452155E-2,-5.042015E-2,-1.5436952E0,2.093275E0,-5.140681E-2,9.326178E-3,-3.523028E-2,1.8696971E-2,-1.2231805E-2,1.2255764E-2,1.6959384E-2,-3.3498097E-2,8.474632E-2,-6.8777776E-4,-8.179613E-3,-5.832495E-2,5.7947386E-2,-4.147505E-2],"split_indices":[6,7,5,6,5,9,1,5,5,6,6,0,9,7,6,0,0,0,0,0,0,0,0,0,0,0,0,0,0],"split_type":[0,0,0,0,0,0,0,0,0,0,0,0,0,0,0,0,0,0,0,0,0,0,0,0,0,0,0,0,0],"sum_hessian":[1.248683E3,1.2099236E3,3.875941E1,9.871202E1,1.1112115E3,8.806007E0,2.9953403E1,5.4879837E1,4.3832184E1,9.1894995E2,1.9226161E2,2.4928212E0,6.3131866E0,2.5983759E1,3.9696453E0,4.3250603E1,1.1629233E1,1.0434199E1,3.3397987E1,1.7408885E2,7.448611E2,9.431365E1,9.794795E1,1.874024E0,4.4391627E0,1.9426885E0,2.404107E1,1.7683852E0,2.2012603E0],"tree_param":{"num_deleted":"0","num_feature":"10","num_nodes":"29","size_leaf_vector":"1"}},{"base_weights":[-6.4352835E-3,1.4010304E-1,-2.9064327E-1,2.6425192E-1,-3.2015046E-1,9.387613E-2,-4.422887E-1,5.1098317E-1,9.1717504E-2,2.33242E-1,-4.1403085E-1,6.485827E-1,-3.886825E-2,-5.6778587E-2,-4.957627E-1,6.0076296E-2,1.0578245E-2,4.1242775E-2,-7.529688E-3,-1.5371751E-4,7.93026E-2,8.74989E-2,-4.4325244E-2,7.490453E-2,-4.6061616E-2,2.2893617E-2,-4.0502656E-2,1.9045053E-2,-5.6875773E-2,1.4386268E-2,-5.1594496E-2],"categories":[],"categories_nodes":[],"categories_segments":[],"categories_sizes":[],"default_left":[0,0,0,0,0,0,0,0,0,0,0,0,0,0,0,0,0,0,0,0,0,0,0,0,0,0,0,0,0,0,0],"id":41,"left_children":[1,3,5,7,9,11,13,15,17,19,21,23,25,27,29,-1,-1,-1,-1,-1,-1,-1,-1,-1,-1,-1,-1,-1,-1,-1,-1],"loss_changes":[4.735261E1,4.295211E1,2.259562E1,2.5128498E1,8.400005E0,8.141372E0,5.693882E0,8.781921E0,1.873769E1,3.1318974E0,5.5484676E0,2.7230234E0,8.906506E0,4.5310097E0,3.219246E0,0E0,0E0,0E0,0E0,0E0,0E0,0E0,0E0,0E0,0E0,0E0,0E0,0E0,0E0,0E0,0E0],"parents":[2147483647,0,0,1,1,2,2,3,3,4,4,5,5,6,6,7,7,8,8,9,9,10,10,11,11,12,12,13,13,14,14],"right_children":[2,4,6,8,10,12,14,16,18,20,22,24,26,28,30,-1,-1,-1,-1,-1,-1,-1,-1,-1,-1,-1,-1,-1,-1,-1,-1],"split_conditions":[2.8523663E-1,7.0044136E-1,-8.433557E-1,-2.9900035E-1,-1.5703918E0,-9.7306997E-1,-1.3887911E0,8.7803715E-1,-6.714499E-1,5.9203815E-1,-2.153144E0,1.6650584E0,6.865075E-2,4.1648126E-1,-1.9911332E0,6.0076296E-2,1.0578245E-2,4.1242775E-2,-7.529688E-3,-1.5371751E-4,7.93026E-2,8.74989E-2,-4.4325244E-2,7.490453E-2,-4.6061616E-2,2.2893617E-2,-4.0502656E-2,1.9045053E-2,-5.6875773E-2,1.4386268E-2,-5.1594496E-2],"split_indices":[7,6,6,5,7,5,5,8,6,1,5,7,8,8,2,0,0,0,0,0,0,0,0,0,0,0,0,0,0,0,0],"split_type":[0,0,0,0,0,0,0,0,0,0,0,0,0,0,0,0,0,0,0,0,0,0,0,0,0,0,0,0,0,0,0],"sum_hessian":[1.1350117E3,7.492195E2,3.857923E2,5.9039264E2,1.588268E2,1.0922276E2,2.7656952E2,2.4214862E2,3.4824405E2,2.2820913E1,1.3600587E2,2.0340172E1,8.888259E1,3.394094E1,2.4262859E2,1.9783249E2,4.4316128E1,1.18748055E2,2.2949599E2,1.6780325E1,6.0405884E0,2.3732681E0,1.3363261E2,1.8948647E1,1.3915247E0,5.1552433E1,3.733016E1,2.3311893E1,1.0629046E1,7.2340913E0,2.353945E2],"tree_param":{"num_deleted":"0","num_feature":"10","num_nodes":"31","size_leaf_vector":"1"}},{"base_weights":[-1.2306655E-2,-2.5830403E-1,1.5698054E-1,-3.1230775E-1,3.7986743E-1,7.7770054E-3,4.8617586E-1,-3.9807856E-1,9.063095E-2,1.3663776E-2,5.508676E-1,-1.763463E-1,2.8527015E-1,3.326076E-2,5.645624E-1,-5.1191386E-2,-2.356504E-2,-3.3924963E-2,3.1956624E-2,-4.0455487E-2,4.648795E-2,-3.0751616E-2,6.5398425E-2,-2.7549094E-2,3.0138645E-2,-1.2729377E-2,4.3048933E-2,-3.506211E-2,6.0681313E-2,1.4156083E-2,6.425175E-2],"categories":[],"categories_nodes":[],"categories_segments":[],"categories_sizes":[],"default_left":[0,0,0,0,0,0,0,0,0,0,0,0,0,0,0,0,0,0,0,0,0,0,0,0,0,0,0,0,0,0,0],"id":42,"left_children":[1,3,5,7,9,11,13,15,17,19,21,23,25,27,29,-1,-1,-1,-1,-1,-1,-1,-1,-1,-1,-1,-1,-1,-1,-1,-1],"loss_changes":[4.616494E1,1.5691875E1,3.2251812E1,1.445356E1,2.2284522E0,2.3190788E1,7.2520676E0,6.2425003E0,7.394009E0,2.5264091E0,2.3533373E0,1.30077505E1,1.09008465E1,7.099415E0,5.663887E0,0E0,0E0,0E0,0E0,0E0,0E0,0E0,0E0,0E0,0E0,0E0,0E0,0E0,0E0,0E0,0E0],"parents":[2147483647,0,0,1,1,2,2,3,3,4,4,5,5,6,6,7,7,8,8,9,9,10,10,11,11,12,12,13,13,14,14],"right_children":[2,4,6,8,10,12,14,16,18,20,22,24,26,28,30,-1,-1,-1,-1,-1,-1,-1,-1,-1,-1,-1,-1,-1,-1,-1,-1],"split_conditions":[-4.414927E-2,1.5643275E0,5.253446E-1,1.1678823E0,-4.8615763E-1,2.0700002E-1,-9.362773E-1,3.2353044E-1,-3.5484412E-1,1.8804906E-1,-1.9968684E0,8.8542926E-1,-9.268871E-1,7.126161E-1,-1.0866897E0,-5.1191386E-2,-2.356504E-2,-3.3924963E-2,3.1956624E-2,-4.0455487E-2,4.648795E-2,-3.0751616E-2,6.5398425E-2,-2.7549094E-2,3.0138645E-2,-1.2729377E-2,4.3048933E-2,-3.506211E-2,6.0681313E-2,1.4156083E-2,6.425175E-2],"split_indices":[6,7,7,5,5,5,5,8,7,8,3,2,7,6,8,0,0,0,0,0,0,0,0,0,0,0,0,0,0,0,0],"split_type":[0,0,0,0,0,0,0,0,0,0,0,0,0,0,0,0,0,0,0,0,0,0,0,0,0,0,0,0,0,0,0],"sum_hessian":[1.1065825E3,4.508745E2,6.5570795E2,4.161679E2,3.4706596E1,4.5190945E2,2.0379851E2,3.4313846E2,7.3029465E1,1.1391391E1,2.3315205E1,2.7187704E2,1.800324E2,3.0277899E1,1.735206E2,2.0048204E2,1.4265642E2,2.5209936E1,4.781953E1,5.9655285E0,5.4258623E0,2.2878673E0,2.1027338E1,2.2550168E2,4.6375378E1,4.690368E1,1.3312871E2,1.8370861E1,1.1907037E1,2.7440182E1,1.4608043E2],"tree_param":{"num_deleted":"0","num_feature":"10","num_nodes":"31","size_leaf_vector":"1"}},{"base_weights":[1.7815236E-2,-1.1984094E-1,4.6489447E-2,-1.4072216E-1,5.9878737E-1,7.771158E-2,-1.4994632E-1,-2.3008817E-1,1.081827E-2,-5.36901E-3,8.280529E-2,-9.0860404E-2,1.13758825E-1,1.1708454E-1,-3.4626746E-1,-4.858901E-2,-6.0416856E-3,2.5058111E-2,-3.317217E-2,-3.633062E-2,1.15140695E-2,1.5187912E-2,-1.5839335E-3,2.609474E-2,-6.336259E-2,-5.26347E-3,-5.2725203E-2],"categories":[],"categories_nodes":[],"categories_segments":[],"categories_sizes":[],"default_left":[0,0,0,0,0,0,0,0,0,0,0,0,0,0,0,0,0,0,0,0,0,0,0,0,0,0,0],"id":43,"left_children":[1,3,5,7,9,11,13,15,17,-1,-1,19,21,23,25,-1,-1,-1,-1,-1,-1,-1,-1,-1,-1,-1,-1],"loss_changes":[4.906293E0,3.3002877E0,6.318095E0,2.83392E0,9.781885E-1,5.405677E0,7.45125E0,5.680773E0,6.531313E0,0E0,0E0,8.851864E0,3.6183262E0,6.7146225E0,4.315076E0,0E0,0E0,0E0,0E0,0E0,0E0,0E0,0E0,0E0,0E0,0E0,0E0],"parents":[2147483647,0,0,1,1,2,2,3,3,4,4,5,5,6,6,7,7,8,8,11,11,12,12,13,13,14,14],"right_children":[2,4,6,8,10,12,14,16,18,-1,-1,20,22,24,26,-1,-1,-1,-1,-1,-1,-1,-1,-1,-1,-1,-1],"split_conditions":[-9.596713E-1,2.085984E0,9.561567E-1,1.7515476E-1,-5.6059504E-1,-8.169235E-1,-3.644817E-1,-2.0874636E-1,1.4977612E-1,-5.36901E-3,8.280529E-2,-1.8463564E-1,3.860202E-1,9.6546024E-1,-4.0379632E-1,-4.858901E-2,-6.0416856E-3,2.5058111E-2,-3.317217E-2,-3.633062E-2,1.15140695E-2,1.5187912E-2,-1.5839335E-3,2.609474E-2,-6.336259E-2,-5.26347E-3,-5.2725203E-2],"split_indices":[1,9,6,6,0,7,5,0,0,0,0,8,6,2,7,0,0,0,0,0,0,0,0,0,0,0,0],"split_type":[0,0,0,0,0,0,0,0,0,0,0,0,0,0,0,0,0,0,0,0,0,0,0,0,0,0,0],"sum_hessian":[1.2405745E3,2.1331837E2,1.0272561E3,2.0807648E2,5.2419066E0,8.868946E2,1.403615E2,1.3056293E2,7.751355E1,1.562092E0,3.6798146E0,1.5597406E2,7.3092053E2,5.964184E1,8.071966E1,5.1323E1,7.9239914E1,4.5755318E1,3.1758236E1,6.6827736E1,8.914633E1,5.646587E2,1.6626187E2,5.0597885E1,9.043959E0,3.1272835E1,4.944682E1],"tree_param":{"num_deleted":"0","num_feature":"10","num_nodes":"27","size_leaf_vector":"1"}},{"base_weights":[-7.600693E-3,3.041645E-1,-1.3041303E-1,4.3966424E-1,-1.372945E-1,3.534738E-2,-3.8560027E-1,6.5080214E-1,2.770508E-1,1.2551245E-2,-5.8041996E-1,2.9432303E-1,-1.454212E-1,-1.8112567E-1,-4.8100707E-1,6.892644E-2,-1.7246678E-2,5.0510086E-2,-1.3807459E-3,3.4524396E-2,-2.5106028E-2,1.3031471E-2,-6.293053E-2,5.169518E-2,-3.935611E-4,4.9848636E-3,-3.8148534E-2,6.8881385E-2,-2.8857684E-2,-4.112361E-3,-5.1960748E-2],"categories":[],"categories_nodes":[],"categories_segments":[],"categories_sizes":[],"default_left":[0,0,0,0,0,0,0,0,0,0,0,0,0,0,0,0,0,0,0,0,0,0,0,0,0,0,0,0,0,0,0],"id":44,"left_children":[1,3,5,7,9,11,13,15,17,19,21,23,25,27,29,-1,-1,-1,-1,-1,-1,-1,-1,-1,-1,-1,-1,-1,-1,-1,-1],"loss_changes":[4.2799652E1,1.8956985E1,3.3932957E1,8.126827E0,4.984177E0,2.2842958E1,6.0744934E0,3.42873E0,9.188633E0,5.084856E0,7.408314E-1,1.3317915E1,1.3271345E1,9.741743E0,3.625126E0,0E0,0E0,0E0,0E0,0E0,0E0,0E0,0E0,0E0,0E0,0E0,0E0,0E0,0E0,0E0,0E0],"parents":[2147483647,0,0,1,1,2,2,3,3,4,4,5,5,6,6,7,7,8,8,9,9,10,10,11,11,12,12,13,13,14,14],"right_children":[2,4,6,8,10,12,14,16,18,20,22,24,26,28,30,-1,-1,-1,-1,-1,-1,-1,-1,-1,-1,-1,-1,-1,-1,-1,-1],"split_conditions":[-6.644784E-1,7.0044136E-1,6.78967E-2,-1.8463564E-1,4.0198416E-1,-3.3166853E-1,-5.1460296E-1,1.6273606E0,1.1337051E-1,-4.6776092E-1,-2.316977E0,4.5191E-1,8.424611E-2,-1.2537013E0,-1.3800027E0,6.892644E-2,-1.7246678E-2,5.0510086E-2,-1.3807459E-3,3.4524396E-2,-2.5106028E-2,1.3031471E-2,-6.293053E-2,5.169518E-2,-3.935611E-4,4.9848636E-3,-3.8148534E-2,6.8881385E-2,-2.8857684E-2,-4.112361E-3,-5.1960748E-2],"split_indices":[7,6,6,8,8,5,2,4,5,5,7,7,2,8,0,0,0,0,0,0,0,0,0,0,0,0,0,0,0,0,0],"split_type":[0,0,0,0,0,0,0,0,0,0,0,0,0,0,0,0,0,0,0,0,0,0,0,0,0,0,0,0,0,0,0],"sum_hessian":[1.1157808E3,3.149042E2,8.008766E2,2.4095152E2,7.395267E1,4.8603033E2,3.1484625E2,1.0352811E2,1.3742342E2,5.599072E1,1.796195E1,1.9953749E2,2.8649283E2,1.0109001E2,2.1375624E2,9.9062775E1,4.4653325E0,7.661564E1,6.0807777E1,2.461523E1,3.1375488E1,1.0487438E0,1.6913206E1,1.1383475E2,8.570274E1,1.5722597E2,1.2926688E2,1.0518697E1,9.057131E1,1.7410824E1,1.9634541E2],"tree_param":{"num_deleted":"0","num_feature":"10","num_nodes":"31","size_leaf_vector":"1"}},{"base_weights":[-1.3104147E-2,-2.8626788E-1,1.2508422E-1,-3.5832456E-1,1.26674E-1,-1.607189E-2,4.652424E-1,-4.4576454E-1,-7.4488014E-2,-1.9075692E-1,4.2245823E-1,-1.16711885E-1,4.237661E-1,-3.5991337E-2,5.545335E-1,-5.3068977E-2,-1.7331317E-2,-2.7884156E-2,3.5225805E-2,-5.067676E-2,3.6746763E-2,-1.8863035E-2,6.14689E-2,-2.7483119E-2,1.6488288E-2,3.496435E-3,6.274344E-2,-3.7541766E-2,5.637787E-2,2.8855596E-2,6.860665E-2],"categories":[],"categories_nodes":[],"categories_segments":[],"categories_sizes":[],"default_left":[0,0,0,0,0,0,0,0,0,0,0,0,0,0,0,0,0,0,0,0,0,0,0,0,0,0,0,0,0,0,0],"id":45,"left_children":[1,3,5,7,9,11,13,15,17,19,21,23,25,27,29,-1,-1,-1,-1,-1,-1,-1,-1,-1,-1,-1,-1,-1,-1,-1,-1],"loss_changes":[4.115343E1,1.0942598E1,3.4772377E1,7.7121696E0,5.2586517E0,2.2742647E1,9.524868E0,5.4236603E0,6.612489E0,5.000376E0,3.5060554E0,1.86564E1,7.554369E0,6.940145E0,6.1105576E0,0E0,0E0,0E0,0E0,0E0,0E0,0E0,0E0,0E0,0E0,0E0,0E0,0E0,0E0,0E0,0E0],"parents":[2147483647,0,0,1,1,2,2,3,3,4,4,5,5,6,6,7,7,8,8,9,9,10,10,11,11,12,12,13,13,14,14],"right_children":[2,4,6,8,10,12,14,16,18,20,22,24,26,28,30,-1,-1,-1,-1,-1,-1,-1,-1,-1,-1,-1,-1,-1,-1,-1,-1],"split_conditions":[-2.2632912E-1,1.2159814E0,5.894919E-1,9.6071607E-1,7.4105626E-3,9.0657437E-1,-9.362773E-1,7.032417E-1,3.74326E-1,4.7530732E-1,-1.4196721E0,3.436136E-1,-6.196407E-1,7.126161E-1,-5.388716E-1,-5.3068977E-2,-1.7331317E-2,-2.7884156E-2,3.5225805E-2,-5.067676E-2,3.6746763E-2,-1.8863035E-2,6.14689E-2,-2.7483119E-2,1.6488288E-2,3.496435E-3,6.274344E-2,-3.7541766E-2,5.637787E-2,2.8855596E-2,6.860665E-2],"split_indices":[6,7,7,5,8,5,5,0,8,5,6,8,8,6,8,0,0,0,0,0,0,0,0,0,0,0,0,0,0,0,0],"split_type":[0,0,0,0,0,0,0,0,0,0,0,0,0,0,0,0,0,0,0,0,0,0,0,0,0,0,0,0,0,0,0],"sum_hessian":[1.0882648E3,3.6522836E2,7.230364E2,3.1107864E2,5.414971E1,5.1166324E2,2.1137317E2,2.3737984E2,7.3698814E1,2.6290377E1,2.7859333E1,4.1698654E2,9.4676674E1,3.205122E1,1.7932195E2,1.8024745E2,5.7132393E1,5.006909E1,2.3629726E1,1.684603E1,9.444348E0,6.671097E0,2.1188236E1,2.6705536E2,1.499312E2,3.294895E1,6.1727722E1,2.070676E1,1.13444605E1,6.0392975E1,1.1892897E2],"tree_param":{"num_deleted":"0","num_feature":"10","num_nodes":"31","size_leaf_vector":"1"}},{"base_weights":[1.8901715E-2,2.9941002E-2,-3.307676E-1,-3.84636E-1,3.9239395E-2,8.062905E-2,-4.570306E-1,-5.065544E-1,-1.7426114E-1,4.7587942E-2,